tree
version=v4
num_class=1
num_tree_per_iteration=1
label_index=0
max_feature_idx=64
objective=huber
feature_names=day_of_year day_of_year_sin day_of_year_cos knyc_hrrr_f05_c knyc_hrrr_f06_c knyc_hrrr_f07_c knyc_obs_temp_c knyc_obs_dewpoint_c knyc_obs_wind_speed_kts knyc_obs_wind_dir_sin knyc_obs_wind_dir_cos knyc_morning_avg_temp_c knyc_morning_max_temp_c knyc_morning_min_temp_c knyc_morning_avg_dewpoint_c knyc_obs_pressure_mslp_hpa knyc_obs_visibility_mi klga_hrrr_f05_c klga_hrrr_f06_c klga_hrrr_f07_c klga_rap_f05_c klga_rap_f06_c klga_rap_f07_c klga_gfs_f05_c klga_gfs_f06_c klga_gfs_f07_c klga_obs_temp_c klga_obs_dewpoint_c klga_obs_wind_speed_kts klga_obs_wind_dir_sin klga_obs_wind_dir_cos klga_morning_avg_temp_c klga_morning_max_temp_c klga_morning_min_temp_c klga_morning_avg_dewpoint_c klga_obs_pressure_mslp_hpa data_quality_knyc_obs_hours data_quality_klga_obs_hours knyc_wind_speed_missing knyc_yesterday_high_c month month_cat doy_sin_2 doy_cos_2 doy_sin_3 doy_cos_3 knyc_dp_dep klga_dp_dep delta_hrrr_gfs_05 delta_hrrr_rap_05 delta_hrrr_gfs_06 delta_hrrr_rap_06 delta_hrrr_gfs_07 delta_hrrr_rap_07 knyc_obs_wind_dir_sin_isna knyc_obs_wind_dir_cos_isna klga_obs_wind_dir_sin_isna klga_obs_wind_dir_cos_isna lag1_tmax_c lag2_tmax_c lag3_tmax_c tmax_trend3_c climo_tmax_doy_c tmax_anom7_c prec_yday_bin
feature_infos=[1:366] [-0.99999942202469239:0.99998555065071859] [-0.99997919295908244:0.9999907524084426] [-10.880000000000001:37.869999999999997] [-10.220000000000001:37.799999999999997] [-10.369999999999999:38.25] [-14.4444444444444:29.4444444444444] [-24.3888888888889:23.8888888888889] [0:354] [-1:1] [-1:1] [-14.2592592592593:28.271604938271601] [-13.2777777777778:29.4444444444444] [-15.5555555555556:27.7777777777778] [-24.820987654321002:23.641975308641999] [984.60000000000002:1048.0999999999999] [0.25:10] [-10.76:38.119999999999997] [-10.1:38.579999999999998] [-10.25:38.630000000000003] [-11:36.640000000000001] [-10.57:37.060000000000002] [-10.33:37.380000000000003] [-1.3400000000000001:36.829999999999998] [-9.4199999999999999:37.490000000000002] [-9.5500000000000007:37.68] [-13.8888888888889:31.1111111111111] [-22.7777777777778:23.3333333333333] [0:26] [-1:1] [-1:1] [-13.6543209876543:29.814814814814799] [-12.7777777777778:31.6666666666667] [-15:28.3333333333333] [-22.820987654321002:24.012345679012299] [984.79999999999995:1048.4000000000001] none none [0:1] [-9.4440000000000008:44.444000000000003] [1:12] -1:4:6:7:2:0:3:5:1:9:11:8:10 [-0.99999073973619013:0.99999073973619013] [-0.99996295911626554:1] [-0.99999073973619013:0.99999073973619013] [-0.99996295911626554:1] [-6.0493827160493829:20.87654320987658] [0.3086419753086993:21.85802469135799] [-7.509999999999998:5.860000000000003] [-4.629999999999999:6.759999999999998] [-6.6500000000000021:7.4599999999999973] [-6.3599999999999994:5.9499999999999993] [-9.0499999999999972:8.2099999999999973] [-5.7700000000000005:6.2200000000000006] [0:1] [0:1] none none [17.839133333333333:97.40913333333333] [17.839133333333333:97.40913333333333] [17.839133333333333:97.40913333333333] [-11.265555555555553:11.215555595555555] [32.313699999999997:90.690583333333336] [-14.87523758095238:20.267240690476186] [0:1]
tree_sizes=1477 1545 1537 1557 1643 1470 1638 1555 1621 1454 1621 1541 1462 1643 1647 1443 1540 1652 1695 1470 1645 1729 1723 1717 1556 1620 1636 1515 1607 1652 1614 1541 1653 1542 1549 1541 1536 1808 1632 1718 1636 1637 1634 1645 1722 1525 1615 1730 1530 1744 1630 1554 1523 1735 1552 1641 1553 1540 1709 1600 1630 1706 1637 1638 1560 1802 1719 1582 1554 1724 1541 1701 1718 1468 1609 1700 1636 1812 1611 1671 1691 1617 1715 1545 1637 1696 1449 1761 1551 1785 1737 1551 1657 1711 1731 1614 1641 1622 1553 1718 1626 1636 1601 1634 1719 1718 1726 1710 1722 1794 1631 1614 1635 1821 1723 1620 1645 1637 1709 1628 1814 1719 1724 1727 1645 1742 1841 1724 1707 1811 1822 1646 1793 1707 1711 1669 1720 1743 1616 1732 1638 1804 1748 1616 1644 1804 1749 1698 1644 1704 1625 1809 1633 1640 1639 1727 1818 1819 1718 1714 1713 1636 1646 1631 1739 1641 1621 1615 1731 1636 1639 1728 1725 1712 1617 1651 1783 1727 1723 1745 1644 1640 1537 1709 1716 1668 1720 1743 1712 1718 1824 1638 1615 1753 1727 1718 1741 1810 1648 1607 1820 1817 1800 1734 1880 1902 1639 1804 1838 1739 1712 1627 1735 1633 1744 1675 1729 1723 1631 1752 1739 1698 1630 1641 1697 1633 1733 1642 1710 1570 1728 1731 1662 1644 1646 1636 1625 1638 1638 1741 1819 1639 1725 1835 1538 1833 1629 1596 1719 1639 1733 1722 1727 1717 1721 1716 1648 1614 1805 1727 1915 1624 1842 1732 1633 1726 1736 1723 1714 1798 1708 1799 1891 1540 1645 1623 1806 1711 1809 1800 1635 1825 1648 1822 1805 1813 1644 1737 1546 1632 1619 1801 1822 1733 1742 1727 1834 1733 1804 1693 1582 1442 1727 1532 1649 1832 1528 1821 1725 1729 1642 1799 1728 1817 1730 1639 1824 1704 1645 1647 1670 1638 1611 1933 1756 1716 1722 1732 1717 1821 1659 1639 1747 1725 1624 1662 1804 1528 1658 1816 1816 1621 1827 1845 1723 1671 1733 1805 1736 1544 1637 1720 1675 1842 1746 1627 1736 1728 1824 1536 1745 1735 1642 1624 1716 1716 1826 1727 1816 1737 1747 1629 1730 1636 1720 1823 1843 1715 1810 1641 1825 1815 1739 1719 1790 1669 1720 1823 1736 1540 1816 1671 1824 1792 1640 1813 1662 1547 1645 1639 1731 1736 1839 1835 1651 1734 1732 1827 1642 1745 1911 1726 1745 1629 1748 1710 1647 1723 1668 1619 1621 1817 1653 1741 1824 1735 1650 1727 1804 1734 1708 1724 1649 1673 1817 1744 1746 1753 1641 1639 1657 1636 1824 1752 1816 1577 1811 1740 1718 1732 1808 1849 1797 1844 1741 1653 1827 1738 1840 1743 1741 1846 1736 1754 1639 1750 1650 1628 1803 1808 1828 1639 1651 1732 1646 1647 1802 1822 1644 1527 1740 1735 1660 1738 1813 1746 1641 1749 1830 1836 1734 1835 1837 1746 1644 1823 1659 1767 1650 1922 1737 1644 1625 1832 1716 1744 1551 1825 1810 1562 1735 1727 1550 1811 1736 1475 1648 1826 1813 1646 1737 1739 1637 1927 1944 1642 1730 1710 1672 1937 1730 1732 1647 1849 1845 1822 1931 1653 1756 1653 1837 1654 1662 1631 1738 1743 1640 1668 1653 1658 1720 1751 1634 1727 1839 1735 1562 1551 1633 1741 1836 1646 1822 1742 1566 1657 1912 1707 1748

Tree=0
num_leaves=16
num_cat=1
split_feature=4 50 50 41 48 50 42 50 15 18 12 43 28 50 49
split_gain=144.391 55.129 40.0266 20.3829 15.9424 9.75086 7.86563 10.6445 7.46941 7.45532 5.1049 2.90495 2.71673 1.90209 1.38273
threshold=22.815000000000001 0.51000000000000001 -1.3150000000000011 0 -1.3100000000000012 -0.48999999999999971 -0.833548052892222 1.8700000000000008 1013.7500000000001 25.790000000000003 6.3888888888888902 0.55601743665704462 7.5000000000000009 -0.37999999999999939 0.11500000000000023
decision_type=2 10 10 1 10 8 2 10 2 2 2 2 2 10 10
left_child=1 3 -2 4 -1 14 -3 10 -7 -4 -8 -10 -9 -11 -5
right_child=2 6 9 5 -6 8 7 12 11 13 -12 -13 -14 -15 -16
leaf_value=0.80440983862257343 0.8036313567676876 0.80034515758523439 0.80049697711085299 0.80670343079843365 0.8008872703834593 0.80605320731789276 0.80221606385444799 0.80194773719491041 0.80446503884533305 0.79970019152996608 0.80416605604353342 0.8028672779007513 0.80032008783647846 0.79851471989733569 0.80557669903400864
leaf_weight=71 59 64 87 92 57 53 63 52 66 56 70 50 52 202 62
leaf_count=71 59 64 87 92 57 53 63 52 66 56 70 50 52 202 62
internal_value=0.802247 0.803542 0.79984 0.804646 0.802825 0.805278 0.801886 0.80231 0.804512 0.79919 0.803246 0.803784 0.80112 0.79876 0.806272
internal_weight=1156 752 404 451 128 323 301 237 169 345 133 116 104 258 154
internal_count=1156 752 404 451 128 323 301 237 169 345 133 116 104 258 154
cat_boundaries=0 1
cat_threshold=1792
is_linear=0
shrinkage=1


Tree=1
num_leaves=16
num_cat=0
split_feature=4 50 1 52 47 1 50 35 50 1 44 49 31 21 23
split_gain=136.951 42.6469 30.0662 28.9074 17.6484 12.1405 10.8063 10.5396 8.54475 7.85038 6.14935 4.34645 2.60598 1.36499 0.647411
threshold=24.835000000000004 0.51000000000000001 -0.65234524191686594 -1.1899999999999984 5.1327160493827391 -0.15951315977791497 -0.84499999999999709 1014.1500000000002 1.595 0.68432406471780916 0.35769492645306949 0.49000000000000116 10.709876543209852 28.835000000000004 26.920000000000005
decision_type=2 10 2 10 2 2 8 2 10 2 2 10 2 10 10
left_child=1 2 4 -2 -1 -3 12 -8 10 -9 -7 -10 -4 14 -5
right_child=3 5 6 13 -6 8 7 9 11 -11 -12 -13 -14 -15 -16
leaf_value=0.0018274325634746885 0.00029026523479568019 -0.0023034985893235732 0.0040801246703053139 -0.0036915224923921579 -0.0018883661557751966 0.0019985085278095907 0.0029748374272891309 -0.00023230633153239401 9.0006984000165873e-05 0.0022402386843525576 -0.00038498466959796274 -0.0017902657174348059 0.0025256724503857119 -0.0041584214084643004 -0.0028403354927220128
leaf_weight=51 52 92 77 87 82 56 88 81 51 52 51 76 53 140 65
leaf_count=51 52 92 77 87 82 56 88 81 51 52 51 76 53 140 65
internal_value=-0.000501642 0.000621298 0.00156159 -0.00313991 -0.000460507 -0.000775228 0.00232693 0.00164164 -0.000167125 0.000743907 0.000869405 -0.00104039 0.0034705 -0.00374967 -0.00334847
internal_weight=1154 810 484 344 133 326 351 221 234 133 107 127 130 292 152
internal_count=1154 810 484 344 133 326 351 221 234 133 107 127 130 292 152
is_linear=0
shrinkage=0.005


Tree=2
num_leaves=16
num_cat=0
split_feature=4 50 50 1 50 1 34 61 18 4 34 45 0 18 52
split_gain=140.48 50.781 32.0964 19.9318 20.551 16.9077 7.88082 7.78565 6.3738 5.91765 3.54977 3.38829 2.65691 0.653339 0.544384
threshold=23.135000000000002 -0.41999999999999899 -1.1899999999999984 -0.10837695015263894 0.87000000000000288 -0.75015329512557205 -4.1697530864197541 -0.13833333333333539 25.790000000000003 15.585000000000003 2.9012345679012355 0.41326329957804325 138.50000000000003 28.73 -1.2949999999999997
decision_type=2 8 10 2 10 2 2 10 2 2 2 2 2 2 10
left_child=1 5 -2 9 7 -1 -6 11 -4 -3 -8 -5 14 -10 -7
right_child=2 3 8 4 6 12 10 -9 13 -11 -12 -13 -14 -15 -16
leaf_value=0.00060146804911231531 0.00051905282173242613 -0.00092157924542889775 -0.0021246100112166204 0.0018866584850296092 -0.001732920669776623 0.004393444212816529 0.0011199544687740138 0.0032738284779091674 -0.0033621815259916241 -0.0030528490029859781 -0.00059361773597386969 7.1391862136526755e-05 0.0026306171372140709 -0.0041097807440626825 0.0033623766415186375
leaf_weight=75 58 94 70 51 82 58 60 59 82 50 59 51 75 172 50
leaf_count=75 58 94 70 51 82 58 60 59 82 50 59 51 75 172 50
internal_value=-0.000427265 0.000810724 -0.00289889 -0.000110709 0.000515471 0.00261132 -0.00055016 0.00184104 -0.00351046 -0.00167755 0.000272501 0.00098853 0.00342729 -0.00388256 0.00395132
internal_weight=1146 764 382 506 362 258 201 161 324 144 119 102 183 254 108
internal_count=1146 764 382 506 362 258 201 161 324 144 119 102 183 254 108
is_linear=0
shrinkage=0.005


Tree=3
num_leaves=16
num_cat=0
split_feature=18 50 0 48 50 18 43 50 48 50 58 32 47 50 18
split_gain=135.711 51.6473 32.7013 28.9807 28.1079 12.315 11.3588 8.53186 8.00242 7.35176 6.82306 6.25658 3.42379 0.503011 0.030217
threshold=25.790000000000003 -0.88499999999999879 130.50000000000003 -1.2800000000000009 0.74500000000000111 13.880000000000001 -0.2595021845234966 -1.9849999999999983 2.3300000000000005 0.79000000000000103 52.642466366666675 4.7222222222222259 6.4814814814814907 0.19500000000000031 28.875000000000004
decision_type=2 8 2 10 10 2 2 10 8 10 8 2 2 10 2
left_child=1 5 4 -2 11 -1 -4 -7 -6 12 -10 -3 -8 14 -5
right_child=3 2 6 13 8 7 9 -9 10 -11 -12 -13 -14 -15 -16
leaf_value=0.0041233095154166221 0.00019730361589394949 0.0013508360252477403 -0.0026975802339613436 -0.0031451034452766179 0.0010317022077118358 0.0029893587314491644 0.0010791846388881958 0.00026046039809569206 -0.00014389825212107838 -0.0018074754320866902 -0.002526771065399603 0.0032694483985089597 -0.00058647885084307436 -0.0042162368343108235 -0.0038435213087961591
leaf_weight=91 50 85 99 50 59 57 53 57 68 80 53 89 71 152 57
leaf_count=91 50 85 99 50 59 57 53 57 68 80 53 89 71 152 57
internal_value=-0.000447676 0.000572039 -0.000112712 -0.00328499 0.000918168 0.00275648 -0.00131616 0.00163904 -0.000466699 -0.000635883 -0.00119979 0.00234527 0.000128396 -0.00395542 -0.0035493
internal_weight=1171 862 657 309 354 205 303 114 180 204 121 174 124 259 107
internal_count=1171 862 657 309 354 205 303 114 180 204 121 174 124 259 107
is_linear=0
shrinkage=0.005


Tree=4
num_leaves=17
num_cat=0
split_feature=4 52 52 51 1 15 18 46 1 1 1 46 58 51 48 51
split_gain=142.787 47.9453 30.9301 18.5443 10.0256 11.1939 9.98701 8.92371 8.69712 6.88487 4.71821 4.88772 3.19158 2.83007 1.87306 0.0260221
threshold=22.815000000000001 -0.88500000000000145 -1.329999999999999 0.19999999999999976 -0.71504373327588355 1015.9500000000002 25.955000000000002 3.1481481481481013 -0.61237985104942771 0.24372619187392147 0.84313847884979054 7.9845679012345911 58.2057997 1.0000000180025095e-35 -0.67499999999999882 0.42999999999999999
decision_type=2 8 10 10 2 2 2 2 2 2 2 2 8 10 10 10
left_child=1 8 -2 7 -5 -6 -4 -3 -1 -9 11 -7 -11 -10 -8 -16
right_child=2 3 6 4 5 10 14 9 13 12 -12 -13 -14 -15 15 -17
leaf_value=0.0011950263561232499 0.00089780559660592937 0.0028152694503566426 -0.0018392444159134583 -0.0025641038355513897 0.0014566235387684318 -0.00050063791673355664 -0.0027886823725466639 -0.00075938268579909055 0.0041659202819669637 0.0021289664464292386 0.00027211961926825877 -0.0025650367164053024 0.00040213109414074941 0.0026757240067672682 -0.0034965023616901959 -0.0041465543256497678
leaf_weight=53 50 61 92 57 68 60 50 60 90 58 55 55 50 63 51 161
leaf_count=53 50 61 92 57 68 60 50 60 90 58 55 55 50 63 51 161
internal_value=-0.000386766 0.000933058 -0.00276801 0.000127979 -0.000699842 -0.000244499 -0.00328685 0.00119279 0.00297042 0.000590505 -0.000929487 -0.00150156 0.00134053 0.00357367 -0.00378625 -0.00400732
internal_weight=1134 730 404 524 295 238 354 229 206 168 170 115 108 153 262 212
internal_count=1134 730 404 524 295 238 354 229 206 168 170 115 108 153 262 212
is_linear=0
shrinkage=0.005


Tree=5
num_leaves=15
num_cat=0
split_feature=4 50 1 48 50 1 1 25 51 61 50 63 50 18
split_gain=130.542 43.8007 38.1449 31.245 17.1523 15.0421 10.1071 9.09771 6.53752 5.5184 5.65314 4.0512 1.68555 1.2961
threshold=24.835000000000004 0.6600000000000007 -0.67803021058859214 -1.1750000000000005 -1.1749999999999996 0.7210268013660811 -0.24372957273992743 20.160000000000004 -0.010000000000000895 1.0000000180025095e-35 1.7150000000000001 5.7724298476190521 -0.36999999999999955 26.855000000000004
decision_type=2 10 2 10 10 2 2 8 10 10 10 8 10 2
left_child=1 2 4 -2 -1 7 -3 11 -8 10 -10 -4 -7 -5
right_child=3 6 5 13 -6 12 8 -9 9 -11 -12 -13 -14 -15
leaf_value=0.001588795984612911 0.00025200369892021022 -0.0025208110411556951 0.0029928185232544701 -0.0029128720372352964 -0.0019152588846903012 0.0039447936696809863 0.0011711846485056661 0.00012550381725871717 -0.00027290724373112124 0.00041999752850582203 -0.0025285440594968152 0.0012848049453817881 0.0027327741290393633 -0.0039594743515704283
leaf_weight=55 59 68 82 52 92 106 54 76 53 59 58 64 56 213
leaf_count=55 59 68 82 52 92 106 54 76 53 59 58 64 56 213
internal_value=-0.000352384 0.000706374 0.0015607 -0.00303566 -0.000602341 0.00238816 -0.000847242 0.00153175 -0.000330249 -0.000811235 -0.00146358 0.00225793 0.00354516 -0.00376583
internal_weight=1147 823 531 324 147 384 292 222 224 170 111 146 162 265
internal_count=1147 823 531 324 147 384 292 222 224 170 111 146 162 265
is_linear=0
shrinkage=0.005


Tree=6
num_leaves=17
num_cat=0
split_feature=18 48 52 52 18 0 42 62 47 39 52 44 0 48 0 45
split_gain=148.123 46.1897 39.6351 15.8463 13.4555 13.2344 9.44314 10.8715 5.5788 5.14492 4.26845 3.3828 3.27402 0.43047 0.263197 0.234682
threshold=22.000000000000004 -1.6949999999999992 1.0000000180025095e-35 -1.7650000000000003 25.790000000000003 150.50000000000003 -0.4749466738948262 42.176941869166676 6.4320987654320989 6.9445000000000006 1.7600000000000011 0.51236666743397929 166.50000000000003 -0.59500000000000053 146.50000000000003 0.30080866500414744
decision_type=2 10 10 8 2 2 2 10 2 10 10 2 2 10 2 2
left_child=2 -2 3 14 11 9 12 -8 -7 -5 -9 -3 -4 -6 -1 -11
right_child=1 4 6 5 13 8 7 10 -10 15 -12 -13 -14 -15 -16 -17
leaf_value=0.0042241838252028594 0.001343318038575706 -0.00085201817600486375 -0.00041252403606281235 0.0012770940333915253 -0.0032703861490321847 0.0015416259612692029 -0.00089845739164820277 0.0021143840166429678 -0.0005116605878913704 0.0035303082362766942 0.00022345263072673011 -0.0026085164723178697 -0.0020851961054158077 -0.0040604888188722982 0.0033213585661267682 0.0027471674828288646
leaf_weight=51 62 51 53 59 51 56 92 74 78 50 50 62 66 211 50 51
leaf_count=51 62 51 53 59 51 56 92 74 78 50 50 62 66 211 50 51
internal_value=-0.000337705 -0.00263675 0.0010403 0.00211117 -0.00329661 0.00151517 -0.000224899 0.000398241 0.000351493 0.00248152 0.0013598 -0.00183019 -0.00134987 -0.00391971 0.00381418 0.00316567
internal_weight=1167 437 730 395 375 294 335 216 134 160 124 113 119 262 101 101
internal_count=1167 437 730 395 375 294 335 216 134 160 124 113 119 262 101 101
is_linear=0
shrinkage=0.005


Tree=7
num_leaves=16
num_cat=1
split_feature=4 50 1 48 50 18 35 41 59 11 18 61 52 23 47
split_gain=134.944 49.207 38.1169 36.0541 20.4453 14.2978 12.4913 10.1558 9.07319 5.63877 3.06364 2.93924 2.738 2.563 1.39728
threshold=24.835000000000004 -0.83500000000000252 -0.67803021058859214 -1.1750000000000005 1.655 20.425000000000004 1011.0500000000001 0 75.520800000000023 3.8580246913580258 13.880000000000001 -0.28999993000000157 0.23500000000000013 16.520000000000003 4.3827160493826893
decision_type=2 8 2 10 10 2 2 1 8 2 2 10 10 10 2
left_child=1 5 13 -2 6 10 -4 12 9 -9 -1 -6 -8 -3 -5
right_child=3 2 4 14 11 -7 7 8 -10 -11 -12 -13 -14 -15 -16
leaf_value=0.0040483685920911809 0.00056762972963042557 -0.0017554055238669774 0.0030884231171532444 -0.0030022230897579459 -0.0016473392015084244 0.00073840946227741924 0.0027859694487823729 -0.00020957703555801084 -0.0017330934854054994 0.001980251011109966 0.002475272830299757 -0.00021004766486446138 0.0012055443628233369 -0.0033425050387158989 -0.0040177785931823501
leaf_weight=107 57 52 72 61 77 64 56 69 54 50 53 66 58 59 208
leaf_count=107 57 52 72 61 77 64 56 69 54 50 53 66 58 59 208
internal_value=-0.000312555 0.000750737 1.66646e-05 -0.00303649 0.000604014 0.0027506 0.00123996 0.000767117 -4.89007e-05 0.000719353 0.00354589 -0.000990039 0.00183942 -0.00262131 -0.00379946
internal_weight=1163 837 613 326 502 224 359 287 173 119 160 143 114 111 269
internal_count=1163 837 613 326 502 224 359 287 173 119 160 143 114 111 269
cat_boundaries=0 1
cat_threshold=14
is_linear=0
shrinkage=0.005


Tree=8
num_leaves=17
num_cat=0
split_feature=4 50 1 50 23 24 48 12 50 60 61 62 61 15 51 47
split_gain=140.449 55.1756 32.915 22.4435 19.833 17.1056 14.3887 14.0344 13.6209 5.7609 4.169 3.24278 2.98858 3.42614 1.71985 0.714093
threshold=26.185000000000006 -0.72999999999999765 -0.67803021058859214 1.655 19.035000000000004 15.815000000000003 -1.1750000000000005 1.8333333333333353 -1.9849999999999983 68.620800000000017 0.83833333333333482 57.854224550000005 0.77333333333333354 1013.9500000000002 0.019999999999999688 5.6790123456790491
decision_type=2 10 2 10 10 8 10 2 8 8 8 8 10 2 10 2
left_child=1 5 10 4 7 14 -2 -4 -7 -10 -3 -5 13 -9 -1 -8
right_child=6 2 3 11 -6 8 15 12 9 -11 -12 -13 -14 -15 -16 -17
leaf_value=0.0042803774572707509 -0.00092801526166023875 -0.0015241687178757846 -0.00029751193480030317 -0.0006176018238198967 -0.0017385843899790888 0.0031260245773151066 -0.0034055387178111986 0.0027968499784023974 0.00137192794186031 -0.00086688281927388498 -0.0034780487783855813 -0.0021217483438659406 0.0031554481278715739 0.0011183412614254615 0.0029151365463621916 -0.0041629231256414571
leaf_weight=73 50 50 72 77 53 65 91 52 57 56 67 68 66 77 51 152
leaf_count=73 50 50 72 77 53 65 91 52 57 56 67 68 66 77 51 152
internal_value=-0.000399228 0.000595791 -0.000304523 0.000293354 0.00103201 0.00232611 -0.00339308 0.00158642 0.0013211 0.000264557 -0.00266305 -0.0013327 0.00227999 0.00181126 0.00374668 -0.00389441
internal_weight=1177 884 582 465 320 302 293 267 178 113 117 145 195 129 124 243
internal_count=1177 884 582 465 320 302 293 267 178 113 117 145 195 129 124 243
is_linear=0
shrinkage=0.005


Tree=9
num_leaves=15
num_cat=0
split_feature=18 50 1 50 48 2 18 12 50 1 23 50 50 47
split_gain=142.436 55.6667 31.1262 27.0424 18.8981 15.1427 13.0185 12.0459 8.75263 6.09237 5.12963 4.53773 3.37238 0.627168
threshold=25.790000000000003 -0.88499999999999879 -0.62588817255938378 1.655 -1.1750000000000005 -0.65883892954715351 13.880000000000001 5.8333333333333357 -2.1049999999999991 0.55656748448714433 16.440000000000001 2.7750000000000004 0.51000000000000001 5.6790123456790491
decision_type=2 8 2 10 10 2 2 2 10 2 10 10 8 2
left_child=1 6 10 5 -2 -4 -1 9 -8 -7 -3 -5 -9 -6
right_child=4 2 3 11 13 7 8 12 -10 -11 -12 -13 -14 -15
leaf_value=0.0041343758277373735 -0.00059613727107819803 -0.0012481916422483982 -0.0012729236321910374 -0.00067249268483650945 -0.0033879817042034121 -0.00018057483563860578 0.0032006854359425754 0.0032935435016271338 0.00042585953364543844 0.0018084694237702273 -0.0031665229337180362 -0.0025202142645798205 0.001737565022976652 -0.0041397540502640922
leaf_weight=100 52 76 52 92 79 92 50 85 65 65 67 52 66 173
leaf_count=100 52 76 52 92 79 92 50 85 65 65 67 52 66 173
internal_value=-0.000417157 0.000621238 -0.000112323 0.000472572 -0.00335394 0.00120433 0.00281904 0.00162533 0.0016495 0.000649149 -0.00216274 -0.0013525 0.00262935 -0.0039184
internal_weight=1166 862 647 504 304 360 215 308 115 157 143 144 151 252
internal_count=1166 862 647 504 304 360 215 308 115 157 143 144 151 252
is_linear=0
shrinkage=0.005


Tree=10
num_leaves=17
num_cat=0
split_feature=18 50 50 1 50 43 1 50 50 22 49 50 52 47 50 18
split_gain=130.745 51.6474 36.015 28.231 14.7921 12.8887 10.9999 9.42627 9.21251 9.30911 4.40234 3.43156 3.13751 2.88529 1.61578 0.0549757
threshold=24.490000000000006 0.51000000000000001 -1.1899999999999984 -0.73866753694953124 -1.0200000000000002 -0.047321388322431761 -0.55657520495441892 -0.88499999999999879 2.4149999999999996 6.7250000000000005 0.15000000000000127 1.655 -0.53000000000000058 5.802469135802502 0.46499999999999991 28.73
decision_type=2 10 10 2 10 2 2 8 10 8 8 10 10 2 10 2
left_child=1 3 -2 4 -1 12 -3 -7 9 -8 -9 -11 -5 14 -4 -15
right_child=2 6 13 5 -6 7 8 10 -10 11 -12 -13 -14 15 -16 -17
leaf_value=0.001484501423093222 0.00073595949244407717 -0.0029979009425961508 -0.0023090452106580847 0.0040999223034560066 -0.0019493009564258272 0.0031868032037989419 -0.0014385291519857042 0.0020376633971630194 -0.0019923576272817124 0.001502051181504848 0.00027023439535621516 -0.00014130457392278706 0.002480985805116318 -0.0036592573685997943 -0.0036124990824258551 -0.0042732829990841095
leaf_weight=58 56 50 62 96 66 66 65 55 71 80 96 52 53 82 52 104
leaf_count=58 56 50 62 96 66 66 65 55 71 80 96 52 53 82 52 104
internal_value=-0.00041375 0.000698859 -0.00293388 0.00171586 -0.000344141 0.00241282 -0.000868679 0.00162311 -0.000461768 9.71418e-05 0.00092317 0.000858474 0.00354444 -0.00361909 -0.00292985 -0.0040236
internal_weight=1164 808 356 490 124 366 318 217 268 197 151 132 149 300 114 186
internal_count=1164 808 356 490 124 366 318 217 268 197 151 132 149 300 114 186
is_linear=0
shrinkage=0.005


Tree=11
num_leaves=16
num_cat=0
split_feature=18 50 50 1 50 1 18 61 61 1 12 48 12 29 0
split_gain=140.309 56.9453 41.8634 23.0293 26.5933 10.334 9.36088 7.12098 6.80664 6.70454 5.33332 2.74769 2.69545 1.6653 0.163109
threshold=22.000000000000004 -1.6300000000000006 -0.88499999999999879 -0.71504373327588355 1.655 0.77788564761185042 25.665000000000003 -0.31166666666666737 0.55944444444444263 -0.61237985104942771 1.8333333333333353 -0.76500000000000046 19.166666666666654 -1.0000000180025095e-35 122.50000000000001
decision_type=2 10 8 2 10 2 2 10 10 2 2 10 2 2 2
left_child=2 -2 9 -4 5 7 12 10 -6 -1 -5 -8 -3 -7 -11
right_child=1 6 3 4 8 13 11 -9 -10 14 -12 -13 -14 -15 -16
leaf_value=0.0016164627098120177 0.0021229717334356616 -0.0027111364460729974 -0.0021173741452303937 -0.00088925809526699598 -0.0020768881011276673 0.0030875052484528472 -0.0025654640813887702 0.0022124939541968091 0.00020454091003589464 0.0041499190477292929 0.0010269139498649609 -0.0039722770087239961 -0.0010932088471375979 0.0018698404336880362 0.003360773857200035
leaf_weight=51 56 56 80 63 77 77 50 62 56 66 83 228 51 55 53
leaf_count=51 56 56 80 63 77 77 50 62 56 66 83 228 51 55 53
internal_value=-0.00033893 -0.00255851 0.00101659 0.00034734 0.000767792 0.00150813 -0.00324319 0.000807346 -0.00112193 0.00317884 0.000199648 -0.00372936 -0.00195724 0.00259802 0.00382939
internal_weight=1164 441 723 553 473 340 385 208 133 170 146 278 107 132 119
internal_count=1164 441 723 553 473 340 385 208 133 170 146 278 107 132 119
is_linear=0
shrinkage=0.005


Tree=12
num_leaves=15
num_cat=0
split_feature=18 52 48 1 52 0 21 52 12 4 1 6 52 45
split_gain=136.343 47.8513 33.6568 27.1049 15.3386 12.5729 11.9607 11.0625 10.3493 5.17367 5.10556 4.89693 2.05527 0.197987
threshold=25.790000000000003 -0.88500000000000145 -1.1750000000000005 -0.58482361983252518 2.0650000000000017 134.50000000000003 21.335000000000004 -2.1699999999999995 5.8333333333333357 17.285000000000004 0.29342972903661901 11.944444444444452 0.31499999999999956 0.51972456038539816
decision_type=2 8 10 2 10 2 10 10 2 2 2 2 10 2
left_child=1 5 -2 9 6 -1 8 -7 10 -3 -5 12 -10 -4
right_child=2 3 13 4 -6 7 -8 -9 11 -11 -12 -13 -14 -15
leaf_value=0.0039484210543756946 0.0001024794862314593 -0.00068362433463335041 -0.0041608258151594616 -0.00061656485318154516 -0.0014415239565721827 0.0034265514815019237 -0.0012566644540573987 0.00058975959076670945 0.003418444165560816 -0.0026008105081382384 0.0011307142863050104 0.00080660492163516732 0.0020331787037964626 -0.0035450545838102698
leaf_weight=96 63 57 172 71 81 53 53 96 55 95 99 50 66 79
leaf_count=96 63 57 172 71 81 53 53 96 55 95 99 50 66 79
internal_value=-0.000345032 0.000672756 -0.00316466 -6.03844e-05 0.000528165 0.00254162 0.000935726 0.00161494 0.00127916 -0.00189103 0.00040163 0.00214414 0.0026857 -0.00398185
internal_weight=1186 872 314 627 475 245 394 149 341 152 170 171 121 251
internal_count=1186 872 314 627 475 245 394 149 341 152 170 171 121 251
is_linear=0
shrinkage=0.005


Tree=13
num_leaves=17
num_cat=0
split_feature=4 50 50 1 50 50 0 51 18 0 62 45 50 49 5 50
split_gain=130.547 48.2924 47.4149 32.0313 12.9591 10.4973 9.38389 7.10379 6.67665 5.17672 3.71033 5.89187 3.21572 2.43662 1.39655 0.911888
threshold=23.135000000000002 0.68000000000000005 -1.1899999999999984 -0.73866753694953124 -1.0200000000000002 -0.39499999999999952 132.50000000000003 -0.030000000000000578 25.790000000000003 32.500000000000007 55.01785000000001 -0.19244445339415742 1.8000000000000005 0.11500000000000023 30.300000000000001 0.48000000000000026
decision_type=2 10 10 2 10 8 2 10 2 2 8 2 10 10 2 10
left_child=1 3 -2 4 -1 13 9 -3 -4 -7 12 -12 -9 -5 15 -10
right_child=2 7 8 5 -6 6 -8 10 14 -11 11 -13 -14 -15 -16 -17
leaf_value=0.0013571238062143618 0.0010968521667946078 0.00063797607444799872 -0.0020634409452823898 0.0039151954492836292 -0.0020113567606760904 0.0010806409183603068 -8.4474790492095059e-05 0.00032308865373708169 -0.002807800972642487 0.0031305775536470937 -0.0031158821026866252 -0.00083162729098246657 -0.0014219623326130635 0.0026512725356368748 -0.004182457417687949 -0.0037949408401905648
leaf_weight=50 70 64 78 98 64 51 55 52 67 83 51 64 52 82 135 70
leaf_count=50 70 64 78 98 64 51 55 52 67 83 51 64 52 82 135 70
internal_value=-0.000409948 0.0008184 -0.00264684 0.00177803 -0.000534999 0.00249214 0.0016549 -0.000819907 -0.00339657 0.00236416 -0.00124692 -0.00186277 -0.00055467 0.00335724 -0.00376991 -0.00333602
internal_weight=1186 766 420 483 114 369 189 283 350 134 219 115 104 180 272 137
internal_count=1186 766 420 483 114 369 189 283 350 134 219 115 104 180 272 137
is_linear=0
shrinkage=0.005


Tree=14
num_leaves=17
num_cat=0
split_feature=4 50 50 1 50 50 17 1 1 50 51 29 46 46 62 21
split_gain=142.222 53.4073 39.4707 26.4615 13.6035 10.6935 9.06353 7.83053 6.90337 6.88786 5.97609 2.68738 2.162 0.480953 0.401522 0.058319
threshold=22.815000000000001 0.64500000000000057 -1.3650000000000002 -0.63921128368950708 -0.84499999999999709 -1.0099999999999987 25.585000000000004 -0.056952163117076689 0.46800856592688467 1.7150000000000001 0.17999999999999991 0.25783416049629954 7.4074074074073657 5.0308641975308506 42.574133333333343 28.615000000000006
decision_type=2 10 10 2 10 8 2 2 2 10 8 2 2 2 10 10
left_child=1 3 -2 4 -1 14 -4 -3 10 -9 -7 -10 -11 -8 -5 -15
right_child=2 7 6 5 -6 8 13 9 11 12 -12 -13 -14 15 -16 -17
leaf_value=0.0018262863221267858 0.0010577761830162194 -0.0021902899960006932 -0.0020174822520251231 0.0033523321253996268 -0.0015792702235605405 0.0024020034250091106 -0.0034511637535123599 0.00070729310974799173 0.0033942744739595327 -0.00029974064556881786 0.00012853858848650227 0.0018480264442041518 -0.0016641877948398321 -0.0035994162049390517 0.0043072796935836469 -0.0043169479789036628
leaf_weight=50 58 75 95 50 68 50 104 92 78 50 67 51 70 52 59 105
leaf_count=50 58 75 95 50 68 50 104 92 78 50 67 51 70 52 59 105
internal_value=-0.000397507 0.000886908 -0.00275182 0.00191786 -0.000133017 0.00259802 -0.00337371 -0.000812944 0.00200602 -0.00031768 0.00111223 0.00280189 -0.00110284 -0.00385778 0.00390369 -0.00410358
internal_weight=1174 760 414 473 118 355 356 287 246 212 117 129 120 261 109 157
internal_count=1174 760 414 473 118 355 356 287 246 212 117 129 120 261 109 157
is_linear=0
shrinkage=0.005


Tree=15
num_leaves=15
num_cat=0
split_feature=4 52 0 50 48 46 1 4 6 51 52 0 58 58
split_gain=145.57 54.8207 27.0274 27.1067 17.1049 12.3921 10.7281 10.085 6.78058 6.56036 6.16985 2.684 2.65647 1.45867
threshold=26.010000000000002 -0.86500000000000044 132.50000000000003 1.595 -1.0699999999999992 3.5802469135802211 0.73283908552571664 15.280000000000003 2.5000000000000004 -0.10000000000000096 -1.7650000000000003 241.50000000000003 52.642466366666675 60.185799700000011
decision_type=2 10 2 10 10 2 2 2 2 8 8 2 8 8
left_child=1 6 3 8 -2 -4 9 -7 -3 -1 -11 -9 -5 -10
right_child=4 2 5 12 -6 7 -8 11 13 10 -12 -13 -14 -15
leaf_value=0.0031105802440340967 -0.00075015486343405575 0.00063363836291406681 0.00048683306399050733 -0.00014060835367726051 -0.0039497844282043526 -0.00055943894233288511 0.0040253837622451381 -0.0018967527222204289 0.0033265152887130777 0.0025830524348003686 0.00043948401325441744 -0.0034204310249831334 -0.0016571651654743145 0.0021215042869224534
leaf_weight=68 51 57 70 50 244 83 77 55 59 52 93 75 68 60
leaf_count=68 51 57 70 50 244 83 77 55 59 52 93 75 68 60
internal_value=-0.000373381 0.000659519 -0.000232457 0.000827926 -0.00340103 -0.00133309 0.00242895 -0.00193067 0.00206641 0.00183572 0.00122064 -0.0027952 -0.00102114 0.00274169
internal_weight=1162 867 577 294 295 283 290 213 176 213 145 130 118 119
internal_count=1162 867 577 294 295 283 290 213 176 213 145 130 118 119
is_linear=0
shrinkage=0.005


Tree=16
num_leaves=16
num_cat=0
split_feature=18 50 50 1 1 50 0 18 11 61 0 48 28 45 50
split_gain=134.061 46.2973 33.1355 23.948 20.3398 23.7834 10.4216 7.69324 6.58279 5.09977 3.3632 2.55261 2.21552 0.195717 0.120795
threshold=22.935000000000006 -0.39499999999999952 -1.1899999999999984 -0.54220184589352438 -0.58482361983252518 1.655 130.50000000000003 25.790000000000003 4.7222222222222259 0.14222219222222307 134.50000000000003 -0.6150000000000001 9.5000000000000018 0.51972456038539816 -1.0950000000000004
decision_type=2 8 10 2 2 10 2 2 2 10 2 10 2 2 10
left_child=1 3 -2 -1 -3 6 8 -4 12 -7 14 -9 -6 -13 -5
right_child=2 4 7 10 5 9 -8 11 -10 -11 -12 13 -14 -15 -16
leaf_value=0.00024253295168657848 0.00037715364356002176 -0.0023054931654284396 -0.0019799704237153663 0.0043583700039248538 0.00034771740373413444 -0.0020856313505209982 -0.00028346328472252937 -0.0026417397795811151 0.0028740037530346702 -0.00022685769103866605 0.0024338558095472833 -0.0041841061908822015 0.0017695046799643985 -0.0034727233408817222 0.0035704190210838404
leaf_weight=78 72 83 83 68 58 79 79 50 88 69 53 158 52 55 55
leaf_count=78 72 83 83 68 58 79 79 50 88 69 53 158 52 55 55
internal_value=-0.00043267 0.000815564 -0.00270468 0.00255396 -5.69423e-05 0.000386568 0.00124967 -0.00334522 0.00185973 -0.00122638 0.00357118 -0.00376695 0.00102972 -0.0040175 0.00403767
internal_weight=1180 762 418 254 508 425 277 346 198 148 176 263 110 213 123
internal_count=1180 762 418 254 508 425 277 346 198 148 176 263 110 213 123
is_linear=0
shrinkage=0.005


Tree=17
num_leaves=17
num_cat=1
split_feature=18 50 41 50 48 12 34 46 18 50 1 1 58 17 18 45
split_gain=124.902 59.9234 32.5537 35.0106 28.5097 8.35085 7.83063 6.92511 6.15085 7.06797 5.63968 4.36731 3.28159 1.201 0.555714 0.0378662
threshold=25.790000000000003 -1.1749999999999996 0 0.72000000000000164 -1.2600000000000005 5.8333333333333357 -2.1635802469135794 3.5802469135802211 14.615 -2.1049999999999991 -0.69057362043749781 0.45273815774107123 51.302466066666675 18.225000000000005 30.145000000000003 0.51972456038539816
decision_type=2 8 1 10 10 2 2 2 2 10 2 2 8 2 2 2
left_child=1 8 7 5 -2 11 12 -3 -1 -10 13 -4 -5 -9 15 -6
right_child=4 2 3 6 14 -7 -8 10 9 -11 -12 -13 -14 -15 -16 -17
leaf_value=0.0041595452912151819 0.00019585220913331095 -0.00010043494833746193 0.00060657269440943728 -0.00076024625909566464 -0.0038127239266676563 0.0035606407615784053 0.0004564730633351751 -0.0021589218560033119 0.0035550614403417479 0.00091123966831498993 -0.0010916383861151245 0.0024072476162109524 -0.0024122504733019956 -0.0033580091701082464 -0.004236886901099508 -0.0031518794233826074
leaf_weight=79 51 65 73 71 69 73 89 51 51 51 96 63 53 52 122 54
leaf_count=79 51 65 73 71 69 73 89 51 51 51 96 63 53 52 122 54
internal_value=-0.000404141 0.00055389 -0.000122613 0.000735614 -0.00320268 0.00220208 -0.000672508 -0.00146457 0.00310446 0.00225483 -0.00198064 0.00145219 -0.00147999 -0.00279075 -0.00390805 -0.00355036
internal_weight=1163 867 686 422 296 209 213 264 181 102 199 136 124 103 245 123
internal_count=1163 867 686 422 296 209 213 264 181 102 199 136 124 103 245 123
cat_boundaries=0 1
cat_threshold=1968
is_linear=0
shrinkage=0.005


Tree=18
num_leaves=18
num_cat=0
split_feature=4 52 50 0 50 1 4 7 48 50 50 0 18 45 50 1 47
split_gain=137.546 47.838 38.2004 30.2408 21.1073 14.6803 8.42473 8.19673 5.61409 7.93046 4.3646 3.15937 2.14344 1.71092 1.10554 1.00032 0.220687
threshold=24.835000000000004 -0.83499999999999985 -1.23 132.50000000000003 1.7150000000000001 0.45273815774107123 17.975000000000005 3.6111111111111103 -2.3300000000000005 -0.91499999999999981 0.68000000000000005 251.50000000000003 28.73 0.37371971479046939 0.19500000000000031 0.77788564761185042 5.7407407407407378
decision_type=2 10 10 2 10 2 2 2 10 8 10 2 2 2 10 2 2
left_child=1 5 -2 4 10 8 7 -5 9 -1 13 -8 14 -3 -4 -7 -14
right_child=2 3 12 6 -6 15 11 -9 -10 -11 -12 -13 16 -15 -16 -17 -18
leaf_value=0.0034265460194173188 0.00090029601076686827 0.0032547326158669037 -0.0024148266203701495 -0.0014896675730856619 -0.00086615087036445465 0.0031320519301701677 -0.0014681365234636753 0.00098146877682733324 0.0001249301525848833 0.00067297069678226335 0.001022926182619163 -0.0032101740467093761 -0.0035966016745693249 0.0019203043187845429 -0.0035569797421339902 0.0042832142655970526 -0.0043035248771571277
leaf_weight=54 53 58 50 88 96 54 52 53 54 51 69 58 70 52 63 63 113
leaf_count=54 53 58 50 88 96 54 52 53 54 51 69 58 70 52 63 63 113
internal_value=-0.000379195 0.000761289 -0.00299471 -0.000124097 0.00101954 0.00244301 -0.00137616 -0.00056043 0.00143954 0.00210806 0.00203006 -0.00240731 -0.00369281 0.0026469 -0.00307722 0.00378295 -0.00405413
internal_weight=1151 802 349 526 275 276 251 141 159 105 179 110 296 110 113 117 183
internal_count=1151 802 349 526 275 276 251 141 159 105 179 110 296 110 113 117 183
is_linear=0
shrinkage=0.005


Tree=19
num_leaves=15
num_cat=0
split_feature=4 50 48 1 50 50 1 46 18 29 35 1 50 47
split_gain=141.73 46.1632 35.639 27.1652 12.9168 10.2641 7.99247 6.80678 6.42411 4.70441 4.64963 3.39914 1.79634 0.820145
threshold=22.815000000000001 0.61000000000000032 -1.3999999999999992 -0.63921128368950708 -0.58500000000000074 -0.88499999999999879 0.29342972903661901 6.3179012345679206 25.790000000000003 -1.0000000180025095e-35 1013.4500000000002 0.48314048284850658 -1.2450000000000008 5.4938271604938569
decision_type=2 10 10 2 8 10 2 2 2 2 2 2 10 2
left_child=1 3 -2 5 12 -1 -3 -8 -4 -9 -6 -12 -5 -10
right_child=2 6 8 4 10 -7 7 9 13 -11 11 -13 -14 -15
leaf_value=0.0014465293854328931 0.00055480883587938801 -0.0018334816931011647 -0.0020666282844189325 0.0042082768853972941 0.0028127772978041323 -0.0015605741801846308 0.0012434102729303325 7.4921153383712249e-05 -0.0031636762277140644 -0.0019089189697714412 0.00029528234581478307 0.0018884577028840395 0.0029805335563830504 -0.0039503494446927849
leaf_weight=50 70 94 80 84 67 63 65 72 78 50 60 76 70 186
leaf_count=50 70 94 80 84 67 63 65 72 78 50 60 76 70 186
internal_value=-0.000345405 0.000949347 -0.00269073 0.00190639 0.00258104 -0.00022898 -0.000652487 -5.22369e-05 -0.00335085 -0.000747038 0.00173869 0.00119287 0.00367304 -0.00373074
internal_weight=1165 751 414 470 357 113 281 187 344 122 203 136 154 264
internal_count=1165 751 414 470 357 113 281 187 344 122 203 136 154 264
is_linear=0
shrinkage=0.005


Tree=20
num_leaves=17
num_cat=0
split_feature=4 50 0 48 50 1 1 50 1 48 61 14 52 4 14 49
split_gain=136.054 44.9518 33.6719 32.7268 23.9229 10.3926 8.67576 7.80937 7.79066 6.60042 5.00034 4.36165 1.71356 1.12124 0.958597 0.76502
threshold=24.835000000000004 0.64500000000000057 132.50000000000003 -1.2800000000000009 -1.1749999999999996 -0.26037633224328088 -0.75015329512557205 2.7050000000000005 0.42179998225932674 -2.3300000000000005 -0.28999993000000157 -3.9135802469135794 -0.66999999999999893 30.695000000000004 11.759259259259251 0.79999999999999816
decision_type=2 10 2 10 10 2 2 10 2 10 10 2 8 2 2 10
left_child=1 2 8 -2 9 -3 -6 10 -1 -4 11 -7 -10 14 -5 -16
right_child=3 5 4 13 6 7 -8 -9 12 -11 -12 -13 -14 -15 15 -17
leaf_value=0.001347439485705561 0.00045453258782047139 -0.0024052532431798885 0.0035939648589295038 -0.0040248377387430154 -0.0017784954110420374 -0.0015629179735540174 0.00042677675807593213 -0.0019453884956409345 0.0041199746380035564 0.0011530506212054001 0.0011123608414019489 0.00043585795025199146 0.003011936879459214 -0.0041277711844744805 -0.0034346954275635212 -0.0024442679128226113
leaf_weight=53 57 71 52 50 85 50 92 52 86 61 86 58 93 118 65 50
leaf_count=53 57 71 52 50 85 50 92 52 86 61 86 58 93 118 65 50
internal_value=-0.000332142 0.000749439 0.00165015 -0.00299547 0.000511027 -0.000734282 -0.000636294 -0.000244224 0.00306576 0.00229798 0.000219396 -0.00049535 0.00356422 -0.0036895 -0.0033531 -0.00302886
internal_weight=1179 839 522 340 290 317 177 246 232 113 194 108 179 283 165 115
internal_count=1179 839 522 340 290 317 177 246 232 113 194 108 179 283 165 115
is_linear=0
shrinkage=0.005


Tree=21
num_leaves=18
num_cat=0
split_feature=4 50 50 1 48 50 40 18 48 61 61 42 3 1 4 44 50
split_gain=125.509 46.6702 44.1738 34.699 15.2289 10.3385 8.62692 7.97612 7.89475 5.48784 4.87129 4.23715 3.28696 1.90066 1.76051 1.38297 0.720424
threshold=22.955000000000002 0.6600000000000007 -1.3150000000000011 -0.61237985104942771 -1.5100000000000005 -0.86000000000000065 4.5000000000000009 25.790000000000003 2.2750000000000026 -1.4083332333333314 -0.853333233333334 -0.26781182513105667 14.020000000000001 0.55656748448714433 29.910000000000004 -0.10738035228456518 0.48000000000000026
decision_type=2 10 10 2 10 8 2 2 8 10 10 2 2 2 2 2 10
left_child=1 3 -2 4 -1 15 8 -4 -3 11 -10 -7 -8 -11 16 -5 -9
right_child=2 6 7 5 -6 9 12 14 10 13 -12 -13 -14 -15 -16 -17 -18
leaf_value=0.0014294504609386452 0.0010248660452031929 0.0013671651265273492 -0.0020148515844431877 0.0043136282563209531 -0.0019776995002593794 0.00017131387980447873 -0.0010081292124574676 -0.0029480239616780789 -0.0018311174748645675 0.0020712835370909934 0.00016484494588230966 0.0020375735691050066 -0.0028437253014714108 0.0035463584302102818 -0.0043110593635652021 0.0030478007649233202 -0.0039099643331057593
leaf_weight=60 69 59 87 69 70 53 50 81 61 50 60 71 50 50 117 53 50
leaf_count=60 69 59 87 69 70 53 50 81 61 50 60 71 50 50 117 53 50
internal_value=-0.000359634 0.000842645 -0.00260597 0.00179407 -0.000406261 0.00261957 -0.000775404 -0.00335464 -0.000118474 0.00196647 -0.000848145 0.00124765 -0.001945 0.00283663 -0.00381466 0.00379297 -0.00334202
internal_weight=1160 756 404 476 130 346 280 335 180 224 121 124 100 100 248 122 131
internal_count=1160 756 404 476 130 346 280 335 180 224 121 124 100 100 248 122 131
is_linear=0
shrinkage=0.005


Tree=22
num_leaves=18
num_cat=0
split_feature=4 52 48 51 1 52 17 47 51 0 61 47 22 1 4 0 59
split_gain=144.649 39.0789 36.8146 26.4419 17.1447 16.5009 7.17501 6.36949 5.77687 4.73775 4.50392 4.35011 4.06745 2.38623 1.3577 0.64543 0.552604
threshold=22.955000000000002 -1.4050000000000009 -1.8149999999999993 0.17499999999999985 -0.005375728450543499 0.84000000000000175 25.965000000000003 4.0123456790123004 0.58500000000000008 120.50000000000001 -0.64833333333333087 6.7283950617283965 13.765000000000002 0.79904096188274243 29.910000000000004 154.50000000000003 75.844133033333335
decision_type=2 10 10 8 2 10 2 2 8 2 10 2 10 2 2 2 10
left_child=1 8 -2 7 12 13 11 -3 15 -9 -7 -4 -5 -6 16 -1 -8
right_child=2 3 6 4 5 10 14 9 -10 -11 -12 -13 -14 -15 -16 -17 -18
leaf_value=0.0041131224314061307 0.0011647023398095285 0.0030696499395755027 -0.0011317035963560864 -0.0010943012206668132 0.00093895055390163964 -0.0018880409038355274 -0.003710517422830472 0.0020035862216415505 0.0017792532023574626 0.00013922988091397918 5.8147132051466357e-05 -0.0031261887990178599 -0.0028279229259261717 0.002471810619878982 -0.0041638267999715949 0.0030788346259471252 -0.0028012425129317902
leaf_weight=59 52 61 52 75 50 61 60 71 69 65 57 61 64 55 138 50 57
leaf_count=59 52 61 52 75 50 61 60 71 69 65 57 61 64 55 138 50 57
internal_value=-0.000416148 0.000918376 -0.00275454 0.000266796 -0.000535427 0.000324205 -0.00331 0.00173619 0.00295171 0.00112005 -0.000955345 -0.00222635 -0.00190701 0.00175762 -0.00377963 0.00367098 -0.00329503
internal_weight=1157 737 420 559 362 223 368 197 178 136 118 113 139 105 255 109 117
internal_count=1157 737 420 559 362 223 368 197 178 136 118 113 139 105 255 109 117
is_linear=0
shrinkage=0.005


Tree=23
num_leaves=18
num_cat=0
split_feature=4 50 50 1 46 50 1 50 45 31 51 44 5 51 20 50 47
split_gain=123.138 48.4351 44.3581 32.3374 13.8105 11.2835 7.97669 8.31211 5.59429 5.15007 4.66397 4.19691 2.5655 1.93867 1.6221 1.3116 1.28964
threshold=23.135000000000002 0.6600000000000007 -1.23 -0.65234524191686594 4.3209876543209917 -0.39499999999999952 -0.24372957273992743 1.7150000000000001 -0.15005539834465245 3.6728395061728407 -0.040000000000001805 0.09025077427732299 14.690000000000003 0.72000000000000008 27.620000000000005 -1.0950000000000004 4.7654320987654328
decision_type=2 10 10 2 2 8 2 10 2 2 10 2 2 10 10 10 2
left_child=1 3 -2 4 -1 12 -3 11 -7 -10 -4 -8 15 -9 16 -5 -12
right_child=2 6 10 5 -6 8 7 13 9 -11 14 -13 -14 -15 -16 -17 -18
leaf_value=0.0014157255058391736 0.0011109129487751768 -0.0026087598871953528 -0.0019290039934989468 0.0043509942522415744 -0.0019772697148293678 0.0029082163850014859 0.0015451204557629192 -0.00076269211980979884 -0.00020552525693481719 0.0018215467882538704 -0.002468550701936086 -0.00047622759933941639 0.0023839465021673178 -0.0020651917380351825 -0.00404108848831346 0.0030724671748108591 -0.0035865716341432637
leaf_weight=51 64 57 50 64 70 54 50 59 53 75 53 51 53 58 154 51 90
leaf_count=51 64 57 50 64 70 54 50 59 53 75 53 51 53 58 154 51 90
internal_value=-0.000505404 0.000705435 -0.00269956 0.00167762 -0.000547282 0.00244617 -0.000959705 -0.000518587 0.0015699 0.000987126 -0.00340353 0.000529778 0.00338057 -0.00142041 -0.00364446 0.00381537 -0.00319222
internal_weight=1157 746 411 471 121 350 275 218 182 128 347 101 168 117 297 115 143
internal_count=1157 746 411 471 121 350 275 218 182 128 347 101 168 117 297 115 143
is_linear=0
shrinkage=0.005


Tree=24
num_leaves=16
num_cat=0
split_feature=18 52 1 48 50 0 34 24 12 48 0 59 23 18 19
split_gain=133.837 55.6962 34.9199 23.2723 20.9387 9.53272 8.77651 7.58244 7.22399 7.14849 5.81406 4.65823 3.77428 0.345725 0.188834
threshold=25.790000000000003 -0.86500000000000044 -0.75015329512557205 -1.1750000000000005 0.6600000000000007 132.50000000000003 -2.6790123456790096 17.815000000000001 5.8333333333333357 -2.3300000000000005 126.50000000000001 36.635800060000015 18.130000000000006 30.145000000000003 28.190000000000001
decision_type=2 8 2 10 10 2 2 8 2 10 2 10 10 2 2
left_child=1 5 12 -2 7 -1 11 8 -4 -7 -8 -6 -3 14 -5
right_child=3 2 4 13 6 9 10 -9 -10 -11 -12 -13 -14 -15 -16
leaf_value=0.0038317046702373778 -0.00033011232470643928 -0.0017006036333458605 0.00095699019363770885 -0.0039191044951704416 -0.0027000360088781095 0.0028637204866705313 0.00097951729411297297 0.00017699752884384776 0.00313020851281358 0.00060675611782231046 -0.00095838972727506193 -0.00070991496043935638 -0.0036096015144770933 -0.0041838787717081733 -0.0032082071003323009
leaf_weight=99 57 52 74 65 51 73 97 76 81 68 63 70 58 117 71
leaf_count=99 57 52 74 65 51 73 97 76 81 68 63 70 58 117 71
internal_value=-0.00041152 0.000602298 -0.000188071 -0.00322346 0.000362437 0.00264295 -0.000553724 0.00147448 0.00210546 0.00178719 0.000215253 -0.00156398 -0.00273062 -0.00387145 -0.0035741
internal_weight=1172 862 622 310 512 240 281 231 155 141 160 121 110 253 136
internal_count=1172 862 622 310 512 240 281 231 155 141 160 121 110 253 136
is_linear=0
shrinkage=0.005


Tree=25
num_leaves=17
num_cat=0
split_feature=4 52 0 50 48 3 14 51 32 50 12 62 4 47 46 52
split_gain=140.929 53.5405 28.1285 29.0455 15.6051 11.592 11.6453 10.0064 5.7838 5.49583 5.34212 4.42353 3.43563 1.49409 0.524281 0.29392
threshold=26.010000000000002 -0.83499999999999985 132.50000000000003 1.655 -1.0399999999999998 17.855000000000004 2.6234567901234551 0.31999999999999901 19.166666666666654 -1.6749999999999996 2.5000000000000004 55.01785000000001 18.340000000000003 5.0709876543209864 4.3209876543209917 -1.5950000000000004
decision_type=2 10 2 10 10 2 2 8 2 10 2 8 2 2 2 10
left_child=1 7 3 10 -2 6 -4 12 -7 -9 -3 -5 15 -12 -6 -1
right_child=4 2 5 11 14 8 -8 9 -10 -11 13 -13 -14 -15 -16 -17
leaf_value=0.0042484045525391896 -0.0008213099977001548 0.00071373617169089053 -0.0015004316610912009 -0.00019738225771400792 -0.0033510100684630184 -0.0033680078017282976 0.0013948571711386503 0.0022802524016488617 -0.0011410566329812775 0.00024345211782737783 0.0032931040666465249 -0.0021641409421079938 0.0021596587485834665 0.0021344486890593544 -0.0041343299800783032 0.0033563434161312344
leaf_weight=53 50 51 88 64 64 72 56 81 51 56 55 51 50 79 161 55
leaf_count=53 50 51 88 64 64 72 56 81 51 56 55 51 50 79 161 55
internal_value=-0.000257827 0.00073703 -0.000162522 0.000886774 -0.00336762 -0.00134041 -0.000372631 0.00246071 -0.00246129 0.00145549 0.00210905 -0.00108073 0.00331768 0.00263089 -0.00392733 0.00382907
internal_weight=1137 862 567 300 275 267 144 295 123 137 185 115 158 134 225 108
internal_count=1137 862 567 300 275 267 144 295 123 137 185 115 158 134 225 108
is_linear=0
shrinkage=0.005


Tree=26
num_leaves=17
num_cat=0
split_feature=4 50 50 0 50 4 16 19 2 61 34 35 18 43 18 50
split_gain=133.581 46.1282 22.5988 20.7446 24.1887 11.8122 10.9787 10.8537 8.07944 5.40418 4.51157 3.28408 2.81156 1.41947 0.432863 0.116309
threshold=24.705000000000002 -0.88499999999999879 -1.05 132.50000000000003 0.68000000000000005 14.785000000000002 9.5000000000000018 13.885000000000003 -0.022575793296316444 -0.58166664666666767 -0.66666666666666685 1014.5500000000001 26.425000000000004 -0.27608674622158907 30.275000000000002 0.31000000000000033
decision_type=2 8 10 2 8 2 2 2 2 10 2 2 2 2 2 10
left_child=1 7 -2 4 11 10 -6 -1 -7 13 -5 -3 -4 -8 15 -14
right_child=2 3 12 5 6 8 9 -9 -10 -11 -12 -13 14 -15 -16 -17
leaf_value=0.0040623714194486012 -4.5505753489878942e-05 0.0035659738491236603 -0.0024776448809111918 -0.00069220435033601365 0.0018551670380358427 -0.00077752193035951381 -0.0008721454229717162 0.0016166722207613612 -0.0031778027350082994 0.00028058330509811642 0.0011980432168261527 0.0018652674627222428 -0.0031089781922357222 -0.0020880373231336184 -0.0041964360332951466 -0.003835781589751282
leaf_weight=94 52 52 51 75 52 70 50 91 71 74 53 72 53 50 115 61
leaf_count=94 52 52 51 75 52 70 50 91 71 74 53 72 53 50 115 61
internal_value=-0.000411117 0.000691055 -0.00307429 3.49038e-05 0.000836352 -0.00100711 -0.000139215 0.00287451 -0.00200004 -0.000742432 9.36961e-05 0.00260129 -0.00363462 -0.00149475 -0.00388039 -0.00352785
internal_weight=1136 804 332 619 350 269 226 185 141 174 128 124 280 100 229 114
internal_count=1136 804 332 619 350 269 226 185 141 174 128 124 280 100 229 114
is_linear=0
shrinkage=0.005


Tree=27
num_leaves=16
num_cat=0
split_feature=4 50 50 1 50 1 25 61 47 1 42 46 50 47 18
split_gain=126.648 42.5895 31.195 17.4665 21.0648 16.7027 8.92132 7.47262 5.72906 5.68361 6.30914 3.17763 2.89019 2.07961 0.177078
threshold=24.835000000000004 -0.435 -1.05 -0.67803021058859214 1.655 -0.92274349529687905 20.465000000000003 -0.13833333333333539 5.925925925925962 0.78325454425165997 -0.6254047815183511 6.2345679012345867 -1.1449999999999998 4.7654320987654328 28.985000000000003
decision_type=2 10 10 2 10 2 8 10 2 2 2 2 10 2 2
left_child=1 5 -2 -3 7 -1 12 9 -8 10 -5 -6 -7 -4 -15
right_child=2 3 13 4 11 6 8 -9 -10 -11 -12 -13 -14 14 -16
leaf_value=-0.00038751008230194985 0.00060958331195162796 -0.0023713395183469045 -0.0028558524440973998 -0.0015288167115866992 -0.00035764070889711673 0.0040568247150225816 0.0026314581536194858 0.0022640436547808349 0.00024428347600441354 0.0016689404417411424 0.00070584827343966948 -0.0019261797880159414 0.0026048911883691816 -0.0035678066953551027 -0.0041966175988821658
leaf_weight=55 50 80 74 50 50 82 50 79 50 63 82 93 75 87 117
leaf_count=55 50 80 74 50 50 82 50 79 50 63 82 93 75 87 117
internal_value=-0.000400216 0.000662744 -0.00301601 -0.000246642 0.000165672 0.00210751 0.0026409 0.000976551 0.00145211 0.000446061 -0.000145746 -0.00138403 0.0033841 -0.00366795 -0.00394716
internal_weight=1137 809 328 497 417 312 257 274 100 195 132 143 157 278 204
internal_count=1137 809 328 497 417 312 257 274 100 195 132 143 157 278 204
is_linear=0
shrinkage=0.005


Tree=28
num_leaves=17
num_cat=0
split_feature=18 50 50 1 1 61 50 18 52 1 48 11 50 61 22 46
split_gain=158.127 43.824 35.6305 29.3867 11.6348 11.3853 10.6865 9.92253 6.76498 4.38706 2.77074 2.73141 1.52712 1.42038 0.0756913 0.158789
threshold=22.000000000000004 0.51000000000000001 -1.23 -0.73866753694953124 -0.24372957273992743 0.11166676666666812 -0.435 25.790000000000003 1.5699999999999996 0.51297097409535064 -0.63500000000000145 17.376543209876555 -1.55 -4.5661111111111108 31.085000000000004 4.6296296296295996
decision_type=2 10 10 2 2 10 8 2 10 2 10 2 10 10 10 2
left_child=1 3 -2 -1 -3 8 12 11 -6 -8 -9 -4 -5 -14 15 -12
right_child=2 4 7 6 5 -7 9 10 -10 -11 14 -13 13 -15 -16 -17
leaf_value=-0.0006628224025480449 0.00059952095536872335 -0.0021672164393142642 -0.0026441100664955914 0.0041081291748375831 0.00022949639161427816 0.0016195310772646491 0.00091115475654965502 -0.0025499006751559528 -0.0020711424434557558 0.0025282932332829459 -0.0032609712172092663 -0.0010430583218112588 0.0024233070642141435 0.0036776837358982969 -0.0043399787724018096 -0.00396979328025273
leaf_weight=79 72 71 60 78 74 81 81 50 55 90 53 51 57 55 74 105
leaf_count=79 72 71 60 78 74 81 81 50 55 90 53 51 57 55 74 105
internal_value=-0.000356698 0.00110914 -0.00262704 0.00209253 -0.000432659 0.000161279 0.00269567 -0.00321818 -0.000759783 0.00177203 -0.00371885 -0.00192437 0.00351332 0.00306639 -0.00395875 -0.00375403
internal_weight=1186 721 465 440 281 210 361 393 129 171 282 111 190 112 232 158
internal_count=1186 721 465 440 281 210 361 393 129 171 282 111 190 112 232 158
is_linear=0
shrinkage=0.005


Tree=29
num_leaves=17
num_cat=1
split_feature=18 50 50 1 41 50 50 18 5 14 0 11 27 0 17 58
split_gain=140.178 46.1282 33.5433 31.9915 12.9823 11.9501 11.5806 8.55648 8.33029 8.25255 7.78432 4.4107 2.29081 1.75279 1.08501 0.236212
threshold=22.935000000000006 0.51000000000000001 -1.3650000000000002 -0.73866753694953124 0 2.5300000000000002 -0.67000000000000071 26.425000000000004 15.080000000000002 -1.6404320987654348 132.50000000000003 2.7469135802469151 11.388888888888902 122.50000000000001 31.075000000000003 80.352466666666672
decision_type=2 10 10 2 1 10 8 2 2 2 2 2 2 2 2 10
left_child=1 3 -2 -1 8 9 13 12 -3 -6 11 -8 -4 -5 15 -9
right_child=2 4 7 6 5 -7 10 14 -10 -11 -12 -13 -14 -15 -16 -17
leaf_value=-0.00059968172370926625 0.00091878080274909735 -0.00066906363649158276 -0.0028121108315491044 0.004133655963645828 5.0854824399680233e-05 -0.0017677519283405183 0.0015388903658672729 -0.0037313991099519211 -0.0034174103440287023 0.0024683302769169086 0.00045983006625569293 0.0033352496687855037 -0.0012889846109923114 0.002938908482369568 -0.004381140363805088 -0.0030187815462704749
leaf_weight=96 55 60 51 92 88 51 67 96 51 58 69 76 53 69 80 55
leaf_count=96 55 60 51 92 88 51 67 96 51 58 69 76 53 69 80 55
internal_value=-0.000243926 0.000983737 -0.00268607 0.00196943 -0.000518718 0.000279973 0.00263048 -0.00327888 -0.00179113 0.00102148 0.00184811 0.00251013 -0.00205557 0.00364292 -0.0038184 -0.0034934
internal_weight=1167 777 390 469 308 197 373 335 111 146 212 143 104 161 231 151
internal_count=1167 777 390 469 308 197 373 335 111 146 212 143 104 161 231 151
cat_boundaries=0 1
cat_threshold=3600
is_linear=0
shrinkage=0.005


Tree=30
num_leaves=17
num_cat=0
split_feature=18 50 50 1 50 1 18 1 60 20 34 0 46 50 4 50
split_gain=129.027 44.1982 43.7015 21.5341 22.4188 14.14 7.69467 6.8204 4.91851 4.18602 3.84691 3.84362 3.46218 1.64143 0.650614 0.0675896
threshold=22.000000000000004 -0.435 -1.1899999999999984 -0.21022463061426777 1.6100000000000001 -0.73866753694953124 25.790000000000003 0.77244481603295057 53.274133033333342 13.555000000000001 -2.6790123456790096 134.50000000000003 6.0493827160493909 0.31000000000000033 29.23 -1.2450000000000008
decision_type=2 8 10 2 10 2 2 2 8 10 2 2 2 10 2 10
left_child=1 5 -2 9 7 -1 12 8 -5 -3 -6 15 -4 14 -8 -7
right_child=2 3 6 4 10 11 13 -9 -10 -11 -12 -13 -14 -15 -16 -17
leaf_value=0.00044538463923064146 0.00087566522415727377 -0.00096854534709755655 -0.0010497289455424135 0.0015893632346005351 -0.0019533652406666549 0.0043395077261057773 -0.0025716392112509262 0.0025793814585741721 -0.00039830296647314935 -0.0028465673217878623 -0.00014271000955711331 0.0023977026642418246 -0.002907015347044985 -0.0040148893449620544 -0.0035104723723435945 0.0035446955427866091
leaf_weight=54 79 75 51 80 61 54 52 98 50 50 56 70 52 157 65 54
leaf_count=54 79 75 51 80 61 54 52 98 50 50 56 70 52 157 65 54
internal_value=-0.000428667 0.000916245 -0.0024966 3.34527e-05 0.000677863 0.00269684 -0.0032037 0.00158858 0.000827672 -0.00173638 -0.00109528 0.00337356 -0.00200632 -0.00364487 -0.00311854 0.00397827
internal_weight=1158 702 456 470 345 232 377 228 130 125 117 178 103 274 117 108
internal_count=1158 702 456 470 345 232 377 228 130 125 117 178 103 274 117 108
is_linear=0
shrinkage=0.005


Tree=31
num_leaves=16
num_cat=0
split_feature=18 52 0 52 52 43 47 31 52 0 51 5 18 52 46
split_gain=120.404 56.0326 25.5267 19.1612 15.3588 10.8962 10.4396 9.45207 8.00711 5.90134 5.07117 2.5438 1.69249 1.46656 0.382167
threshold=25.665000000000003 -0.86500000000000044 122.50000000000001 1.9999999999999998 -1.1299999999999997 -0.37370587188196397 5.4938271604938569 4.5370370370370354 -1.4050000000000009 134.50000000000003 -0.080000000000000945 11.225000000000001 28.73 0.64500000000000057 5.0308641975308506
decision_type=2 10 2 10 10 2 2 2 8 2 10 2 2 10 2
left_child=1 8 3 7 -2 -4 -7 -3 9 -1 -10 -8 -6 -9 -14
right_child=4 2 5 -5 12 6 11 13 10 -11 -12 -13 14 -15 -16
leaf_value=0.0043343879069600785 -0.0005478750047488855 0.00043932695314288138 -0.0027279018190209613 -0.0013855581016993367 -0.0029319647560396823 0.00083319587645948768 -0.00069848278510000774 0.0032168562007400224 0.0022128127977440628 0.0023054301720496612 0.00017428493163749285 -0.0021948369358267103 -0.0034038258815074669 0.0019246083456685075 -0.0041834896549582477
leaf_weight=62 51 99 98 76 92 71 50 52 78 96 50 69 67 50 99
leaf_count=62 51 99 98 76 92 71 50 52 78 96 50 69 67 50 99
internal_value=-0.000399671 0.000571542 -0.000341767 0.000740623 -0.00306765 -0.00138178 -0.000676812 0.00154743 0.00237071 0.00312386 0.00142404 -0.00157718 -0.00356171 0.00260824 -0.00389107
internal_weight=1160 851 565 277 309 288 190 201 286 158 128 119 258 102 166
internal_count=1160 851 565 277 309 288 190 201 286 158 128 119 258 102 166
is_linear=0
shrinkage=0.005


Tree=32
num_leaves=17
num_cat=0
split_feature=21 52 1 48 52 1 52 51 59 23 51 61 61 19 29 21
split_gain=135.123 43.7822 31.1845 20.6387 16.6804 12.5692 9.40354 8.55402 7.77444 10.1166 6.85238 5.40762 3.18861 2.31396 2.13912 0.170483
threshold=24.470000000000002 -0.86500000000000044 -0.58482361983252518 -1.0699999999999992 2.5200000000000009 0.7210268013660811 -1.7650000000000003 -0.440000000000003 58.105799699999999 19.035000000000004 -0.080000000000000945 0.55944444444444263 0.2900001000000027 26.755000000000006 -0.25783416049629942 28.835000000000004
decision_type=10 10 2 10 10 2 8 10 8 8 10 8 10 2 2 10
left_child=1 5 11 -2 7 6 -1 -4 12 -10 -8 -3 -9 -5 -11 -15
right_child=3 2 4 13 -6 -7 10 8 9 14 -12 -13 -14 15 -16 -17
leaf_value=0.0028860497500605977 -0.00058719795437134575 -0.0011690712329305586 0.0025468160371695248 -0.0026571774489891069 -0.0018276944466496764 0.0039130322206058082 0.0017621909841104891 0.00059563337346688582 0.0014655595876533409 -0.00041116603870283475 -0.00059649217528580086 -0.0032188290225442602 0.0021067395978697861 -0.0035879411122270973 -0.0018284051178488882 -0.0041905579816802103
leaf_weight=78 65 60 62 51 67 78 65 69 57 54 57 73 72 92 53 132
leaf_count=78 65 60 62 51 67 78 65 69 57 54 57 73 72 92 53 132
internal_value=-0.000474971 0.000596496 -0.000201056 -0.00313182 0.000448982 0.00221805 0.00154083 0.000868452 0.000520068 -0.000220276 0.000664293 -0.00230975 0.00137666 -0.00372897 -0.00112359 -0.0039601
internal_weight=1185 845 567 340 434 278 200 367 305 164 122 133 141 275 107 224
internal_count=1185 845 567 340 434 278 200 367 305 164 122 133 141 275 107 224
is_linear=0
shrinkage=0.005


Tree=33
num_leaves=16
num_cat=0
split_feature=4 50 48 0 50 0 24 50 2 58 28 52 47 5 17
split_gain=121.393 41.0223 30.6563 27.4372 26.4333 12.9438 10.6336 8.85187 6.66304 5.69139 3.27832 2.36053 1.82342 0.178651 0.00224546
threshold=24.835000000000004 0.51000000000000001 -1.2800000000000009 132.50000000000003 -1.4400000000000022 275.50000000000006 15.815000000000003 1.655 0.83730377313544024 65.790800000000004 7.5000000000000009 -0.83499999999999985 5.6790123456790491 30.040000000000003 26.635000000000002
decision_type=2 10 10 2 10 2 10 10 2 8 2 8 2 2 2
left_child=1 3 -2 8 -5 7 -6 9 11 -3 -9 -1 -4 14 -14
right_child=2 5 12 4 6 -7 -8 10 -10 -11 -12 -13 13 -15 -16
leaf_value=0.0041017700816903795 0.0002346291182742965 0.0018903775765530526 -0.0030156003345324788 0.0027261560505559279 0.00064243453282291404 -0.0022921515135610592 -0.0017480735863897611 -0.00029452922243152315 0.0014579072183765033 -0.00027500021255885562 -0.0019218702764266125 0.0027551092963194711 -0.0040015795286379606 -0.0043393110681370075 -0.0032797668873368263
leaf_weight=69 61 61 92 85 87 96 98 66 67 59 58 86 50 82 51
leaf_count=69 61 61 92 85 87 96 98 66 67 59 58 86 50 82 51
internal_value=-0.000437617 0.000587181 -0.00296942 0.00150889 0.000435145 -0.000747094 -0.000626479 -0.000132328 0.00280698 0.000832259 -0.00106499 0.00337704 -0.00367841 -0.00399343 -0.00367283
internal_weight=1168 832 336 492 270 340 185 244 222 120 124 155 275 183 101
internal_count=1168 832 336 492 270 340 185 244 222 120 124 155 275 183 101
is_linear=0
shrinkage=0.005


Tree=34
num_leaves=16
num_cat=0
split_feature=4 52 50 1 50 1 0 50 1 47 46 63 46 0 50
split_gain=133.543 42.1174 32.8775 28.5635 21.1519 11.1076 7.36473 6.66867 5.83732 6.09503 3.88942 3.59277 1.4466 1.31374 0.40655
threshold=24.835000000000004 -0.86500000000000044 -1.0650000000000008 -0.67803021058859214 0.6600000000000007 -0.73866753694953124 118.50000000000001 -0.35500000000000037 0.94704596667653973 5.0709876543209864 5.567901234567926 3.0805951450952347 3.8271604938272055 124.50000000000001 0.19500000000000031
decision_type=2 10 10 2 10 2 2 8 2 2 2 8 2 2 10
left_child=1 5 -2 10 6 -1 -5 13 9 -6 -3 -11 -4 -7 -14
right_child=2 3 12 4 8 7 -8 -9 -10 11 -12 -13 14 -15 -16
leaf_value=0.0006174702505813912 0.00072386974555060826 -0.0011029320855774336 -0.0028660699084110848 0.0029571730854070707 0.00077676583498973275 0.0040589038905028893 0.00094143546274011978 0.0015407010559308327 0.0011966563162526913 -0.00030898033070067565 -0.0029834056409105418 -0.0018207758632865188 -0.0033567434067769747 0.0029691990570993062 -0.0040617054691838642
leaf_weight=63 53 52 76 91 57 81 92 58 55 74 62 84 81 71 123
leaf_count=63 53 52 76 91 57 81 92 58 55 74 62 84 81 71 123
internal_value=-0.000201143 0.000861309 -0.00287576 8.3326e-05 0.000647002 0.00247092 0.00195442 0.00302139 -0.000243079 -0.000615218 -0.0021427 -0.00111912 -0.00355727 0.00357263 -0.00379953
internal_weight=1173 840 333 567 453 273 183 210 270 215 114 158 280 152 204
internal_count=1173 840 333 567 453 273 183 210 270 215 114 158 280 152 204
is_linear=0
shrinkage=0.005


Tree=35
num_leaves=16
num_cat=0
split_feature=4 50 50 0 50 18 4 50 34 52 11 0 18 53 50
split_gain=129.106 52.9797 30.8274 25.7861 23.9179 13.0106 9.83301 8.63865 8.44705 6.39569 5.53554 5.24453 3.42818 3.1503 1.21127
threshold=24.245000000000001 -0.83500000000000252 -1.23 132.50000000000003 0.68000000000000005 13.880000000000001 15.280000000000003 -1.9849999999999983 -0.86111111111111083 2.1250000000000022 0.67283950617283961 265.50000000000006 25.890000000000004 0.089999999999999955 0.36999999999999972
decision_type=2 8 10 2 8 2 2 10 2 10 2 2 2 10 10
left_child=1 5 -2 4 13 -1 8 -7 -5 10 -6 -8 -4 -3 -14
right_child=2 3 12 6 9 7 11 -9 -10 -11 -12 -13 14 -15 -16
leaf_value=0.0041816340617835523 0.00059859078631482345 0.0033874501310514685 -0.0022036572346719459 -0.0014048440273877027 -0.00091497713444279693 0.0029974225611148174 -0.0010414782356327544 0.00017567047673576285 0.001225788565352559 -0.0014374073010994426 0.0011175009691660122 -0.0031663981821394471 -0.0032653032761536601 0.0016798121931980243 -0.0040841064085615861
leaf_weight=99 54 65 50 71 50 56 51 52 52 66 97 71 122 52 140
leaf_count=99 54 65 50 71 50 56 51 52 52 66 97 71 122 52 140
internal_value=-0.000433247 0.000714118 -0.00287999 -6.80083e-05 0.000843344 0.00287657 -0.00129398 0.00165288 -0.00029179 -0.000156332 0.000424671 -0.0022938 -0.00348204 0.00264917 -0.0037167
internal_weight=1148 782 366 575 330 207 245 108 123 213 147 122 312 117 262
internal_count=1148 782 366 575 330 207 245 108 123 213 147 122 312 117 262
is_linear=0
shrinkage=0.005


Tree=36
num_leaves=16
num_cat=0
split_feature=4 50 50 1 50 1 0 4 25 45 11 31 50 34 42
split_gain=129.277 47.3987 46.3837 19.4042 26.2798 17.7053 5.44187 4.6793 3.19104 3.07391 2.82962 2.52637 2.06738 0.703515 0.182096
threshold=22.815000000000001 -1.3150000000000011 -0.435 -0.58482361983252518 1.6100000000000001 -0.61237985104942771 128.50000000000003 28.155000000000005 20.285000000000004 0.37371971479046939 19.765432098765455 2.5308641975308652 -1.1449999999999998 19.450617283950603 -0.5416228050394748
decision_type=2 10 10 2 10 2 2 2 8 2 2 2 10 2 2
left_child=2 -2 5 -4 6 -1 11 10 12 -6 14 -5 -7 -9 -3
right_child=1 7 3 4 9 8 -8 13 -10 -11 -12 -13 -14 -15 -16
leaf_value=0.00050535003037525299 0.0013960995706951335 -0.0027491248008228988 -0.0022280089356419112 0.0010283143395701281 -0.00078173631292191299 0.0041979953860864045 0.00031324060265634014 -0.0040858604903267308 0.0021869306739360568 -0.0023571294089596647 -0.0017039419351153654 0.0024299321732850691 0.0028605838060717691 -0.0031942442686934218 -0.0035009866433364212
leaf_weight=87 62 50 89 51 83 79 76 141 62 50 57 98 65 56 50
leaf_count=87 62 50 89 51 83 79 76 141 62 50 57 98 65 56 50
internal_value=-0.000391749 -0.00261845 0.000861863 -0.000152333 0.000368456 0.00240437 0.00140777 -0.00332352 0.00320007 -0.00138716 -0.00264294 0.00196024 0.00361819 -0.00384982 -0.003156
internal_weight=1156 416 740 447 358 293 225 354 206 133 157 149 144 197 100
internal_count=1156 416 740 447 358 293 225 354 206 133 157 149 144 197 100
is_linear=0
shrinkage=0.005


Tree=37
num_leaves=19
num_cat=0
split_feature=18 52 48 1 16 1 50 1 50 47 1 51 40 19 51 14 18 46
split_gain=123.433 45.5229 26.3387 21.0368 18.3435 15.0663 10.0275 9.10198 14.337 6.97456 6.91255 6.22794 5.36428 3.31019 3.20857 0.929808 0.792769 0.221089
threshold=25.665000000000003 -0.13999999999999965 -1.155 -0.75015329512557205 8.5000000000000018 0.94425825643485939 -0.91499999999999981 -0.69057362043749781 1.4650000000000001 6.2592592592592764 0.51297097409535064 -0.029999999999998469 4.5000000000000009 14.560000000000002 0.49000000000000116 -5.6481481481481444 30.405000000000005 4.7530864197531013
decision_type=2 10 10 2 2 2 8 2 10 2 2 10 2 2 8 2 2 2
left_child=1 3 -2 9 11 7 13 -6 12 -1 14 -3 -9 -5 -8 -10 17 -4
right_child=2 4 16 6 5 -7 10 8 15 -11 -12 -13 -14 -15 -16 -17 -18 -19
leaf_value=0.0011282422788915973 -0.00026146599190366088 0.0025533310970607794 -0.0030359113497587928 0.0041471935599678902 -0.0033713477133371105 0.0011851489943482223 0.0016388227006730936 0.0012378461218693038 -0.0019142364146297469 -0.0014869208944340549 0.0027929753429687971 0.00011545429981471796 -0.00086931352336793691 0.0024093538482545637 -7.4732915005263156e-05 -0.0029863152696349309 -0.0043052641601906616 -0.0037767535452356282
leaf_weight=50 65 52 51 81 54 61 59 54 50 50 81 52 66 50 50 50 96 86
leaf_count=50 65 52 51 81 54 61 59 54 50 50 81 52 66 50 50 50 96 86
internal_value=-0.00031381 0.000647626 -0.00308131 0.00182037 -0.000478613 -0.00104772 0.00244251 -0.00154733 -0.00108638 -0.000181115 0.00169394 0.0013471 8.13019e-05 0.00350717 0.000859254 -0.00247454 -0.00386349 -0.00352496
internal_weight=1158 860 298 421 439 335 321 274 220 100 190 104 120 131 109 100 233 137
internal_count=1158 860 298 421 439 335 321 274 220 100 190 104 120 131 109 100 233 137
is_linear=0
shrinkage=0.005


Tree=38
num_leaves=17
num_cat=1
split_feature=4 50 48 0 48 41 25 14 5 47 51 50 63 18 26 45
split_gain=141.164 41.0876 27.9145 24.6329 21.3433 11.6321 9.29122 8.28673 6.41317 6.14562 4.14608 3.50481 3.2887 2.00257 1.21262 0.354767
threshold=24.245000000000001 0.68000000000000005 -1.1750000000000005 134.50000000000003 -1.2449999999999999 0 22.190000000000001 -1.9351851851851849 15.080000000000002 6.8703703703703942 0.20999999999999822 -0.435 -2.7182356499999965 28.73 21.388888888888903 0.11593030527547553
decision_type=2 10 10 2 10 1 8 2 2 2 10 10 10 2 2 2
left_child=1 3 -2 6 9 8 11 12 -3 15 -6 -1 -7 14 -4 -5
right_child=2 5 13 4 10 7 -8 -9 -10 -11 -12 -13 -14 -15 -16 -17
leaf_value=0.0040445276971944827 0.00011381999289076174 -0.0008515537237959777 -0.0035023100377875385 0.0021205662431962348 -0.00011187308122990307 -0.0016675664430314844 0.00096411372345216856 0.0012695794255299451 -0.0033448130931132115 0.00064541658331365454 -0.0020826531668986987 0.0026018134534599321 0.00010228497213592716 -0.0040139546568971132 -0.002385895740073877 0.0028930185075538854
leaf_weight=96 61 53 79 50 53 54 53 85 51 77 53 92 50 159 52 50
leaf_count=96 61 53 79 50 53 54 53 85 51 77 53 92 50 159 52 50
internal_value=-0.000312371 0.000827202 -0.0029597 0.00166454 0.00066032 -0.00067085 0.00283616 0.000113421 -0.0019123 0.0017193 -0.00110752 0.00335602 -0.000823806 -0.00360436 -0.00308059 0.00253161
internal_weight=1168 817 351 524 283 293 241 189 104 177 106 188 104 290 131 100
internal_count=1168 817 351 524 283 293 241 189 104 177 106 188 104 290 131 100
cat_boundaries=0 1
cat_threshold=3600
is_linear=0
shrinkage=0.005


Tree=39
num_leaves=18
num_cat=0
split_feature=4 52 48 1 1 52 58 44 51 51 44 3 27 18 11 23 47
split_gain=140.155 52.1723 30.6204 25.5004 13.3703 11.4606 9.63801 7.59216 6.35702 4.50306 4.45823 3.33679 2.59382 2.01619 1.72807 1.08632 0.0669934
threshold=24.835000000000004 -0.83499999999999985 -1.2800000000000009 -0.24372957273992743 -0.75015329512557205 1.7400000000000002 63.662466666666667 0.15855791680139944 0.17499999999999985 0.78999999999999948 0.42109697129093571 15.575000000000001 -3.6111111111111094 28.73 5.5246913580246906 26.235000000000003 5.7407407407407378
decision_type=2 8 10 2 2 10 8 2 10 8 2 2 2 2 2 10 2
left_child=1 4 -2 8 -1 6 9 -8 -3 12 14 -10 -5 15 -6 -4 -15
right_child=2 3 13 5 10 -7 7 -9 11 -11 -12 -13 -14 16 -16 -17 -18
leaf_value=0.00060404488506416484 9.4676334821783444e-05 -0.000221183827257176 -0.0035559174030899039 0.0016671373965401277 0.0029656736242274447 -0.00085825154256790573 0.0015433205707984813 -0.00093140749555505531 -0.0013275082176551223 0.00094506854324468554 0.0020896362050695986 -0.0030085350019405321 0.0033299456739153428 -0.0035608815163141118 0.0042945546495569186 -0.0024380516569045456 -0.0042127210678438009
leaf_weight=62 67 56 61 50 53 98 50 78 57 83 60 67 51 63 81 54 117
leaf_count=62 67 56 61 50 53 98 50 78 57 83 60 67 51 63 81 54 117
internal_value=-0.000357115 0.000757222 -0.00295625 -6.16838e-05 0.00263744 0.000627076 0.00109487 3.97532e-05 -0.00162532 0.00182469 0.00328086 -0.00225261 0.00253119 -0.00364715 0.00379481 -0.00305655 -0.00400551
internal_weight=1208 846 362 590 256 410 312 128 180 184 194 124 101 295 134 115 180
internal_count=1208 846 362 590 256 410 312 128 180 184 194 124 101 295 134 115 180
is_linear=0
shrinkage=0.005


Tree=40
num_leaves=17
num_cat=0
split_feature=4 51 1 48 15 20 47 51 46 1 46 29 20 48 18 23
split_gain=129.883 31.2913 17.4252 15.4153 12.6253 9.56504 9.32933 8.47588 8.20269 7.55195 4.59399 4.49407 4.31122 4.14692 0.644605 0.196654
threshold=26.010000000000002 -0.029999999999998469 -0.75015329512557205 -1.155 1013.2500000000001 15.545000000000002 5.9876543209877013 -0.53500000000000003 7.9845679012345911 0.84773968378660736 6.2623456790123457 1.0000000180025095e-35 10.390000000000002 1.5450000000000006 30.275000000000002 27.655000000000005
decision_type=2 10 2 10 2 8 2 10 2 2 2 2 10 8 2 10
left_child=1 5 6 -2 12 10 -3 13 11 -10 -1 -6 -4 -7 15 -5
right_child=3 2 4 14 8 7 -8 -9 9 -11 -12 -13 -14 -15 -16 -17
leaf_value=0.003461095727525833 -0.00074158282681869778 -0.00023151428617503763 0.0027910807201603671 -0.0037011450347115937 0.0014166150866553951 0.0026369959280147393 -0.0029322599879066857 -0.00064882986135138515 -0.0018924740986959317 0.00049140225876780118 0.0016649207376342799 -0.00028865430026327248 0.00072475134723765002 0.00081987246556181309 -0.0041416888835683332 -0.0030041316721849797
leaf_weight=81 51 55 52 86 77 58 76 57 96 50 69 76 50 70 112 56
leaf_count=81 51 55 52 86 77 58 76 57 96 50 69 76 50 70 112 56
internal_value=-0.000466659 0.000521219 -0.000232829 -0.00326735 0.000285201 0.00171582 -0.0018087 0.000947105 -0.00023413 -0.00107829 0.00265135 0.000573179 0.00179504 0.00165732 -0.00376959 -0.0034492
internal_weight=1172 867 532 305 401 335 131 185 299 146 150 153 102 128 254 142
internal_count=1172 867 532 305 401 335 131 185 299 146 150 153 102 128 254 142
is_linear=0
shrinkage=0.005


Tree=41
num_leaves=17
num_cat=0
split_feature=4 52 0 52 48 0 52 4 34 47 27 24 34 1 17 62
split_gain=124.84 49.327 29.4679 16.6259 16.2011 10.3865 11.4077 10.1512 9.91269 8.89851 7.09938 5.82581 2.00918 1.27816 0.795545 1.0937
threshold=26.185000000000006 -0.86500000000000044 132.50000000000003 1.7200000000000017 -1.1199999999999999 132.50000000000003 -2.0949999999999993 14.535000000000002 12.129629629629653 5.6790123456790491 -1.6944444444444449 -1.0049999999999999 -2.2654320987654297 -0.82415615971448097 29.935000000000006 83.426724775000011
decision_type=2 8 2 10 10 2 10 2 2 2 2 10 2 2 2 8
left_child=1 5 3 11 -2 -1 -7 10 13 -8 -4 -3 -13 -9 15 -6
right_child=4 2 7 -5 14 6 9 8 -10 -11 -12 12 -14 -15 -16 -17
leaf_value=0.0037330402700787354 -0.00064091086990254774 0.00024235855377932537 -0.0013861166942750283 -0.0010556198777847512 -0.0040183459313691793 0.0034533122588287701 0.0020823949725166254 -0.0034840410496884341 -0.00032233363353750773 -0.00087369882930800617 0.0011688715400613057 0.0013546852201416896 0.002478121841007114 -0.0023277669175543257 -0.0041640496027210479 -0.0028802628313069757
leaf_weight=96 50 66 56 85 52 54 50 59 53 50 51 76 96 60 114 68
leaf_count=96 50 66 56 85 52 54 50 59 53 50 51 76 96 60 114 68
internal_value=-0.000374765 0.00058283 -0.000193244 0.000833776 -0.00323952 0.00244494 0.00162307 -0.00138096 -0.00212972 0.000610332 -0.000168772 0.00151015 0.00199242 -0.0029253 -0.00378969 -0.00340257
internal_weight=1136 852 602 323 284 250 154 279 172 100 107 238 172 119 234 120
internal_count=1136 852 602 323 284 250 154 279 172 100 107 238 172 119 234 120
is_linear=0
shrinkage=0.005


Tree=42
num_leaves=17
num_cat=0
split_feature=4 50 1 48 50 0 25 47 50 50 1 61 61 46 61 18
split_gain=113.899 55.1918 29.6466 24.6967 16.6753 13.2846 12.3528 14.0619 8.2947 6.98775 8.50823 7.12106 3.72859 2.90146 1.81324 0.70146
threshold=26.185000000000006 -0.72999999999999765 -0.59869031648930193 -1.1750000000000005 0.64500000000000057 132.50000000000003 13.105000000000002 5.0709876543209864 -1.9849999999999983 2.7750000000000004 0.9053161325100999 -0.24555547555555532 0.55944444444444263 7.8487654320987916 -1.5127778777777741 28.73
decision_type=2 10 2 10 10 2 8 2 10 10 2 10 8 2 10 2
left_child=1 6 12 -2 5 14 -1 -8 -9 10 11 13 -3 -6 -4 -5
right_child=3 2 4 15 9 -7 7 8 -10 -11 -12 -13 -14 -15 -16 -17
leaf_value=0.0037886659607139169 1.1842425235293128e-06 -0.0012619567615015862 0.0019292261009907414 -0.0031866474060289972 -0.00057416148624330203 -0.00018099972679111589 0.0029621809774614642 0.0017609892420184154 -0.0010250896637073973 -0.0020329001572515285 0.0014890083000500454 0.00068744952213906118 -0.0030154601806065156 -0.0022363681339404801 0.0033139338651124168 -0.0039831381915889173
leaf_weight=97 54 51 57 71 52 71 98 51 54 55 63 62 83 54 50 160
leaf_count=97 54 51 57 71 52 71 98 51 54 55 63 62 83 54 50 160
internal_value=-0.000296145 0.000578446 -0.000300023 -0.00304426 0.000299369 0.0014965 0.00232471 0.00161004 0.000331995 -0.000448318 -6.39007e-05 -0.000651606 -0.00236237 -0.00143393 0.00260098 -0.00375312
internal_weight=1183 898 598 285 464 178 300 203 105 286 231 168 134 106 107 231
internal_count=1183 898 598 285 464 178 300 203 105 286 231 168 134 106 107 231
is_linear=0
shrinkage=0.005


Tree=43
num_leaves=17
num_cat=0
split_feature=4 50 48 1 50 24 35 50 50 61 0 44 43 46 50 4
split_gain=121.648 52.1835 35.7082 23.096 21.8066 13.4807 10.4852 7.25354 5.59618 5.76552 5.0582 3.47959 3.42413 2.31157 2.07634 0.241679
threshold=24.835000000000004 -0.63000000000000111 -1.2800000000000009 -0.67803021058859214 0.73499999999999954 15.815000000000003 1014.5500000000001 -1.6749999999999996 2.4149999999999996 0.37222232222222246 132.50000000000003 0.29259762607704959 0.28434865436540785 3.7654320987654999 -1.1449999999999998 28.155000000000005
decision_type=2 10 10 2 10 8 2 10 10 10 2 2 2 2 10 2
left_child=1 5 -2 -3 6 14 -5 12 9 11 -8 -6 -7 -4 -1 -15
right_child=2 3 13 4 8 7 10 -9 -10 -11 -12 -13 -14 15 -16 -17
leaf_value=0.0041436912853952861 0.00056428785404811306 -0.0027006483329486482 -0.0028192296106782223 0.0028970880474742146 -0.00033210296956531239 0.0029296467466087177 0.0014351369916904169 -0.00011846396900517377 -0.0019868866584346668 0.00077054555967657101 -0.00067821714362133136 -0.0020127378917280951 0.0011089407254521754 -0.0034804361562847212 0.0026700359035064193 -0.0041609579494950788
leaf_weight=70 59 87 71 72 79 57 60 56 72 71 52 50 50 67 50 150
leaf_count=70 59 87 71 72 79 57 60 56 72 71 52 50 50 67 50 150
internal_value=-0.000491787 0.00055229 -0.00297156 -0.000355428 9.69452e-05 0.00228907 0.00142208 0.00133977 -0.000801397 -0.000366859 0.000456618 -0.000993984 0.002097 -0.00369536 0.00355681 -0.00396777
internal_weight=1173 826 347 543 456 283 184 163 272 200 112 129 107 288 120 217
internal_count=1173 826 347 543 456 283 184 163 272 200 112 129 107 288 120 217
is_linear=0
shrinkage=0.005


Tree=44
num_leaves=18
num_cat=0
split_feature=4 50 50 1 50 50 1 50 12 51 1 1 28 20 44 0 25
split_gain=128.089 46.5318 40.0479 26.2495 13.1181 11.861 10.1708 12.1588 7.06722 5.71963 4.96286 4.00824 2.16346 2.09833 2.13863 0.329751 0.240274
threshold=22.815000000000001 0.49500000000000105 -1.5850000000000006 -0.65234524191686594 -1.0200000000000002 -0.89499999999999946 -0.21022463061426777 1.655 5.8333333333333357 -0.074999999999999276 0.24372619187392147 0.77788564761185042 7.5000000000000009 27.620000000000005 -0.030120025924938749 110.50000000000001 25.275000000000002
decision_type=2 10 10 2 10 8 2 10 2 10 2 2 2 10 2 2 10
left_child=1 3 -2 4 -1 15 -3 11 10 -4 -7 -8 -9 14 -11 -5 -16
right_child=2 6 9 5 -6 8 7 12 -10 13 -12 -13 -14 -15 16 -17 -18
leaf_value=0.0016033884859220548 0.0014875115607362972 -0.0023510952953979172 -0.0017999147202392093 0.0042558612340483169 -0.0016919124572678582 -0.00016747579510095268 8.3215763503364449e-05 -0.0006300927472229187 0.0028085662074387075 -0.0021376956122763015 0.0018881328467891287 0.002004389576613903 -0.0019608004487379161 -0.0039847791792413639 -0.0038863137466650381 0.0033543373495340347 -0.0030558703570730157
leaf_weight=54 50 73 60 57 66 52 57 64 99 50 66 51 60 153 50 54 53
leaf_count=54 50 73 60 57 66 52 57 64 99 50 66 51 60 153 50 54 53
internal_value=-0.000462118 0.000768105 -0.00268544 0.00179208 -0.000208031 0.00252223 -0.000736899 -0.000221073 0.00182791 -0.00325802 0.000988476 0.0010005 -0.00128452 -0.00353713 -0.0030665 0.00385115 -0.00349249
internal_weight=1169 753 416 448 120 328 305 232 217 366 118 108 124 306 153 111 103
internal_count=1169 753 416 448 120 328 305 232 217 366 118 108 124 306 153 111 103
is_linear=0
shrinkage=0.005


Tree=45
num_leaves=16
num_cat=0
split_feature=4 50 1 50 50 48 0 50 18 61 0 50 0 48 51
split_gain=128.598 41.278 35.5867 32.4091 11.4083 9.24816 7.55419 8.12269 6.8208 5.8522 4.24125 2.67162 2.57247 1.789 0.177445
threshold=22.815000000000001 0.6600000000000007 -0.69057362043749781 -1.55 -0.39499999999999952 -1.3100000000000012 275.50000000000006 1.8999999999999997 25.535000000000004 1.0000000180025095e-35 120.50000000000001 -1.55 122.50000000000001 -0.63500000000000145 0.42500000000000077
decision_type=2 10 2 10 8 10 2 10 2 10 2 10 2 10 10
left_child=1 2 5 -2 11 -1 7 -3 -5 10 -6 -4 -13 -10 -15
right_child=3 6 4 8 9 -7 -8 -9 13 -11 -12 12 -14 14 -16
leaf_value=0.00068843761188821541 0.0010282945276840645 0.00073402646430438816 0.0040562481542428339 -0.0018727322927676142 0.0016190305361047342 -0.0021935642775756372 -0.0021733324307004094 -0.0013021956509898522 -0.0026748169315451722 0.0027710958220637759 -0.00022038766557314231 0.003496392294099288 0.0018735788024540217 -0.0033639589783090811 -0.0040078841781691658
leaf_weight=52 50 98 74 74 82 58 71 96 52 64 50 55 52 64 157
leaf_count=52 50 98 74 74 82 58 71 96 52 64 50 55 52 64 157
internal_value=-0.00041927 0.000796175 0.00165911 -0.00271779 0.00238777 -0.000837235 -0.000789941 -0.000275099 -0.00325897 0.0015394 0.000925863 0.00329295 0.00273239 -0.00362653 -0.0038374
internal_weight=1149 752 487 397 377 110 265 194 347 196 132 181 107 273 221
internal_count=1149 752 487 397 377 110 265 194 347 196 132 181 107 273 221
is_linear=0
shrinkage=0.005


Tree=46
num_leaves=17
num_cat=0
split_feature=17 50 1 50 50 25 1 50 50 15 45 12 46 1 48 51
split_gain=126.202 45.167 33.2154 32.9203 16.2816 12.1119 8.89414 9.48494 7.33025 6.31199 5.57502 3.61505 2.92515 2.87074 2.83451 1.48488
threshold=24.395000000000003 0.68000000000000005 -0.65234524191686594 -1.2849999999999999 -1.23 20.285000000000004 -0.15951315977791497 1.7150000000000001 -1.1449999999999998 1010.85 0.16704543776228173 6.3888888888888902 7.4074074074073657 0.79904096188274243 -0.67499999999999882 0.26999999999999985
decision_type=2 10 2 10 10 8 2 10 10 2 2 2 2 2 10 10
left_child=1 2 4 -2 -1 8 -3 13 -4 -10 -7 -11 -9 -8 -5 -16
right_child=3 6 5 14 -6 10 7 12 9 11 -12 -13 -14 -15 15 -17
leaf_value=0.0017834254372148558 0.0007482149576293831 -0.0023438941764179618 0.0041987249659903251 -0.0024416805417449387 -0.0017246778664843738 0.002046471339719439 2.576429241647323e-06 -0.00036192271076808017 0.003820922223426271 0.0011845415276120943 -0.00023230313547645457 0.002775308355283473 -0.0018967808596789836 0.001614010576516963 -0.0029553849160395287 -0.0040762022008441088
leaf_weight=51 52 69 80 53 90 53 59 55 56 91 53 61 72 51 53 172
leaf_count=51 52 69 80 53 90 53 59 55 56 91 53 61 72 51 53 172
internal_value=-0.000275595 0.000752935 0.00162816 -0.00289115 -0.000452166 0.0023719 -0.000777597 -0.000313654 0.00290289 0.00238679 0.000915562 0.00183691 -0.0012401 0.000757506 -0.00357213 -0.00382643
internal_weight=1171 841 535 330 141 394 306 237 288 208 106 152 127 110 278 225
internal_count=1171 841 535 330 141 394 306 237 288 208 106 152 127 110 278 225
is_linear=0
shrinkage=0.005


Tree=47
num_leaves=18
num_cat=1
split_feature=4 52 48 41 50 4 32 0 28 50 42 51 47 4 45 4 24
split_gain=133.572 49.147 29.9884 21.9079 22.0349 10.8188 8.34703 6.87133 6.80556 6.40199 4.80491 3.68009 3.63117 2.2994 2.16238 0.663774 0.0272948
threshold=24.835000000000004 -0.86500000000000044 -1.2800000000000009 0 1.7150000000000001 17.795000000000005 5.2777777777777812 132.50000000000003 7.5000000000000009 -1.55 0.54883787585413557 0.35000000000000014 5.6327160493827222 9.7050000000000018 -0.16705162550211866 29.910000000000004 26.510000000000002
decision_type=2 8 10 1 10 2 2 2 2 10 2 10 2 2 2 2 10
left_child=1 7 -2 5 6 -3 10 -1 -6 -9 -5 -7 14 -8 -4 16 -14
right_child=2 3 12 4 8 11 13 9 -10 -11 -12 -13 15 -15 -16 -17 -18
leaf_value=0.0037532929275945134 0.00045486710393768655 -5.5163624414870904e-06 -0.0034452920814730089 -0.00043259908319375813 -1.8175014309466831e-06 -0.0013970176450777473 0.0031363053099605544 0.0029366282921133415 -0.0024546178611658085 0.00069159533009575361 0.001494643350401662 -0.0032233109588657195 -0.0038825776289198918 0.0017745696260343966 -0.0019239317666176917 -0.0043535047814577486 -0.0031837696722594273
leaf_weight=97 56 85 52 61 62 56 57 73 51 57 67 59 50 81 52 90 56
leaf_count=97 56 85 52 61 62 56 57 73 51 57 67 59 50 81 52 90 56
internal_value=-0.00035088 0.000775989 -0.00289719 1.68503e-06 0.000703796 -0.00129622 0.0015065 0.00274231 -0.00112065 0.00196506 0.000579958 -0.0023537 -0.00352234 0.00235554 -0.00271018 -0.00393734 -0.0035466
internal_weight=1162 806 356 579 379 200 266 227 113 130 128 115 300 138 104 196 106
internal_count=1162 806 356 579 379 200 266 227 113 130 128 115 300 138 104 196 106
cat_boundaries=0 1
cat_threshold=1840
is_linear=0
shrinkage=0.005


Tree=48
num_leaves=16
num_cat=0
split_feature=18 50 50 1 1 50 18 12 29 47 61 48 51 50 51
split_gain=126.402 43.568 36.8295 14.7488 13.644 16.4767 9.29741 5.1848 4.77295 4.60444 4.07676 3.68754 3.35037 0.847213 0.315889
threshold=22.000000000000004 -0.21000000000000038 -1.23 -0.91597725483594616 -0.24372957273992743 1.7150000000000001 25.665000000000003 2.8888888888888906 0.25783416049629954 6.4814814814814907 -0.28999993000000157 -0.5599999999999995 0.32999999999999968 -1.55 0.42999999999999999
decision_type=2 8 10 2 2 10 2 2 2 2 10 10 10 10 10
left_child=1 3 -2 -1 -3 7 9 -6 -9 -4 -7 -8 13 -5 -13
right_child=2 4 6 12 5 10 11 8 -10 -11 -12 14 -14 -15 -16
leaf_value=0.00013177493002777008 0.00053519883496296961 -0.0016782505269113341 -0.000692276590248095 0.0040965194732416419 0.00031851776329780461 -0.0019159003547974862 -0.0023708678289715733 0.0026467837110976688 0.00073610393330454833 -0.0028356919343619108 -4.0164406075038846e-05 -0.0033131977389208402 0.0021153750365215636 0.0031387041187470499 -0.0040802154033762975
leaf_weight=50 85 94 50 63 92 63 55 79 57 51 53 51 62 86 160
leaf_count=50 85 94 50 63 92 63 55 79 57 51 53 51 62 86 160
internal_value=-0.000367736 0.000964389 -0.0024254 0.00257723 -3.67708e-07 0.000461659 -0.00311068 0.00124043 0.0018572 -0.00179179 -0.00106655 -0.00360288 0.00315336 0.0035683 -0.00391133
internal_weight=1151 699 452 261 438 344 367 228 136 101 116 266 211 149 211
internal_count=1151 699 452 261 438 344 367 228 136 101 116 266 211 149 211
is_linear=0
shrinkage=0.005


Tree=49
num_leaves=18
num_cat=1
split_feature=18 52 0 52 52 41 51 51 14 46 21 47 20 23 47 51 52
split_gain=114.121 44.0251 24.1395 19.5265 19.3066 12.237 12.0162 8.62213 7.5229 6.67931 5.96756 5.52589 2.78103 2.71726 2.23409 0.840226 0.609313
threshold=25.790000000000003 -0.83499999999999985 132.50000000000003 1.7400000000000002 -0.99500000000000088 0 0.20999999999999822 -0.12000000000000276 -9.0833333333333286 5.7962962962963003 17.235000000000003 6.2592592592592764 6.205000000000001 16.740000000000006 4.5740740740741206 0.31000000000000033 -1.3550000000000002
decision_type=2 10 2 10 10 1 10 8 2 2 10 2 10 8 2 10 8
left_child=1 5 3 8 -2 16 9 -7 -3 -4 -8 -9 -10 -14 -6 -16 -1
right_child=4 2 6 -5 14 7 10 11 12 -11 -12 -13 13 -15 15 -17 -18
leaf_value=0.0041605060584232459 -0.00024428009529682722 5.7699404155405673e-06 0.0013883375270793644 -0.0010334196841344236 -0.0026601094852632553 0.0026372663426357601 -0.0011232754500755638 0.0014878738625764343 0.0031827186793088914 -0.0010506813133471325 -0.0029347410317924288 -0.00063459118866830981 0.0025266002651815325 0.00086000660562193874 -0.003111162035045429 -0.0040836206752888479 0.0031385488132489666
leaf_weight=60 54 51 51 99 66 65 96 58 51 60 89 63 50 50 51 136 50
leaf_count=60 54 51 51 99 66 65 96 58 51 60 89 63 50 50 51 136 50
internal_value=-0.000339399 0.000565191 -0.000217067 0.00077873 -0.00296396 0.00213834 -0.0012289 0.001123 0.00166758 7.23392e-05 -0.00200583 0.000386645 0.00222512 0.00171007 -0.0035412 -0.00383636 0.0034203
internal_weight=1200 893 597 301 307 296 296 186 202 111 185 121 151 100 253 187 110
internal_count=1200 893 597 301 307 296 296 186 202 111 185 121 151 100 253 187 110
cat_boundaries=0 1
cat_threshold=30
is_linear=0
shrinkage=0.005


Tree=50
num_leaves=17
num_cat=0
split_feature=18 50 50 1 50 1 61 18 62 53 11 47 51 21 4 63
split_gain=138.07 51.7228 39.9362 24.3909 17.6043 13.8172 8.65335 8.60174 4.0621 4.03064 3.89046 2.91911 2.71538 1.37211 0.644817 0.283866
threshold=22.115000000000006 -0.435 -1.3150000000000011 -0.58482361983252518 1.6100000000000001 -0.88622299073327826 1.1644444444444479 25.790000000000003 42.574133333333343 0.56499999999999961 2.8572530864197554 6.6666666666667016 0.32999999999999968 28.835000000000004 27.405000000000005 7.5558121083333356
decision_type=2 8 10 2 10 2 10 2 10 10 2 2 10 10 2 8
left_child=1 5 -2 -3 6 -1 9 11 -6 10 -5 -4 15 14 -9 -7
right_child=2 3 7 4 8 12 -8 13 -10 -11 -12 -13 -14 -15 -16 -17
leaf_value=0.00049449158474229853 0.00095085917985928596 -0.0024425843527248175 -0.0011060136853708311 0.00022805130080969045 -0.0018305168611427339 0.0041598062536714574 0.0027178120398766376 -0.003759291379579476 -0.00017201413207783783 -0.00046128627183762461 0.0018882931352485544 -0.0028099406482996764 0.0024484254843715964 -0.0040931928266777478 -0.0028498061411052111 0.0033247777687099118
leaf_weight=51 66 85 51 65 64 78 72 55 86 54 77 53 57 146 75 51
leaf_count=51 66 85 51 65 64 78 72 55 86 54 77 53 57 146 75 51
internal_value=-0.000432818 0.000891487 -0.00262717 -1.71494e-05 0.000480714 0.00281191 0.00124672 -0.00324949 -0.000887078 0.000695267 0.00113523 -0.00199285 0.00344129 -0.0037141 -0.00326035 0.00385779
internal_weight=1186 740 446 503 418 237 268 380 150 196 142 104 186 276 130 129
internal_count=1186 740 446 503 418 237 268 380 150 196 142 104 186 276 130 129
is_linear=0
shrinkage=0.005


Tree=51
num_leaves=16
num_cat=0
split_feature=18 52 51 52 40 52 1 46 1 52 52 18 15 46 19
split_gain=126.028 40.1848 35.5065 16.0051 12.4161 14.3808 10.5694 8.98682 8.31392 7.70517 4.50736 4.20886 2.43027 1.60377 0.0706721
threshold=22.000000000000004 -0.88500000000000145 0.20999999999999822 -1.6749999999999989 9.5000000000000018 1.7400000000000002 -0.24372957273992743 3.8888888888888919 0.76140650896573492 1.2400000000000013 -0.065000000000000155 25.790000000000003 1017.9500000000002 3.8888888888888919 29.280000000000005
decision_type=2 10 10 8 2 10 2 2 2 8 10 2 2 2 2
left_child=2 7 3 -1 5 8 -5 -2 -4 12 -6 -3 -8 -13 -15
right_child=1 11 4 6 10 -7 9 -9 -10 -11 -12 13 -14 14 -16
leaf_value=0.0040903515695300818 0.0015831268448216311 -0.0023510821623947578 7.6823975609312229e-05 -0.00034834617108572277 -0.0004153715838170187 -0.0017388351866975426 0.003245901013270202 -0.0013037324103956614 0.0022892165968523307 0.00077461502404904431 -0.0023471947126090524 -0.0028676195905935611 0.0018786452078761963 -0.0035044724302309934 -0.0041394847494860493
leaf_weight=72 55 89 85 63 54 55 81 51 84 88 69 62 64 65 119
leaf_count=72 55 89 85 63 54 55 81 51 84 88 69 62 64 65 119
internal_value=-0.000388285 -0.0024874 0.000908079 0.00198785 -0.000239464 0.000461402 0.00146439 0.000194963 0.00118347 0.00195392 -0.00150927 -0.0033342 0.00265942 -0.00367892 -0.00393532
internal_weight=1156 441 715 368 347 224 296 106 169 233 123 335 145 246 184
internal_count=1156 441 715 368 347 224 296 106 169 233 123 335 145 246 184
is_linear=0
shrinkage=0.005


Tree=52
num_leaves=16
num_cat=0
split_feature=4 50 50 50 0 24 43 50 18 11 46 0 58 48 4
split_gain=116.332 53.913 38.7699 14.9874 25.1359 12.4754 7.98789 7.727 6.76733 4.88837 4.44733 3.09146 1.60795 1.60694 0.00887474
threshold=22.815000000000001 -0.435 -1.2100000000000002 1.595 132.50000000000003 15.815000000000003 0.38167508216062823 -1.5850000000000006 25.790000000000003 3.8580246913580258 5.7962962962963003 142.50000000000003 56.580800000000004 -0.5599999999999995 29.535000000000004
decision_type=2 10 10 10 2 8 2 8 2 2 2 2 8 10 2
left_child=1 5 -2 4 9 11 -6 -7 -4 -3 -5 -1 -12 -10 -15
right_child=2 3 8 10 6 7 -8 -9 13 -11 12 -13 -14 14 -16
leaf_value=0.0039746941909903572 0.00092452614797529451 0.00076014856252921363 -0.0018733910093012836 -0.00034305250390686772 -0.0020123405080636615 0.0029474269326489706 0.00031032514679873926 0.000528564798590597 -0.0027840735058892859 0.0025143282827111368 -0.0014452120873565768 0.0023622532344112794 -0.0027689389007933001 -0.0035606785721722101 -0.0041288685253397985
leaf_weight=104 66 72 71 54 90 51 62 92 54 91 50 50 50 83 109
leaf_count=104 66 72 71 54 90 51 62 92 54 91 50 50 50 83 109
internal_value=-0.000304043 0.000820975 -0.00255036 -0.000235219 0.000389989 0.00248403 -0.0010691 0.00140571 -0.00327447 0.00174884 -0.00150832 0.00346979 -0.00212794 -0.00366962 -0.00390297
internal_weight=1149 766 383 469 315 297 152 143 317 163 154 154 100 246 192
internal_count=1149 766 383 469 315 297 152 143 317 163 154 154 100 246 192
is_linear=0
shrinkage=0.005


Tree=53
num_leaves=18
num_cat=0
split_feature=4 50 50 1 4 50 48 1 61 1 32 44 61 47 21 0 29
split_gain=113.256 44.7846 31.3315 25.8051 11.7135 9.8489 9.15942 7.36642 8.71175 6.22775 5.51935 4.65007 2.73076 1.45826 0.69399 0.688632 0.572827
threshold=21.105000000000004 -1.5850000000000006 0.72000000000000164 -0.62588817255938378 25.510000000000002 -0.89499999999999946 -1.3100000000000012 0.29342972903661901 0.11166676666666812 0.55656748448714433 4.1666666666666705 0.35769492645306949 -1.4477776777777789 5.802469135802502 28.835000000000004 108.50000000000001 -1.0000000180025095e-35
decision_type=2 10 10 2 2 8 10 2 10 2 2 2 10 2 10 2 2
left_child=2 -2 3 6 11 15 -1 -4 -9 10 -7 -3 -11 16 -15 -5 -6
right_child=1 4 7 5 13 9 -8 8 -10 12 -12 -13 -14 14 -16 -17 -18
leaf_value=0.00083523080006919119 0.0014891399830723037 -0.00058253404701297934 -0.0019168889435987253 0.0041200081765089399 -0.0034572675184540032 -0.00018440134065636133 -0.001971661251468154 -0.00099064037517497408 0.0014072006992951391 0.0017404934938319706 0.0020676064221005815 -0.0025204553207382558 0.0034060303670055466 -0.0033716254458538712 -0.0042282345243776689 0.0030414046501905162 -0.0025279850912365049
leaf_weight=65 64 54 77 52 52 58 51 94 62 54 50 74 52 78 98 50 54
leaf_count=65 64 54 77 52 52 58 51 94 62 54 50 74 52 78 98 50 54
internal_value=-0.000517189 -0.00238212 0.000813681 0.00160944 -0.00298857 0.00234791 -0.000405138 -0.000662284 -3.47592e-05 0.00172472 0.000867599 -0.00171375 0.00258175 -0.00355911 -0.00386979 0.00362594 -0.00301191
internal_weight=1139 474 665 432 410 316 116 233 156 214 108 128 106 282 176 102 106
internal_count=1139 474 665 432 410 316 116 233 156 214 108 128 106 282 176 102 106
is_linear=0
shrinkage=0.005


Tree=54
num_leaves=16
num_cat=0
split_feature=4 50 48 1 48 24 16 1 4 50 47 12 46 51 52
split_gain=125.657 39.8057 34.6356 31.4352 19.1642 12.6833 10.5026 8.29075 5.93225 5.37229 3.47286 3.21789 2.93938 0.593742 0.479946
threshold=24.835000000000004 0.64500000000000057 -1.2800000000000009 -0.59869031648930193 -1.3100000000000012 20.225000000000005 8.5000000000000018 0.84773968378660736 14.785000000000002 -0.67000000000000071 4.7654320987654328 5.8333333333333357 8.0864197530864121 0.2850000000000002 -1.5049999999999988
decision_type=2 10 10 2 10 8 2 2 2 10 2 2 2 10 10
left_child=1 3 -2 4 -1 9 -3 8 12 14 -4 -11 -8 -12 -5
right_child=2 6 10 5 -6 -7 7 -9 -10 11 13 -13 -14 -15 -16
leaf_value=0.0016110676719108597 0.00082628509994934899 0.0010556148893352765 -0.002571698053156486 0.0042372209851940477 -0.0018950527990236879 0.00086897156944479607 -0.00031601985962229914 0.00020155781507492066 -0.0032140348219456007 0.001432740755535633 -0.0032680556623381563 0.0029943633729066603 -0.0019296075498401108 -0.0040787178473668849 0.0032874439890382065
leaf_weight=71 54 66 82 59 84 98 55 74 51 63 63 77 58 152 56
leaf_count=71 54 66 82 59 84 98 55 74 51 63 63 77 58 152 56
internal_value=-0.000348983 0.000731843 -0.00284433 0.00158707 -0.000288991 0.00240933 -0.000697806 -0.00118643 -0.00181014 0.0029956 -0.00351225 0.00230678 -0.00115389 -0.0038574 0.00380705
internal_weight=1163 812 351 508 155 353 304 238 164 255 297 140 113 215 115
internal_count=1163 812 351 508 155 353 304 238 164 255 297 140 113 215 115
is_linear=0
shrinkage=0.005


Tree=55
num_leaves=17
num_cat=0
split_feature=18 50 50 1 24 50 50 0 61 12 0 51 51 48 50 18
split_gain=111.363 56.2111 28.3562 25.933 17.5714 16.4436 13.4115 12.1772 6.04194 5.62911 4.56658 4.0913 3.50792 1.82582 0.393479 0.118426
threshold=25.790000000000003 -0.39499999999999952 -1.1899999999999984 -0.70291267844185523 17.665000000000003 1.7150000000000001 -1.6749999999999996 130.50000000000003 -2.2288888888888874 4.7222222222222259 279.50000000000006 1.1100000000000005 0.35999999999999971 -0.56500000000000117 -1.0950000000000004 30.275000000000002
decision_type=2 10 10 2 8 10 10 2 10 2 2 8 10 10 10 2
left_child=1 4 -2 -3 10 7 11 9 -9 -5 14 -6 -7 -4 -1 -15
right_child=2 3 13 5 6 12 -8 8 -10 -11 -12 -13 -14 15 -16 -17
leaf_value=0.0043056576351324718 0.00049501089863113917 -0.0028286083203397298 -0.0027019902123056618 0.00052916536736302081 0.0031452612270816017 -0.00018832637494722127 -0.00071325137444278779 -0.0015156794738292471 0.00073886818883909014 0.0025187373672531026 0.0020577806297859009 0.0011178513064693946 -0.0018199540747861778 -0.0035416629966529252 0.0033698914974876161 -0.0041341075383954581
leaf_weight=59 50 94 56 59 51 50 67 59 58 91 54 51 97 102 53 98
leaf_count=59 50 94 56 59 51 50 67 59 58 91 54 51 97 102 53 98
internal_value=-0.000362361 0.000575972 -0.00294083 -0.000472597 0.00216272 6.787e-05 0.00101871 0.000806441 -0.00040125 0.00174486 0.00331432 0.00215225 -0.00127 -0.00361121 0.00389658 -0.00385108
internal_weight=1149 843 306 508 335 414 169 267 117 150 166 102 147 256 112 200
internal_count=1149 843 306 508 335 414 169 267 117 150 166 102 147 256 112 200
is_linear=0
shrinkage=0.005


Tree=56
num_leaves=16
num_cat=0
split_feature=18 52 48 1 52 18 35 52 53 49 1 47 61 4 59
split_gain=119.892 39.1507 36.8071 24.2397 12.7046 10.0482 8.0644 7.92156 6.48201 4.66965 4.58206 3.65137 2.67836 2.17727 1.4519
threshold=22.000000000000004 -1.329999999999999 -1.8149999999999993 -0.24372957273992743 2.0650000000000017 25.790000000000003 1010.6500000000002 0.12999999999999948 1.0000000180025095e-35 0.37000000000000283 0.43733377705052545 6.7283950617283965 -1.4083332333333314 29.910000000000004 76.725800000000007
decision_type=2 8 10 2 10 2 2 10 8 10 2 2 10 2 10
left_child=1 9 -2 7 6 11 -5 -3 -8 -1 -10 -4 -12 14 -7
right_child=2 3 5 4 -6 13 8 -9 10 -11 12 -13 -14 -15 -16
leaf_value=0.0037614897794009802 0.0014342723762229928 -0.00039888727915240454 -0.00069772883126621732 0.0029030218014552719 -0.0010166801907734511 -0.0035563575388499512 0.0020470919744272169 -0.0025777067626516028 -0.0005930366316070295 0.0018296507454047409 0.00033204451706125469 -0.0025461590168997647 0.0018375368646504182 -0.0040298360630981909 -0.0024452425727088537
leaf_weight=96 52 95 50 62 72 77 86 74 72 51 68 59 52 132 69
leaf_count=96 52 95 50 62 72 77 86 74 72 51 68 59 52 132 69
internal_value=-0.00043211 0.000812296 -0.00249288 0.000227075 0.00088082 -0.0030229 0.00128445 -0.00136248 0.000914358 0.00310815 0.00039901 -0.00171231 0.000994219 -0.00352879 -0.00305145
internal_weight=1167 728 439 581 412 387 340 169 278 147 192 109 120 278 146
internal_count=1167 728 439 581 412 387 340 169 278 147 192 109 120 278 146
is_linear=0
shrinkage=0.005


Tree=57
num_leaves=16
num_cat=0
split_feature=4 50 1 50 48 0 23 50 32 0 45 22 50 23 20
split_gain=132.677 51.469 34.8019 21.3987 17.3952 14.9342 12.4859 13.0658 7.07168 3.91958 3.3958 3.26695 2.41068 1.69617 1.27314
threshold=26.115000000000006 -0.83500000000000252 -0.75015329512557205 1.655 -1.1049999999999993 132.50000000000003 15.330000000000002 -1.9849999999999983 4.7222222222222259 177.50000000000003 -0.13301470653419634 12.280000000000003 0.51000000000000001 18.500000000000004 27.620000000000005
decision_type=2 8 2 10 10 2 10 10 2 2 2 10 8 10 10
left_child=1 6 13 5 -2 8 -1 -8 10 -7 -4 -5 -10 -3 -6
right_child=4 2 3 11 14 9 7 -9 12 -11 -12 -13 -14 -15 -16
leaf_value=0.0039701357326126317 -0.00056763092649406665 -0.0018179063939069416 0.0018975523443819553 -0.00043885485176799882 -0.0032166038309769645 -0.0012300591262093946 0.003188919120214202 -2.0723998426429689e-05 0.0033135184987137718 0.00047334037147229535 0.00014015141233313279 -0.0019444452909131845 0.0019096260767859907 -0.0031547855726301167 -0.0041691131543342055
leaf_weight=110 50 50 50 86 79 50 65 61 71 99 60 62 64 58 142
leaf_count=110 50 50 50 86 79 50 65 61 71 99 60 62 64 58 142
internal_value=-0.000189545 0.000747426 2.01205e-05 0.00053765 -0.00324434 0.00114588 0.00274206 0.00164712 0.00190253 -0.00010266 0.000948869 -0.00107839 0.0026669 -0.00255822 -0.00384465
internal_weight=1157 886 650 542 271 394 236 126 245 149 110 148 135 108 221
internal_count=1157 886 650 542 271 394 236 126 245 149 110 148 135 108 221
is_linear=0
shrinkage=0.005


Tree=58
num_leaves=18
num_cat=0
split_feature=18 50 50 1 50 24 16 40 50 58 50 46 62 50 44 59 5
split_gain=116.648 38.0742 31.4912 23.6355 18.8277 17.7942 11.2629 10.8273 8.9029 6.64475 5.28462 3.7963 2.99267 1.78904 1.3017 1.20868 0.415944
threshold=25.790000000000003 -0.72999999999999765 -1.05 -0.814291907305839 0.75499999999999912 15.815000000000003 8.5000000000000018 4.5000000000000009 -1.5850000000000006 68.00413303333336 1.8000000000000005 5.4938271604938258 44.49492513500001 0.36999999999999972 -0.16705007855999723 44.167466666666677 30.130000000000006
decision_type=2 10 10 2 10 8 2 2 10 8 10 2 10 10 2 10 2
left_child=1 5 -2 -3 7 14 -6 15 12 10 -8 -9 -7 16 -1 -5 -4
right_child=2 3 13 4 6 8 9 11 -10 -11 -12 -13 -14 -15 -16 -17 -18
