tree
version=v4
num_class=1
num_tree_per_iteration=1
label_index=0
max_feature_idx=61
objective=regression_l1
feature_names=day_of_year day_of_year_sin day_of_year_cos knyc_hrrr_f05_c knyc_hrrr_f06_c knyc_hrrr_f07_c knyc_obs_temp_c knyc_obs_dewpoint_c knyc_obs_wind_speed_kts knyc_obs_wind_dir_sin knyc_obs_wind_dir_cos knyc_morning_avg_temp_c knyc_morning_max_temp_c knyc_morning_min_temp_c knyc_morning_avg_dewpoint_c knyc_obs_pressure_mslp_hpa knyc_obs_visibility_mi klga_hrrr_f05_c klga_hrrr_f06_c klga_hrrr_f07_c klga_rap_f05_c klga_rap_f06_c klga_rap_f07_c klga_gfs_f05_c klga_gfs_f06_c klga_gfs_f07_c klga_obs_temp_c klga_obs_dewpoint_c klga_obs_wind_speed_kts klga_obs_wind_dir_sin klga_obs_wind_dir_cos klga_morning_avg_temp_c klga_morning_max_temp_c klga_morning_min_temp_c klga_morning_avg_dewpoint_c klga_obs_pressure_mslp_hpa data_quality_knyc_obs_hours data_quality_klga_obs_hours knyc_wind_speed_missing knyc_yesterday_high_c month month_cat doy_sin_1 doy_cos_1 knyc_dp_dep klga_dp_dep delta_hrrr_gfs_05 delta_hrrr_rap_05 delta_hrrr_gfs_06 delta_hrrr_rap_06 delta_hrrr_gfs_07 delta_hrrr_rap_07 hrrr_slope_57 gfs_slope_57 rap_slope_57 cold_x_dp_knyc cold_x_dp_klga cold_x_mslp knyc_obs_wind_dir_sin_isna knyc_obs_wind_dir_cos_isna klga_obs_wind_dir_sin_isna klga_obs_wind_dir_cos_isna
feature_infos=[1:366] [-0.99999942202469239:0.99998555065071859] [-0.99997919295908244:0.9999907524084426] [-10.880000000000001:37.869999999999997] [-10.220000000000001:37.799999999999997] [-10.369999999999999:38.25] [-14.4444444444444:29.4444444444444] [-24.3888888888889:23.8888888888889] [0:354] [-1:1] [-1:1] [-14.2592592592593:28.271604938271601] [-13.2777777777778:29.4444444444444] [-15.5555555555556:27.7777777777778] [-24.820987654321002:23.641975308641999] [984.60000000000002:1048.0999999999999] [0.25:10] [-10.76:38.119999999999997] [-10.1:38.579999999999998] [-10.25:38.630000000000003] [-11:36.640000000000001] [-10.57:37.060000000000002] [-10.33:37.380000000000003] [-1.3400000000000001:36.829999999999998] [-9.4199999999999999:37.490000000000002] [-9.5500000000000007:37.68] [-13.8888888888889:31.1111111111111] [-22.7777777777778:23.3333333333333] [0:26] [-1:1] [-1:1] [-13.6543209876543:29.814814814814799] [-12.7777777777778:31.6666666666667] [-15:28.3333333333333] [-22.820987654321002:24.012345679012299] [984.79999999999995:1048.4000000000001] none none [0:1] [-9.4440000000000008:44.444000000000003] [1:12] -1:4:6:7:2:0:3:5:1:9:11:8:10 [-0.99999073973619013:0.99999073973619013] [-0.99996295911626554:1] [-6.0493827160493829:20.87654320987658] [0.3086419753086993:21.85802469135799] [-7.509999999999998:5.860000000000003] [-4.629999999999999:6.759999999999998] [-6.6500000000000021:7.4599999999999973] [-6.3599999999999994:5.9499999999999993] [-9.0499999999999972:8.2099999999999973] [-5.7700000000000005:6.2200000000000006] [-4.5200000000000014:3.2399999999999993] [-3.8049999999999997:2.7150000000000007] [-4.1100000000000003:3.5350000000000001] [-6.0493827160493829:16.61728395061731] [0:16.11728395061731] [0:1048.0999999999999] [0:1] [0:1] none none
tree_sizes=1087 1300 1150 1155 1318 1241 1237 1229 1233 1149 1317 1313 1240 1234 1232 1233 1234 1338 1173 1142 1048 1138 974 1320 1414 1439 1139 1241 1152 1260 1216 1232 1320 1246 1246 1296 1238 1147 1253 1405 1148 1251 1153 1257 1151 1154 1160 1051 1330 1334 1065 1156 1429 1324 1072 1154 1176 1411 1145 1249 1297 1317 1319 1335 1337 1058 1405 1152 1342 1166 1433 1061 1244 1242 1130 1416 1041 1425 1333 1240 1053 1230 1351 1164 1398 1354 1343 1240 1241 1232 1434 1328 1246 1424 1419 1333 1309 1423 1126 1247 1326 1152 1318 1418 1357 1333 1157 1129 1324 1351 1242 1065 1341 1160 1424 1136 1346 1256 1058 1523 1330 1238 1246 1453 1508 1346 1147 1156 1334 1071 1434 1338 1343 1346 1359 1334 1541 1326 1448 1376 1244 1331 1256 1349 1247 1344 1065 1250 1338 1322 1068 1258 1261 1235 1330 1344 1362 1339 1358 1368 1335 1333 1272 1258 1445 1255 1241 1340 1242 1423 1155 1443 1254 1065 1435 1417 1333 1237 1346 1259 1438 1245 1264 1240 1328 1260 1348 1246 1434 1418 1246 1078 1259 1272 1253 1441 1350 1437 1326 1423 1438 1405 1435 1279 1320 1337 1244 1254 1439 1348 1351 1144 1316 1246 1346 1457 1258 1547 1420 1155 1457 1403 1267 1176 1357 1427 1435 1428 1310 1324 1334 1350 1457 1334 1458 1337 1249 1077 1241 1073 1331 1346 1337 1332 1360 1346 1421 1358 1165 1346 1373 1255 1259 1331 1251 1349 1348 1254 1440 1357 1343 1343 1453 1331 1452 1461 1262 1465 1409 1356 1248 1231 1512 1358 1165 1424 1446 1252 1439 1282 1259 1263 1274 1254 1423 1284 1431 1333 1242 1278 1267 1368 1363 1341 1336 1438 1373 1251 1355 1342 1341 1354 1392

Tree=0
num_leaves=11
num_cat=0
split_feature=19 48 1 46 48 47 47 0 54 51
split_gain=203.549 61.2733 43.921 46.1092 41.122 10.1814 4.0416 2.78405 1.73305 1.63322
threshold=24.330000000000002 1.655 0.74443451080969758 -0.97500000000000131 -0.47000000000000147 -0.42500000000000066 0.10999999999999967 193.50000000000003 0.61000000000000087 0.51000000000000079
decision_type=2 10 2 10 10 10 10 2 8 10
left_child=1 2 3 5 -2 -1 -7 -8 -4 -3
right_child=4 9 8 -5 -6 6 7 -9 -10 -11
leaf_value=0.58941795718669887 0.57490095660090446 0.57572845663875338 0.59317345499992369 0.57404595673084258 0.56457095623016362 0.58750595629215241 0.5848984569311142 0.57985195636749265 0.59285595357418064 0.56983095664530992
leaf_weight=92.5 115 75.75 112 122 243 92.5 77.25 127.5 86.5 92.25
leaf_count=79 115 68 106 122 243 80 64 116 82 81
internal_value=0.578507 0.581098 0.582381 0.580822 0.572164 0.582499 0.581575 0.580767 0.586362 0.575681
internal_weight=1236.25 878.25 710.25 511.75 358 389.75 297.25 204.75 198.5 168
internal_count=1156 798 649 461 358 339 260 180 188 149
is_linear=0
shrinkage=1


Tree=1
num_leaves=13
num_cat=0
split_feature=4 48 4 48 0 44 48 35 58 3 20 49
split_gain=183.205 52.0911 33.6242 22.8108 17.661 10.3789 10.0282 3.26821 2.22317 2.10345 1.3733 0.155508
threshold=20.530000000000005 0.39500000000000007 26.600000000000005 -0.39499999999999952 188.50000000000003 3.9753086419753125 1.5749999999999995 1020.35 1.0000000180025095e-35 8.2150000000000016 23.035000000000004 0.97000000000000075
decision_type=2 10 2 10 2 2 10 2 2 2 10 8
left_child=1 4 5 -4 7 -2 9 -1 -6 -3 -7 -8
right_child=2 6 3 -5 8 10 11 -9 -10 -11 -12 -13
leaf_value=0.015706015378236772 0.0019638400815427306 0.0012617580229043956 -0.0050106595687568192 -0.013795709836483004 0.0073614504805207251 -0.0040832845337688923 -0.0032322843518108125 0.0066816779524087912 0.0017192650780081746 0.0034254801750183105 -0.0051590094879269601 -0.0032483095187693834
leaf_weight=178 84 72.75 85 195 71.25 69 87.75 72 71.5 93 70 80
leaf_count=161 84 60 85 195 65 69 75 63 66 89 70 72
internal_value=-0.000107684 0.00310331 -0.00474018 -0.00704125 0.00556543 -0.00182872 0.000194204 0.00716561 0.00272664 0.00193172 -0.00349501 -0.00152412
internal_weight=1229.25 726.25 503 280 392.75 223 333.5 250 142.75 165.75 139 167.75
internal_count=1154 651 503 280 355 223 296 224 131 149 139 147
is_linear=0
shrinkage=0.01


Tree=2
num_leaves=11
num_cat=1
split_feature=18 41 46 46 35 53 47 46 1 25
split_gain=215.157 33.0888 28.3817 17.2514 14.5303 18.501 2.99191 7.08714 1.5879 1.68976
threshold=23.755000000000006 0 -0.9599999999999983 -2.1650000000000005 1015.0500000000001 0.4124999999999997 -0.14000000000000032 2.2450000000000014 0.3261394409934788 10.665000000000001
decision_type=2 1 10 10 2 10 10 8 2 10
left_child=1 3 -2 -1 6 8 -3 -8 -6 -10
right_child=2 4 -4 -5 5 -7 7 -9 9 -11
leaf_value=0.002450779414618388 -0.0016062947408445178 0.0133811331034977 -0.013487752542614938 -0.0050150345079943539 0.0020668926628980046 0.0081097159774437561 0.011095881674211472 0.0051965819612580545 0.0051071124247640369 0.0001836082521411589
leaf_weight=72.25 79 88.25 283 85 158.25 84.5 79.5 87.5 138 66.75
leaf_count=71 79 79 283 85 132 83 79 73 116 66
internal_value=1.22629e-05 0.00273456 -0.00644273 -0.00140991 0.00363121 0.00258525 0.00558588 0.00472652 0.00159253 0.00217286
internal_weight=1222 860 362 157.25 702.75 447.5 255.25 167 363 204.75
internal_count=1146 784 362 156 628 397 231 152 314 182
cat_boundaries=0 1
cat_threshold=1536
is_linear=0
shrinkage=0.01


Tree=3
num_leaves=11
num_cat=0
split_feature=22 48 46 0 46 52 52 39 29 49
split_gain=187.486 59.0956 27.0121 26.7686 25.1924 18.0243 12.2066 3.1708 3.0947 2.47968
threshold=24.755000000000006 0.11000000000000033 -0.5599999999999995 191.50000000000003 -1.7150000000000001 0.51500000000000046 0.35000000000000103 14.166500000000001 0.25783416049629954 0.60500000000000054
decision_type=10 10 10 2 10 2 2 10 2 8
left_child=1 4 -2 5 9 8 -6 -5 -3 -1
right_child=2 3 -4 7 6 -7 -8 -9 -10 -11
leaf_value=0.014107128948265091 -0.0034147670842225855 0.0010697525687114052 -0.013822874628566503 -0.0021782071940352945 0.0075260428464416131 0.0050028387716227656 -0.0005550018992346073 -0.0067325065182332246 -0.0046384496394693518 0.0077397047069060164
leaf_weight=166.75 109 140.5 218 81 93.25 107.75 98 64.25 68.5 98.75
leaf_count=148 109 122 218 70 92 101 97 63 64 87
internal_value=-6.21517e-05 0.00225284 -0.00655088 -0.000269862 0.00479856 0.00136028 0.00201351 -0.00380676 -0.000356803 0.00678665
internal_weight=1245.75 918.75 327 462 456.75 316.75 191.25 145.25 209 265.5
internal_count=1171 844 327 420 424 287 189 133 186 235
is_linear=0
shrinkage=0.01


Tree=4
num_leaves=13
num_cat=0
split_feature=5 50 48 18 40 53 0 45 18 46 53 46
split_gain=168.236 38.1336 40.1397 46.002 10.2165 9.5722 8.85109 7.95953 6.08422 3.7557 2.10952 0.436399
threshold=26.545000000000005 0.47000000000000069 -1.1449999999999998 14.170000000000002 4.5000000000000009 -0.040000000000000029 235.50000000000003 4.1975308641975158 14.770000000000001 0.025000000000000359 0.33250000000000007 1.3150000000000015
decision_type=2 10 8 2 2 10 2 2 2 10 10 8
left_child=1 2 8 6 5 -3 -4 -2 -1 -9 -5 -6
right_child=7 4 3 10 11 -7 -8 9 -10 -11 -12 -13
leaf_value=0.022235088747236426 -0.0078903330382088903 -0.00066263995105454168 0.0096853609437051909 -0.0010774721337116337 -0.0052640092150475397 0.0047491431156260642 0.0018608961817479454 -0.0087927385309901056 0.011457381445921441 -0.015669645658167374 -0.0050265597929898325 -0.0057950182926043937
leaf_weight=84 65 134.25 171 68.5 60 62.25 101.75 80 96 137 70 78.25
leaf_count=77 65 114 145 68 60 62 89 80 96 137 70 71
internal_value=0.000107509 0.00216782 0.00369229 0.00195781 -0.000528352 0.000935761 0.00433473 -0.00663842 0.00761589 -0.00756187 -0.00272011 -0.0025995
internal_weight=1208 926 591.25 411.25 334.75 196.5 272.75 282 180 217 138.5 138.25
internal_count=1134 852 545 372 307 176 234 282 173 217 138 131
is_linear=0
shrinkage=0.01


Tree=5
num_leaves=12
num_cat=0
split_feature=22 48 50 50 40 49 40 54 53 47 46
split_gain=165.997 43.2207 39.9535 27.8123 13.2023 11.8699 10.3181 3.45621 2.61383 1.72409 0.790995
threshold=17.125000000000004 -0.47000000000000147 -0.64999999999999936 1.5500000000000005 10.500000000000002 -0.010000000000000895 1.5000000000000002 0.42749999999999982 0.54500000000000093 0.43500000000000055 -1.7150000000000001
decision_type=10 8 10 10 2 10 2 10 8 8 10
left_child=1 10 7 4 6 -4 -3 -2 -7 -8 -1
right_child=2 3 5 -5 -6 8 9 -9 -10 -11 -12
leaf_value=0.014963168170014645 -0.002501595926270821 0.003470945589053866 -0.0034973460057605411 -0.0039682213724082718 0.00065582323442883608 -0.011906297193021621 0.0065789296264397289 0.0015002111499726602 -0.0084121418239675103 0.0082345160460016321 0.013085094114828342
leaf_weight=110.25 85 83.75 71.25 103.25 112.25 223 74.25 92 95.5 99 72.25
leaf_count=98 85 67 71 89 98 223 69 92 95 89 71
internal_value=0.000186026 0.0036117 -0.00377234 0.00200549 0.00328654 -0.00555698 0.00453137 0.00016835 -0.00638098 0.0059186 0.00772999
internal_weight=1221.75 655 566.75 472.5 369.25 389.75 257 177 318.5 173.25 182.5
internal_count=1147 581 566 412 323 389 225 177 318 158 169
is_linear=0
shrinkage=0.01


Tree=6
num_leaves=12
num_cat=0
split_feature=20 49 50 45 50 1 45 42 58 9 50
split_gain=208.864 45.3247 18.1728 16.4378 12.7177 19.3052 6.47643 5.01533 4.49175 4.45197 0.305865
threshold=22.370000000000001 0.14999999999999949 -0.13999999999999965 6.7283950617283965 -0.83499999999999985 -0.67803021058859214 6.072916666666667 0.098819223632317002 1.0000000180025095e-35 -1.0000000180025095e-35 0.80499999999999983
decision_type=10 10 8 2 10 2 2 2 2 2 10
left_child=1 2 7 8 -3 -6 -4 -1 -2 -7 -5
right_child=3 4 6 10 5 9 -8 -9 -10 -11 -12
leaf_value=0.0097846141429850549 -0.0091769800974041589 0.0082028649871313582 0.0069477841412293601 -0.0093622594298062665 -0.0078060844981729929 0.0035957759748872437 0.0023933856038700022 0.022094285763720373 -0.0044243779527960783 0.00016505600346863658 -0.013467656249833202
leaf_weight=85 121 108.5 79.75 103 74 86.25 117 112.25 82 189.25 84
leaf_count=77 121 102 71 103 74 76 103 104 82 170 84
internal_value=0.000273488 0.00304735 0.00552885 -0.0057771 0.000903746 -2.85144e-05 0.0033468 0.00767196 -0.00377081 0.00119263 -0.00791711
internal_weight=1242 852 394 390 458 349.5 196.75 197.25 203 275.5 187
internal_count=1167 777 355 390 422 320 174 181 203 246 187
is_linear=0
shrinkage=0.01


Tree=7
num_leaves=12
num_cat=0
split_feature=4 46 45 54 47 49 22 45 29 54 23
split_gain=191.855 24.7279 16.7702 18.9042 31.5051 16.4741 4.44461 3.2791 1.74648 0.661766 1.20838
threshold=22.955000000000002 -0.4000000000000003 3.8580246913580409 0.8224999999999999 -0.0099999999999988969 -0.0099999999999988969 27.355 8.7037037037037077 -1.0000000180025095e-35 0.080000000000000002 26.290000000000003
decision_type=2 10 2 8 10 10 10 2 2 10 8
left_child=2 8 5 4 -4 -1 -3 -5 -2 -6 -11
right_child=1 6 3 7 9 -7 -8 -9 -10 10 -12
leaf_value=0.015823910802091366 -0.0047617175597080156 -0.0089782834995485068 0.0093981982548333419 0.0050110393301230158 0.0016851346107005804 0.0041349159105119196 -0.015197957543873044 0.006998275314243926 -0.0014059883718446587 -8.355843275095809e-05 -0.0013979547720384478
leaf_weight=110 66 101 133.25 70.75 167 85 150 67.75 76 99 115.5
leaf_count=101 66 101 120 63 148 79 150 63 76 98 98
internal_value=0.000311884 -0.00545408 0.00298723 0.00221178 0.0013228 0.00555556 -0.00733545 0.00547602 -0.00209497 -0.000143716 -0.000509968
internal_weight=1241.25 393 848.25 653.25 514.75 195 251 138.5 142 381.5 214.5
internal_count=1163 393 770 590 464 180 251 126 142 344 196
is_linear=0
shrinkage=0.01


Tree=8
num_leaves=12
num_cat=0
split_feature=5 22 50 1 44 44 51 1 58 50 23
split_gain=161.867 46.6601 42.7282 21.7455 29.7157 21.1144 9.49829 3.20022 2.90532 2.66083 2.07316
threshold=14.690000000000003 28.540000000000003 -0.21499999999999983 0.87397152483179585 3.6728395061728505 6.0524691358024887 0.20000000000000065 0.14250626876356548 1.0000000180025095e-35 0.84000000000000175 18.055000000000003
decision_type=2 10 10 2 2 2 10 2 2 10 8
left_child=2 3 7 4 8 -4 -6 -1 -2 -3 -9
right_child=1 9 5 -5 6 -7 -8 10 -10 -11 -12
leaf_value=0.0075213620192494668 -0.0040273696152665784 -0.010673302833737615 0.0082627130372696384 0.0067802508962903256 -0.0027383339664910169 -0.0014284289585556591 -0.0074309608430218775 0.019498632677752193 0.0048219149856387582 -0.017652231598523842 0.010311344840805401
leaf_weight=120 100 102 101.25 66 102.25 177 165.5 68 60.25 80 110.75
leaf_count=105 99 102 88 66 102 153 165 66 60 80 91
internal_value=-1.19598e-05 -0.00332989 0.00387409 -0.00172658 -0.00255126 0.0010467 -0.00458264 0.00649275 0.000851657 -0.00764192 0.00737705
internal_weight=1253 676 577 494 428 278.25 267.75 298.75 160.25 182 178.75
internal_count=1177 674 503 492 426 241 267 262 159 182 157
is_linear=0
shrinkage=0.01


Tree=9
num_leaves=11
num_cat=0
split_feature=5 48 42 50 52 23 50 53 21 44
split_gain=190.439 57.9016 47.8206 18.4656 16.7209 9.71002 8.96948 7.50028 1.94563 1.17725
threshold=26.085000000000004 1.8000000000000005 0.30081702196488996 -0.030000000000000689 0.15249999999999989 26.920000000000005 -0.42500000000000066 0.28499999999999931 13.405000000000003 7.5925925925925357
decision_type=2 10 2 8 2 8 10 8 8 2
left_child=1 2 3 4 -1 -5 -2 -4 -3 -9
right_child=6 8 7 5 -6 -7 -8 9 -10 -11
leaf_value=0.0079713498471864104 -0.0061695117217803472 -0.0029399228140798584 0.0050044593113241411 -0.008603807951110239 -0.00046553471679265266 9.188498008591006e-06 -0.012654818938441694 0.014982050070051489 -0.0083871462152672015 0.0093115490417585069
leaf_weight=127.25 86 84.75 89.5 65 119 90.25 211 145.75 74 148.75
leaf_count=116 86 71 89 65 116 76 211 132 71 133
internal_value=2.6158e-05 0.00222381 0.00333672 0.000918798 0.00261669 -0.00177373 -0.00694165 0.0058541 -0.00326665 0.00662834
internal_weight=1241.25 944.25 785.5 401.5 246.25 155.25 297 384 158.75 294.5
internal_count=1166 869 727 373 232 141 297 354 142 265
is_linear=0
shrinkage=0.01


Tree=10
num_leaves=13
num_cat=0
split_feature=17 48 46 0 23 42 47 23 29 20 17 17
split_gain=183.423 52.1218 41.6502 33.7874 22.6973 14.9081 13.2211 10.8712 4.38774 1.86248 0.465313 0.475306
threshold=24.595000000000002 -0.79999999999999971 -1.1199999999999999 192.50000000000003 24.395000000000003 -0.833548052892222 0.12000000000000278 21.270000000000007 -0.08682408883346511 11.170000000000002 27.360000000000003 29.420000000000005
decision_type=2 8 8 2 8 2 10 8 2 10 2 2
left_child=1 5 -2 6 -5 -1 8 -8 -3 -7 -4 -12
right_child=2 3 10 4 -6 9 7 -9 -10 -11 11 -13
leaf_value=0.0048832937399218394 0.0016963528985446663 0.0075020607193987347 -0.0078046081241916277 -0.0082277641498923089 -0.00012930576511438539 0.02011708926966432 0.0050997885758349978 -0.0020653131348322461 0.0047912444998271502 0.015364098451636275 -0.009829624401381477 -0.016724551617935873
leaf_weight=67 67 115 83 80 159 86.25 94.25 145.5 85.75 68.5 71 118
leaf_count=67 67 100 83 80 139 76 94 123 78 68 71 118
internal_value=-6.2427e-05 0.00229653 -0.00631981 0.000918172 -0.00210241 0.00649249 0.0025583 0.00096493 0.00444417 0.00819173 -0.00805271 -0.00846477
internal_weight=1240.25 901.25 339 679.5 239 221.75 440.5 239.75 200.75 154.75 272 189
internal_count=1164 825 339 614 219 211 395 217 178 144 272 189
is_linear=0
shrinkage=0.01


Tree=11
num_leaves=13
num_cat=0
split_feature=22 49 50 27 22 50 46 59 35 14 54 59
split_gain=206.856 36.1717 29.8252 11.06 10.9765 7.39346 4.82425 4.9143 2.33549 1.93074 1.30378 0.469967
threshold=24.115000000000006 -0.17500000000000068 -0.97999999999999765 16.388888888888903 15.400000000000002 1.2000000000000004 2.0550000000000002 1.0000000180025095e-35 1016.35 4.8148148148148158 0.58750000000000047 1.0000000180025095e-35
decision_type=10 10 10 2 10 8 8 2 2 2 10 2
left_child=1 5 9 -2 6 8 -4 -8 -1 -3 -5 -6
right_child=3 2 4 10 11 -7 7 -9 -10 -11 -12 -13
leaf_value=0.017448147588458952 -0.0088800423249020509 0.011093550051625274 0.0047961630694830703 -0.011311817637948862 -0.0023818826772793412 0.0039768158877666101 0.0024844503010395601 -0.0014425138847205315 0.0083913515071655561 0.0085595157211481154 -0.0063605967153547499 -0.0043665248293311958
leaf_weight=101 175 79.25 62.25 110 91.25 89.25 152.25 78 98.75 61.75 74 67.25
leaf_count=94 175 69 62 110 90 77 128 66 91 61 74 67
internal_value=0.000306155 0.00291317 0.00149191 -0.00607996 0.000232198 0.00580634 0.00137896 0.000702095 0.00687982 0.00548523 -0.00431965 -0.00187852
internal_weight=1240 881 592 359 451 289 292.5 230.25 199.75 141 184 158.5
internal_count=1164 805 543 359 413 262 256 194 185 130 184 157
is_linear=0
shrinkage=0.01


Tree=12
num_leaves=12
num_cat=0
split_feature=19 48 19 1 25 50 42 23 48 1 29
split_gain=142.902 64.2321 56.1562 20.0765 16.5374 11.3744 10.2752 6.8234 5.30757 1.56174 0.0580889
threshold=28.375000000000004 -0.79999999999999971 18.015000000000004 0.48314048284850658 17.080000000000002 -1.8049999999999995 0.25118773779856129 30.365000000000006 0.01500000000000057 -0.90163369914317004 1.0000000180025095e-35
decision_type=2 10 2 2 8 10 2 8 10 2 2
left_child=1 4 6 9 -1 -6 10 -8 -2 -4 -3
right_child=8 2 3 -5 5 -7 7 -9 -10 -11 -12
leaf_value=0.019804982876451428 -0.0083998695816077645 -0.00026400603422254641 -0.01001205916961162 -0.00081580012757645319 0.0091072174179328801 0.0019546413043259269 0.0064457661418709138 0.0044843667678177105 -0.014742424765204558 -0.0062300665602316087 -0.00050083826421423424
leaf_weight=129.75 87 129 63 91 111 92 104 155.25 134 94 71.25
leaf_count=118 87 112 63 91 101 92 103 129 134 94 62
internal_value=0.000124757 0.00167795 -2.82207e-05 -0.00385233 0.00529271 0.00347698 0.00204037 0.00334997 -0.00715572 -0.00600506 0.000335071
internal_weight=1261.25 1040.25 707.5 248 332.75 203 459.5 259.25 221 157 200.25
internal_count=1186 965 654 248 311 193 406 232 221 157 174
is_linear=0
shrinkage=0.01


Tree=13
num_leaves=12
num_cat=0
split_feature=3 50 1 48 34 1 23 19 19 1 1
split_gain=187.861 44.6637 33.779 30.7725 26.5609 20.9574 6.56786 4.44713 3.82576 3.57648 3.22643
threshold=21.215000000000003 0.11999999999999962 -0.66528616069191593 -0.15000000000000105 18.919753086419753 -0.32614396506100213 32.135000000000012 31.990000000000002 25.785000000000004 0.89017062131308955 0.29342972903661901
decision_type=2 10 2 10 2 2 8 2 2 2 2
left_child=1 2 -1 4 -2 -3 -7 8 -5 10 -4
right_child=3 5 9 7 -6 6 -8 -9 -10 -11 -12
leaf_value=-0.0005484696284574303 -0.0044582800148870068 -0.0056284743658963033 0.0062124094866696719 -0.0074592227942991045 0.0067081135099934528 0.0040902853574024158 0.00067610811535364821 -0.018260498295606133 -0.011766778370288252 0.021121522285411847 0.011899533683777557
leaf_weight=95 127 80.75 128.25 85.25 62 114.75 167.5 63 134 73.25 133.5
leaf_count=95 127 76 107 85 62 114 137 63 134 71 115
internal_value=1.38291e-05 0.00298413 0.00516002 -0.00497936 -0.00184017 0.000398133 0.0016846 -0.00706474 -0.00631663 0.00664783 0.00603727
internal_weight=1264.25 793 430 471.25 189 363 282.25 282.25 219.25 335 261.75
internal_count=1186 715 388 471 189 327 251 282 219 293 222
is_linear=0
shrinkage=0.01


Tree=14
num_leaves=12
num_cat=0
split_feature=4 50 42 45 25 54 47 45 53 1 49
split_gain=187.447 64.1558 27.7495 19.674 11.5248 11.4141 8.93809 6.09707 3.42218 3.38513 2.12869
threshold=24.435000000000006 -0.51000000000000056 -0.15005400879207767 5.0709876543209864 15.255000000000001 0.61749999999999983 0.080000000000000973 8.5617283950617065 1.1275000000000002 0.056951373111866661 -0.030000000000000578
decision_type=2 10 2 2 8 8 10 2 8 2 10
left_child=1 4 8 -2 9 6 -4 -8 -3 -1 -6
right_child=3 2 5 -5 10 -7 7 -9 -10 -11 -12
leaf_value=0.007640046019747204 -0.0048953870793934243 -0.008266652076615387 0.0047024768458837516 -0.011097227751590364 0.0062496858987475482 0.0060256002449530742 0.0019445666939257183 -0.0042196738002941202 -0.00091344736779219932 0.02052351339582786 0.0046487913540509337
leaf_weight=82.75 127 68 82.25 233 94.5 117 99.5 78.5 91.25 110.25 68
leaf_count=73 127 68 73 233 85 110 89 67 82 99 68
internal_value=-1.19694e-05 0.00244626 0.000260368 -0.00609081 0.00573311 0.00173735 0.000564161 -0.000697545 -0.0032253 0.00738929 0.00372633
internal_weight=1252 892 536.5 360 355.5 377.25 260.25 178 159.25 193 162.5
internal_count=1174 814 489 360 325 339 229 156 150 172 153
is_linear=0
shrinkage=0.01


Tree=15
num_leaves=12
num_cat=0
split_feature=4 48 42 45 25 3 48 48 20 15 58
split_gain=212.215 50.8498 42.4201 18.2671 13.5005 13.002 9.92928 10.1964 9.04668 1.72586 0.427016
threshold=26.185000000000006 1.6849999999999989 -0.32533907195844763 3.9197530864197403 19.380000000000003 14.620000000000003 -0.96000000000000041 0.49500000000000105 11.790000000000001 1019.1500000000002 1.0000000180025095e-35
decision_type=2 10 2 2 10 2 8 10 10 2 2
left_child=1 2 3 -1 6 -5 -4 -8 -3 10 -2
right_child=9 8 4 5 -6 -7 7 -9 -10 -11 -12
leaf_value=0.007287527736356123 -0.011583898038556932 -0.0010996952129907352 0.023088287609127619 0.001433404775467572 0.0031061804384128412 -0.0041425453907959807 0.0089103256870727079 0.0040221173020204767 -0.0084918499688347408 -0.011370922769971169 -0.011314042495213306
leaf_weight=67.75 121 106.5 87 92.5 100 108 204.75 114.75 71 75 90
leaf_count=67 121 91 79 87 100 108 176 100 68 75 90
internal_value=0.00022389 0.00249358 0.00359881 0.000380405 0.0052984 -0.00114031 0.00610743 0.00525413 -0.00232233 -0.00731198 -0.00673893
internal_weight=1238.25 952.25 774.75 268.25 506.5 200.5 406.5 319.5 177.5 286 211
internal_count=1162 876 717 262 455 195 355 276 159 286 211
is_linear=0
shrinkage=0.01


Tree=16
num_leaves=12
num_cat=0
split_feature=3 49 22 50 50 40 53 50 42 40 58
split_gain=171.984 40.2722 20.3587 12.9535 9.43322 9.66087 6.30836 5.07561 4.65551 6.02771 1.41879
threshold=22.385000000000002 0.074999999999999303 27.585000000000004 1.2900000000000003 -0.98000000000000009 10.500000000000002 0.49750000000000055 -0.044999999999998146 0.79356426026969662 6.5000000000000009 1.0000000180025095e-35
decision_type=2 10 10 8 10 2 8 10 2 2 2
left_child=1 3 10 8 -3 6 -6 -4 9 -1 -2
right_child=2 4 7 -5 5 -7 -8 -9 -10 -11 -12
leaf_value=0.012285249726229087 -0.00474168298134233 0.0055269252223547382 -0.008636373308842496 0.001641474078135394 -0.0021741138281274729 -0.0029951361480236981 0.0032662143302639485 -0.014377477081923303 0.016878711897824611 0.005668443201604415 -0.003793099974167974
leaf_weight=77.25 120 95.75 66 92.75 84.25 94.5 215.25 138 91.25 88.5 94
leaf_count=67 120 89 66 79 84 85 189 138 88 81 94
internal_value=-1.58894e-05 0.00259308 -0.00524809 0.0051788 0.000738364 5.06073e-05 0.000931161 -0.00750487 0.0063323 0.00525606 -0.00306691
internal_weight=1257.5 839.5 418 349.75 489.75 394 299.5 204 257 165.75 214
internal_count=1180 762 418 315 447 358 273 204 236 148 214
is_linear=0
shrinkage=0.01


Tree=17
num_leaves=13
num_cat=1
split_feature=17 48 41 1 49 23 23 52 44 53 51 19
split_gain=153.784 73.1427 42.3453 26.678 10.5433 7.3442 7.20068 6.06901 4.3898 4.11367 2.02304 1.62892
threshold=27.360000000000003 -0.35500000000000037 0 -0.58482361983252518 0.49000000000000116 20.800000000000001 17.175000000000004 0.40000000000000024 9.0617283950617082 0.79999999999999993 -0.20000000000000059 31.720000000000002
decision_type=2 10 1 2 10 8 10 2 2 8 10 2
left_child=1 3 6 7 9 -5 -3 -1 -6 -4 -7 -2
right_child=11 2 4 5 8 10 -8 -9 -10 -11 -12 -13
leaf_value=0.0052364841274496364 -0.0096912879861673854 -0.0025162438422619477 0.0004577145620368195 0.019292363080774439 0.0019646153275077356 0.0078462333291538996 -0.0085466550062731367 -0.00086511839654098365 -0.0038872759643500199 0.0045678418383278512 0.0085487518943780771 -0.016174991184047204
leaf_weight=67.25 132 70 72.5 89.25 131.25 93 81 79 80.5 168.75 91.5 85
leaf_count=67 132 69 72 87 117 79 81 79 72 141 82 85
internal_value=0.000152954 0.00177526 -0.000454395 0.00497388 0.00109866 0.00681033 -0.0048397 0.00150899 -0.000504813 0.00254692 0.00560043 -0.00747021
internal_weight=1241 1024 604 420 453 273.75 151 146.25 211.75 241.25 184.5 217
internal_count=1163 946 552 394 402 248 150 146 189 213 161 217
cat_boundaries=0 1
cat_threshold=1824
is_linear=0
shrinkage=0.01


Tree=18
num_leaves=11
num_cat=1
split_feature=4 48 50 41 52 23 45 49 58 58
split_gain=174.558 52.3969 47.5968 31.2065 19.2251 5.43887 4.95393 3.26741 1.95984 0.491988
threshold=23.825000000000003 0.09999999999999877 -1.2949999999999997 0 0.44499999999999978 29.020000000000003 8.5617283950617065 1.0000000180025095e-35 1.0000000180025095e-35 1.0000000180025095e-35
decision_type=2 10 10 1 2 10 2 10 2 2
left_child=1 3 -2 -1 6 8 9 -5 -4 -3
right_child=2 4 5 7 -6 -7 -8 -9 -10 -11
leaf_value=0.00055124087177033988 0.0036884087394244659 -0.0005980023903246085 -0.0083319392571775917 0.013446718280633698 0.0040980771162338302 -0.013731236765000055 -0.002980554255667981 0.010202858334193654 -0.0056270797203957935 -0.0006865498293125358
leaf_weight=116 62 100.25 114 195 127 141 111 121.5 67 70
leaf_count=116 62 89 114 174 119 141 97 109 67 63
internal_value=0.000124393 0.00267534 -0.00545171 0.00509569 0.000103798 -0.00699257 -0.00135422 0.00662191 -0.0057629 -0.000277049
internal_weight=1224.75 840.75 384 432.5 408.25 322 281.25 316.5 181 170.25
internal_count=1151 767 384 399 368 322 249 283 181 152
cat_boundaries=0 1
cat_threshold=928
is_linear=0
shrinkage=0.01


Tree=19
num_leaves=11
num_cat=0
split_feature=4 48 1 48 54 46 52 45 47 53
split_gain=195.239 55.705 28.1667 24.9337 20.4936 21.8365 20.0746 7.88892 4.2639 1.90575
threshold=24.835000000000004 1.5249999999999997 0.51297097409535064 -0.68999999999999984 0.094999999999999321 -1.0249999999999997 0.47999999999999915 5.4938271604938569 -0.24000000000000007 0.91249999999999976
decision_type=2 10 2 10 8 10 2 2 10 8
left_child=1 2 4 -2 -1 -6 -3 -5 -4 -10
right_child=3 6 8 7 5 -7 -8 -9 9 -11
leaf_value=0.0063437449322306617 -0.0022536059606244334 -0.0043423051672652384 0.012392070078336185 -0.0082789637333336805 0.002847203459446905 -0.0054358662548808405 0.0025200647960401373 -0.011967260295805473 0.0066756444655420256 0.011377593302273222
leaf_weight=187.5 79 134.5 110.25 83 150 68 66.75 181 102 78.25
leaf_count=166 79 120 102 83 135 68 60 181 101 70
internal_value=0.000332273 0.00278535 0.00412364 -0.00607205 0.00240964 0.000319343 -0.00183996 -0.00754148 0.0064964 0.00546983
internal_weight=1240.25 897.25 696 343 405.5 218 201.25 264 290.5 180.25
internal_count=1165 822 642 343 369 203 180 264 273 171
is_linear=0
shrinkage=0.01


Tree=20
num_leaves=10
num_cat=0
split_feature=4 50 48 20 0 49 54 44 44
split_gain=172.574 40.6275 36.3419 20.0718 18.4925 16.4207 11.0134 4.33604 2.80664
threshold=23.545000000000005 -1.1299999999999997 -1.7900000000000007 16.835000000000004 291.50000000000006 0.89500000000000057 0.12250000000000007 4.6296296296295996 5.929012345679026
decision_type=2 10 10 10 2 10 10 2 2
left_child=2 -2 -1 4 5 8 -6 -3 -4
right_child=1 7 3 -5 6 -7 -8 -9 -10
leaf_value=0.012309642009314455 0.0030130771151751523 -0.0087221409201097121 0.012285325693991021 -0.002136694260842547 0.0031181335464941519 -0.0012198032343748778 -0.0024223093778682155 -0.01095226289243381 0.0059858338978659633
leaf_weight=140 71 112 123.5 140.25 103.5 90.5 78 205 191.5
leaf_count=128 71 112 112 140 89 81 71 205 170
internal_value=0.000240758 -0.00529291 0.00272036 0.0018155 0.00262666 0.00381116 -2.73673e-05 -0.00681961 0.00488615
internal_weight=1255.25 388 867.25 727.25 587 405.5 181.5 317 315
internal_count=1179 388 791 663 523 363 160 317 282
is_linear=0
shrinkage=0.01


Tree=21
num_leaves=11
num_cat=0
split_feature=5 1 46 47 53 5 46 47 51 53
split_gain=156.63 42.076 30.1291 14.3165 16.4778 12.4363 5.59404 3.3283 2.45278 1.68827
threshold=25.040000000000003 -0.58482361983252518 -1.8749999999999998 -0.49000000000000105 0.46250000000000041 28.205000000000002 -0.055000000000001485 0.84000000000000086 0.4199999999999991 0.43500000000000144
decision_type=2 2 10 10 10 2 10 10 8 8
left_child=1 2 -1 8 7 -2 -7 9 -3 -5
right_child=5 3 -4 4 -6 6 -8 -9 -10 -11
leaf_value=0.0021611806592195205 -0.0042528436574678866 0.013696492924275197 -0.0049741669895583488 0.0026207830690628937 0.0097320429409102349 -0.0079072934708149939 -0.01411380750517441 6.8932226269436683e-05 0.0054901098681729068 0.004818897688117124
leaf_weight=85.5 127 69.25 121 81.25 96.5 89 116 121.25 96.25 231
leaf_count=85 127 64 121 81 95 89 116 107 86 189
internal_value=0.000157869 0.00231953 -0.00163698 0.00349505 0.00268261 -0.00570228 -0.00722599 0.00184035 0.00605879 0.00238475
internal_weight=1234 902 206.5 695.5 530 332 205 433.5 165.5 312.25
internal_count=1160 828 206 622 472 332 205 377 150 270
is_linear=0
shrinkage=0.01


Tree=22
num_leaves=9
num_cat=0
split_feature=18 48 21 42 46 50 50 47
split_gain=186.468 48.717 25.0655 24.7819 18.0681 7.20498 7.55248 6.12972
threshold=20.510000000000002 1.2850000000000004 27.005000000000003 0.79356426026969662 -0.44500000000000023 -0.63000000000000111 -1.2450000000000008 0.58000000000000107
decision_type=2 10 10 2 10 10 8 8
left_child=1 3 4 5 -2 6 -1 -3
right_child=2 7 -4 -5 -6 -7 -8 -9
leaf_value=0.012169911095984984 8.7667102514669211e-05 0.0016998288132628503 -0.011543235180605698 0.01466828331682862 -0.0065419036766118368 0.0033470512866850179 0.0027982352595121774 -0.0056686732588655175
leaf_weight=91.5 123.25 81.5 236 161.25 144 170 100.25 122
leaf_count=84 123 70 236 155 144 149 87 109
internal_value=0.00012795 0.00336677 -0.00454455 0.00497902 -0.00243062 0.00350599 0.00483286 -0.000781632
internal_weight=1229.75 726.5 503.25 523 267.25 361.75 191.75 203.5
internal_count=1157 654 503 475 267 320 171 179
is_linear=0
shrinkage=0.01


Tree=23
num_leaves=13
num_cat=0
split_feature=3 50 1 48 46 48 48 47 46 47 58 58
split_gain=145.356 52.2756 36.6561 25.1835 25.0401 11.3283 7.88448 7.45141 5.2582 4.76722 0.898651 0.842265
threshold=22.495000000000001 -0.85500000000000032 -0.099819732675876779 2.125 0.040000000000000042 -0.41999999999999899 1.2599999999999991 0.23000000000000023 -1.8149999999999993 0.17000000000000084 1.0000000180025095e-35 1.0000000180025095e-35
decision_type=2 10 2 10 10 10 10 10 10 8 2 2
left_child=1 8 7 6 5 10 11 -3 9 -1 -2 -4
right_child=4 2 3 -5 -6 -7 -8 -9 -10 -11 -12 -13
leaf_value=0.012801522218117693 -0.0026362983294367214 -0.0008202663309475331 0.0070568265251505216 -0.0034694151920047333 -0.012343501787347395 -0.0088424900390974542 0.00044909162861048402 -0.0060622167768789505 0.010149689324298845 0.0074395713681595713 -0.0016208137203289085 0.0027915583769427309
leaf_weight=77.75 67 67 133.25 90.25 201 78 87.5 101 80.5 112 70 66
leaf_count=70 67 61 121 79 201 78 78 95 79 96 70 62
internal_value=-0.000135908 0.00231796 0.000530941 0.00226071 -0.00493768 -0.00254394 0.00370724 -0.00333924 0.00590348 0.00682116 -0.000795948 0.0048017
internal_weight=1231.25 815.25 545 377 416 215 286.75 168 270.25 189.75 137 199.25
internal_count=1157 741 496 340 416 215 261 156 245 166 137 183
is_linear=0
shrinkage=0.01


Tree=24
num_leaves=14
num_cat=0
split_feature=18 48 46 23 49 15 0 15 54 54 17 54 42
split_gain=147.948 55.3887 54.3763 24.648 16.0793 14.8245 12.271 7.86513 3.8311 3.27209 2.76358 0.688598 0.136852
threshold=17.635000000000002 1.4450000000000005 -0.9599999999999983 25.170000000000005 0.22000000000000045 1022.2500000000001 130.50000000000003 1015.0500000000001 0.64000000000000046 -0.01499999999999979 31.735000000000003 -0.16249999999999962 0.7266007961912001
decision_type=2 10 10 10 10 2 2 2 8 10 2 10 2
left_child=1 5 8 4 -4 7 -7 11 -2 -9 -5 -1 -3
right_child=2 12 3 10 -6 6 -8 9 -10 -11 -12 -13 -14
leaf_value=0.013442757900182496 -0.00016264161856570174 -0.0031696875317341754 0.00045754170002601681 -0.0083134587171507061 -0.0071496409773982262 0.0077597817408690652 -0.00073591242269472668 0.004366490642134551 0.00294553433546073 0.0063575544183101596 -0.017124182620547167 0.0085171714896089788 -0.0036224780540765832
leaf_weight=89.25 101 89.75 66 161 126 75.5 78.25 80.25 63.25 81 67 105.5 68
leaf_count=78 101 74 66 161 126 64 70 68 63 74 67 98 62
internal_value=0.000113732 0.00332735 -0.00355709 -0.00546059 -0.00279503 0.0049271 0.0023072 0.00604703 0.0013146 0.00435519 -0.00767888 0.00741261 -0.0018402
internal_weight=1251.75 667.5 584.25 420 192 509.75 153.75 356 164.25 161.25 228 194.75 157.75
internal_count=1172 588 584 420 192 452 134 318 164 142 228 176 136
is_linear=0
shrinkage=0.01


Tree=25
num_leaves=14
num_cat=1
split_feature=4 21 41 46 49 43 29 46 59 49 59 29 47
split_gain=166.171 32.1783 23.2098 18.9839 15.4009 6.3263 5.02827 4.76526 3.13075 0.926121 0.902057 0.892394 0.536562
threshold=20.425000000000004 24.740000000000006 0 1.7450000000000012 0.35999999999999971 0.60503365783732044 0.42101007166283455 0.76500000000000068 1.0000000180025095e-35 0.25499999999999906 1.0000000180025095e-35 0.25783416049629954 0.35999999999999971
decision_type=2 8 1 8 10 2 2 10 2 8 2 2 10
left_child=2 11 5 6 9 -1 -4 8 12 -5 -7 -2 -3
right_child=1 7 3 4 -6 10 -8 -9 -10 -11 -12 -13 -14
leaf_value=-0.002383834615642413 -0.0005149880391682514 -0.0063300836024461262 0.011375056302430209 0.011380968855010373 4.3768692751081764e-05 0.00090915078026397979 0.011401776868649103 -0.013494546527843944 -0.0051432334427980184 0.0042061277042275014 0.003572517893122339 -0.0047140712604277846 -0.008765212583615567
leaf_weight=78 107.25 60 101.75 121.25 113.75 92 78 94 85 77.5 73.5 69 63
leaf_count=78 107 60 99 99 96 79 78 94 85 65 65 69 63
internal_value=0.000489631 -0.00409323 0.00347038 0.00468269 0.00326745 0.000785238 0.00736391 -0.0060686 -0.00516252 0.00493873 0.00191962 -0.000690335 -0.00619968
internal_weight=1214 478.25 735.75 492.25 312.5 243.5 179.75 302 208 198.75 165.5 176.25 123
internal_count=1137 478 659 437 260 222 177 302 208 164 144 176 123
cat_boundaries=0 1
cat_threshold=3840
is_linear=0
shrinkage=0.01


Tree=26
num_leaves=11
num_cat=0
split_feature=17 47 1 4 15 23 45 49 58 58
split_gain=170.788 25.63 22.6327 15.1286 9.79414 11.4595 7.80841 4.94261 2.10973 0.37347
threshold=21.735000000000003 -0.35500000000000037 -0.074117382312902935 32.375000000000007 1012.5500000000001 28.210000000000004 5.9259259259259025 0.32999999999999968 1.0000000180025095e-35 1.0000000180025095e-35
decision_type=2 8 2 2 2 8 2 10 2 2
left_child=1 -1 6 7 -4 -6 -3 9 -9 -2
right_child=3 2 4 -5 5 -7 -8 8 -10 -11
leaf_value=0.013763789245968629 -0.0041072326295134758 0.0028457288518452949 0.0090710847767379848 -0.016699181655942825 0.0049952540631740486 0.0018615060747040441 -0.0011455712097576845 -0.0081615157687478269 -0.010215755114452236 -0.0025511160856656156
leaf_weight=120.75 71 82 108.25 64 126.25 205 145 139 88 63
leaf_count=109 71 77 98 64 125 168 134 139 88 63
internal_value=5.56265e-05 0.00281248 0.00203684 -0.00504458 0.00335829 0.0024891 -0.000525855 -0.00422419 -0.00512708 -0.00266272
internal_weight=1212.25 787.25 666.5 425 439.5 331.25 227 361 227 134
internal_count=1136 711 602 425 391 293 211 361 227 134
is_linear=0
shrinkage=0.01


Tree=27
num_leaves=12
num_cat=0
split_feature=4 48 0 11 44 44 46 47 21 47 53
split_gain=145.859 51.9614 22.0882 17.0278 18.507 8.85066 7.35277 4.76148 2.01064 0.247185 0.0287192
threshold=27.285000000000004 0.09999999999999877 140.50000000000003 10.956790123456802 5.4320987654321016 4.3827160493827062 -0.030000000000000245 0.019999999999999799 28.755000000000003 0.82000000000000017 0.75249999999999961
decision_type=2 10 2 2 2 2 10 8 10 8 8
left_child=1 3 5 7 -5 -3 -4 -1 -2 -9 -7
right_child=8 2 6 4 -6 10 -8 9 -10 -11 -12
leaf_value=0.0078465839865925219 -0.0081506334448563453 0.011494295272802515 -0.0013778134622709607 0.0085225988968507596 -0.0022745357379394013 -8.5481982670909437e-05 -0.010436265572704842 0.011341687605927513 -0.011885850961858327 0.0058455188719790932 -0.00052947383480658186
leaf_weight=86.25 84 68.5 121.25 139 78.25 68.25 75 94 151 90.75 157.25
leaf_count=78 84 63 108 138 78 68 75 83 151 77 134
internal_value=-1.6465e-05 0.00168419 -0.000615525 0.00398917 0.0018883 0.00111789 -0.00320334 0.0056576 -0.00707028 0.00469212 0.000154389
internal_weight=1213.5 978.5 490.25 488.25 217.25 294 196.25 271 235 184.75 225.5
internal_count=1137 902 448 454 216 265 183 238 235 160 202
is_linear=0
shrinkage=0.01


Tree=28
num_leaves=11
num_cat=0
split_feature=20 46 48 18 0 47 18 0 58 47
split_gain=183.673 55.8292 46.2157 21.5843 19.2132 9.91157 8.30857 4.3897 2.45163 0.524721
threshold=15.740000000000002 -0.90499999999999925 -0.45000000000000057 22.815000000000001 168.50000000000003 0.30999999999999922 28.015000000000004 228.50000000000003 1.0000000180025095e-35 0.86499999999999855
decision_type=10 8 8 2 2 10 2 2 2 8
left_child=2 8 7 -3 5 9 -5 -1 -2 -4
right_child=1 3 4 6 -6 -7 -8 -9 -10 -11
leaf_value=0.018317489927731745 0.0038498841505123496 -0.0045736940782729807 0.0083129116004038144 -0.0060019352494891697 -0.00089046727127481688 0.0028589039215525807 -0.013037671598258065 0.0079630344478773644 -0.00075981307227374062 0.0035527024984028698
leaf_weight=122.25 89 113.75 104.25 148 143.25 145 180 70 73 76
leaf_count=111 89 113 91 148 126 125 180 64 73 66
internal_value=0.000193569 -0.00378957 0.00383337 -0.00562705 0.00212902 0.00346914 -0.00692588 0.00794779 0.00122549 0.00502893
internal_weight=1264.5 603.75 660.75 441.75 468.5 325.25 328 192.25 162 180.25
internal_count=1186 603 583 441 408 282 328 175 162 157
is_linear=0
shrinkage=0.01


Tree=29
num_leaves=12
num_cat=1
split_feature=20 41 48 4 49 22 44 23 23 51 58
split_gain=157.536 49.9594 53.8619 29.5065 22.2032 17.7567 9.60013 8.4211 0.829418 0.630222 0.325944
threshold=22.370000000000001 0 1.7150000000000001 28.700000000000003 0.17499999999999985 14.870000000000003 5.712962962962961 16.915000000000003 23.985000000000003 0.44000000000000045 1.0000000180025095e-35
decision_type=10 1 10 2 10 10 2 8 8 10 2
left_child=1 4 6 10 -1 -6 8 -8 -3 -5 -2
right_child=3 2 -4 9 5 -7 7 -9 -10 -11 -12
leaf_value=0.004306307255223382 -0.0027551403864327279 0.013912381469435492 -0.0025609147202036758 -0.0079318944902002694 0.00017035488364467805 -0.0070878753288607889 0.011020956185040376 0.0047351671008415445 0.013516054907367119 -0.013005383615349926 -0.0034336029967032091
leaf_weight=134.25 110 82.75 114.75 60 111.5 97.5 80.25 165.25 89 127 74
leaf_count=123 110 82 101 60 100 97 78 140 75 127 74
internal_value=0.000426871 0.00274117 0.00461156 -0.00502418 -0.00028918 -0.00233111 0.00636277 0.00504662 0.00819601 -0.00781084 -0.00215983
internal_weight=1246.25 875.25 532 371 343.25 209 417.25 245.5 171.75 187 184
internal_count=1167 796 476 371 320 197 375 218 157 187 184
cat_boundaries=0 1
cat_threshold=3600
is_linear=0
shrinkage=0.01


Tree=30
num_leaves=12
num_cat=0
split_feature=3 50 45 48 48 49 39 54 58 55 49
split_gain=145.058 39.5762 37.4302 29.9473 14.7082 13.8463 6.83938 6.1016 5.39619 3.65136 1.01144
threshold=19.98 -1.5449999999999997 5.4320987654321113 1.3750000000000002 0.6600000000000007 0.17499999999999985 18.055500000000002 0.28250000000000058 1.0000000180025095e-35 6.6358024691358155 0.3400000000000008
decision_type=2 8 2 10 10 8 10 8 2 2 8
left_child=1 -1 4 6 8 -4 9 -5 -2 10 -3
right_child=2 3 5 7 -6 -7 -8 -9 -10 -11 -12
leaf_value=0.01919877289415434 -0.001072508120454537 0.0071147869493130411 -0.0032328649296977214 -0.0041885613226647104 -0.012009127446285182 -0.011088765719310216 0.00077480881103754234 9.8193142341579387e-05 0.0038580029175993018 0.003171201989994466 0.0042589789634168117
leaf_weight=110.25 93 140 89 91 61 209.25 67.25 93 61 88.75 128.5
leaf_count=103 93 126 89 79 61 209 67 84 61 71 115
internal_value=-1.21635e-05 0.00288562 -0.00406745 0.00187797 -0.000878816 -0.00635331 0.00333568 -0.00148488 0.000773196 0.00388478 0.00446793
internal_weight=1232 718.75 513.25 608.5 215 298.25 424.5 184 154 357.25 268.5
internal_count=1158 645 513 542 215 298 379 163 154 312 241
is_linear=0
shrinkage=0.01


Tree=31
num_leaves=12
num_cat=0
split_feature=17 50 40 48 34 17 50 54 7 40 59
split_gain=156.723 48.6028 25.9803 19.3602 13.229 11.4012 10.2459 9.86728 4.75926 2.66983 2.1306
threshold=21.495000000000005 -1.2650000000000003 9.5000000000000018 -0.1400000000000001 17.777777777777754 13.110000000000001 -0.40999999999999986 0.52000000000000057 -2.1111111111111094 6.5000000000000009 1.0000000180025095e-35
decision_type=2 10 2 10 2 2 10 10 2 2 2
left_child=1 9 6 4 -2 -4 -3 8 -8 -1 -5
right_child=3 2 5 10 -6 -7 7 -9 -10 -11 -12
leaf_value=0.013566847787286044 -0.0033706926672142637 0.0091475754461549218 5.78916202464308e-06 -0.0099061630127986189 0.0027561176196693972 -0.004568758039403353 -0.0024167127003237817 0.0052594974107166318 0.003586050107286506 0.0082328075746887549 -0.011197740006787643
leaf_weight=130.25 114 86.75 111.5 171 74 78.25 118.25 100 91.75 72 90
leaf_count=115 114 79 97 171 74 76 99 93 85 67 90
internal_value=2.21962e-05 0.00270587 0.00124213 -0.00468681 -0.00221987 -0.00179366 0.00269506 0.00183162 0.000591856 0.00691816 -0.00644546
internal_weight=1237.75 788.75 586.5 449 188 189.75 396.75 310 210 202.25 261
internal_count=1160 711 529 449 188 173 356 277 184 182 261
is_linear=0
shrinkage=0.01


Tree=32
num_leaves=13
num_cat=0
split_feature=17 42 46 4 21 47 46 47 29 54 47 15
split_gain=164.412 40.2178 17.8145 12.3144 8.52726 9.13529 11.7058 5.26267 3.73546 2.37602 5.4514 1.24959
threshold=25.200000000000006 -0.20931270765420754 -0.56500000000000117 28.785000000000004 20.455000000000002 -0.40499999999999842 0.45000000000000112 0.089999999999999983 1.0000000180025095e-35 1.22 0.46999999999999997 1017.4500000000002
decision_type=2 2 10 2 10 8 8 10 2 8 10 2
left_child=1 2 7 8 5 -3 -7 -1 -2 10 -8 -5
right_child=3 4 -4 11 -6 6 9 -9 -10 -11 -12 -13
leaf_value=0.0031730786788270755 -0.0058271010974730378 0.013245699487623934 -0.0068952450831880827 -0.011452215352210389 -0.00054048792306549186 0.011962261416222421 0.0061810721431695883 -0.00089624763376667984 -0.0025888193504461209 0.0035629892670592388 0.0012387862742108558 -0.013265919862949725
leaf_weight=80.25 60 82.5 81 117 89.25 102 122.25 142 63 88.5 159.5 77
leaf_count=75 60 73 81 117 89 100 102 134 63 76 138 77
internal_value=-9.68035e-05 0.00199009 -0.00101002 -0.00631678 0.00340205 0.00386276 0.0033108 0.000458716 -0.00378422 0.00247005 0.00200565 -0.00788934
internal_weight=1264.25 947.25 303.25 317 644 554.75 472.25 222.25 123 370.25 281.75 194
internal_count=1185 868 290 317 578 489 416 209 123 316 240 194
is_linear=0
shrinkage=0.01


Tree=33
num_leaves=12
num_cat=0
split_feature=3 50 42 42 46 46 48 54 46 49 53
split_gain=137.718 54.2436 37.3709 15.0177 14.7656 10.988 17.9192 6.09484 3.5986 2.97708 1.30973
threshold=25.835000000000004 -1.5699999999999996 -0.32533907195844763 0.7775899462189082 -1.1950000000000001 -0.83500000000000074 0.45999999999999824 0.3900000000000004 0.035000000000000149 0.16999999999999907 0.83249999999999968
decision_type=2 10 2 2 10 10 10 8 10 8 8
left_child=1 9 4 5 -3 6 -4 -5 -2 -1 -9
right_child=8 2 3 7 -6 -7 -8 10 -10 -11 -12
leaf_value=0.016167681483544024 -0.0071183176704558565 -0.00039595097968131323 0.0054361272062115433 0.0030069247179147491 -0.0049167099406851513 -0.0054437476636068826 -0.0013810397805453318 0.0035213072193077529 -0.011985007072658488 0.0075410859201080647 0.008622775001992513
leaf_weight=77.25 110 115 106 106.25 126 62 134.75 61.5 155 117.5 73
leaf_count=73 110 108 90 101 126 62 108 61 155 105 69
internal_value=3.01096e-05 0.00176195 0.000585465 0.00203782 -0.00268373 0.000551077 0.00151891 0.00389543 -0.00634861 0.00646849 0.00530582
internal_weight=1244.25 979.25 784.5 543.5 241 302.75 240.75 240.75 265 194.75 134.5
internal_count=1168 903 725 491 234 260 198 231 265 178 130
is_linear=0
shrinkage=0.01


Tree=34
num_leaves=12
num_cat=0
split_feature=20 48 1 1 54 20 14 58 30 51 53
split_gain=139.478 35.6025 53.9456 28.8658 7.20892 6.41847 8.70858 2.40645 0.249856 0.399746 0.192763
threshold=24.495000000000005 0.18000000000000019 -0.82415615971448097 -0.32614396506100213 0.71000000000000052 29.025000000000002 15.216049382716053 1.0000000180025095e-35 0.70441602640275869 0.054999999999999723 0.64250000000000018
decision_type=10 10 2 2 10 10 2 2 2 10 8
left_child=1 2 -1 -3 7 6 -2 10 9 -4 -5
right_child=5 3 8 4 -6 -7 -8 -9 -10 -11 -12
leaf_value=-0.0013459851019007542 -0.0074075546298828414 -0.003132893416817857 0.0098272265118384047 0.0018528822796114483 0.0052856844536405337 -0.011298199981841841 -0.0024128724412074663 -0.00091419896324019276 0.0093432657485836932 0.0086604805588808616 0.0029111717931235926
leaf_weight=110 91 106 121.75 62.5 70 108 96 92.25 140.5 119.5 136.25
leaf_count=110 91 101 108 62 66 108 96 81 127 110 113
internal_value=0.000631499 0.0024819 0.00435643 0.000501922 0.00184981 -0.00536799 -0.00419766 0.00114648 0.00613004 0.0057847 0.00176294
internal_weight=1253.75 958.75 491.75 467 361 295 187 291 381.75 241.25 198.75
internal_count=1173 878 455 423 322 295 187 256 345 218 175
is_linear=0
shrinkage=0.01


Tree=35
num_leaves=13
num_cat=0
split_feature=22 48 48 48 20 51 46 27 25 53 59 59
split_gain=150.343 42.6381 37.3021 21.4034 16.6345 6.92695 3.44732 4.43966 3.38183 2.67858 2.19736 0.340374
threshold=23.500000000000004 1.0949999999999993 -0.84499999999999709 -0.435 18.015000000000004 0.14000000000000004 -0.37499999999999906 -4.1388888888888893 30.825000000000003 0.55749999999999933 1.0000000180025095e-35 1.0000000180025095e-35
decision_type=10 10 8 10 10 10 10 2 10 8 2 2
left_child=1 2 9 11 5 -4 7 -3 10 -1 -5 -2
right_child=3 6 4 8 -6 -7 -8 -9 -10 -11 -12 -13
leaf_value=0.0098795066442571196 -0.0015178850982216895 -0.0037328915411320878 0.0048767307308454164 -0.0075320508709374612 -0.0032130606134114525 0.0022163671763090983 0.0016927479176558646 -0.002034901962153095 -0.014360591141388927 0.015522147136526958 -0.0097332738093078106 -0.0023601833778807281
leaf_weight=93.5 69 82.75 177 118 75 145 74 78.25 74 107.5 61 65
leaf_count=93 69 69 155 118 75 130 74 66 74 99 61 65
internal_value=-3.6849e-05 0.00235555 0.0037717 -0.00517774 0.00198393 0.0029703 -0.00124894 -0.00206535 -0.00688434 0.00727003 -0.00604883 -0.00192308
internal_weight=1220 833 598 387 397 322 235 161 253 201 179 134
internal_count=1148 761 552 387 360 285 209 135 253 192 179 134
is_linear=0
shrinkage=0.01


Tree=36
num_leaves=12
num_cat=0
split_feature=17 50 45 40 49 23 23 59 59 59 59
split_gain=150.43 33.7162 21.3494 22.3639 7.61737 6.88136 3.26908 2.05383 0.576756 0.408872 0.0253879
threshold=20.220000000000002 -0.37999999999999717 5.7438271604938596 8.5000000000000018 1.0049999999999992 8.8900000000000023 27.98 1.0000000180025095e-35 1.0000000180025095e-35 1.0000000180025095e-35 1.0000000180025095e-35
decision_type=2 10 2 2 8 10 10 2 2 2 2
left_child=2 10 4 5 -1 8 7 -3 -4 -5 -2
right_child=1 6 3 9 -6 -7 -8 -9 -10 -11 -12
leaf_value=0.011744278807558699 -0.0012097140621170977 -0.0059328092859421942 0.0039368408667302904 -0.0019291732655798714 0.0031917069234796069 0.0083038687771186115 -0.011094707189949283 -0.0072628390055127249 0.0012196175841196618 -0.0010462307217621479 -0.00075133347499683231
leaf_weight=191 94 124 136.75 89.25 73 86 128 73.25 78 75.5 79
leaf_count=174 94 124 114 81 68 86 128 73 65 70 79
internal_value=0.000140364 -0.0040895 0.00303134 0.00173559 0.00529789 0.0033532 -0.00598101 -0.00510204 0.00237323 -0.00122025 -0.000516648
internal_weight=1227.75 498.25 729.5 465.5 264 300.75 325.25 197.25 214.75 164.75 173
internal_count=1156 498 658 416 242 265 325 197 179 151 173
is_linear=0
shrinkage=0.01


Tree=37
num_leaves=11
num_cat=0
split_feature=18 50 3 45 1 35 51 47 21 58
split_gain=122.538 48.3032 28.7238 24.6285 17.1761 14.2536 10.7307 8.95579 3.80315 0.270907
threshold=24.880000000000006 1.2400000000000013 14.525000000000002 4.5679012345679002 0.12545942051955486 1012.35 1.0000000180025095e-35 0.54999999999999816 28.535000000000004 1.0000000180025095e-35
decision_type=2 10 2 2 2 2 8 10 10 2
left_child=1 2 5 -2 9 -1 -7 -3 -5 -4
right_child=3 7 4 8 -6 6 -8 -9 -10 -11
leaf_value=0.012419133750162056 -0.0026713847550074378 -0.00030007120782612459 -0.0023543566280158725 -0.0053821874731764772 0.0043688817553610209 0.010548274128980122 0.0030882580609307504 -0.0061069781924957866 -0.012088740552058472 -0.0014218190701589535
leaf_weight=133.25 107 103.75 70 104 105.25 115 220.75 94 121 63.25
leaf_count=119 107 93 70 104 105 102 188 86 121 63
internal_value=0.000203884 0.00210988 0.00333004 -0.00498199 0.000500626 0.00476393 0.00364297 -0.00224931 -0.00685234 -0.00187802
internal_weight=1237.25 905.25 707.5 332 238.5 469 335.75 197.75 225 133.25
internal_count=1158 826 647 332 238 409 290 179 225 133
is_linear=0
shrinkage=0.01


Tree=38
num_leaves=12
num_cat=1
split_feature=18 48 41 48 45 48 21 51 48 29 59
split_gain=165.953 59.3791 34.3077 25.0129 14.0749 13.5694 10.44 2.07486 0.940381 0.752074 0.152885
threshold=23.885000000000002 1.7150000000000001 0 -0.83500000000000252 5.3086419753086007 0.8099999999999995 14.775 0.50499999999999912 -0.77000000000000146 -1.0000000180025095e-35 1.0000000180025095e-35
decision_type=2 10 1 10 2 8 8 10 10 2 2
left_child=1 2 3 -1 9 8 -7 -3 -4 -2 -6
right_child=4 7 5 -5 10 6 -8 -9 -10 -11 -12
leaf_value=0.0073171024911522506 -0.0072383990039474443 -0.0012310333466159483 0.020174343660158002 -0.0018140983685466198 -0.0083998854200492534 0.0017435278321695309 0.0046897218153194673 -0.0066760075607938682 0.0087740178513763378 -0.002365348757101835 -0.0094089731679396112
leaf_weight=99.25 61 70.75 119.5 159.25 151 78.75 87.25 88 177.25 71 85
leaf_count=98 61 63 110 158 151 66 75 78 152 71 85
internal_value=0.000428274 0.00278597 0.00400374 0.000908417 -0.00520043 0.00558603 0.00337919 -0.00273523 0.00698943 -0.00255255 -0.00666105
internal_weight=1248 880 721.25 258.5 368 462.75 166 158.75 296.75 132 236
internal_count=1168 800 659 256 368 403 141 141 262 132 236
cat_boundaries=0 1
cat_threshold=1936
is_linear=0
shrinkage=0.01


Tree=39
num_leaves=14
num_cat=0
split_feature=4 50 44 0 4 46 46 58 35 0 46 28 4
split_gain=154.31 41.8013 25.566 22.7664 19.4219 11.0338 26.6494 10.6113 4.28578 2.42327 1.80218 0.87064 0.380319
threshold=25.665000000000003 -0.4649999999999998 4.6296296296295996 275.50000000000006 16.210000000000004 0.025000000000000359 -1.2250000000000012 1.0000000180025095e-35 1009.9500000000002 200.50000000000003 1.0749999999999995 9.5000000000000018 7.3150000000000004
decision_type=2 10 2 2 2 10 10 2 2 2 8 2 2
left_child=1 4 9 10 8 6 -2 -6 -1 -3 -4 -10 -12
right_child=5 2 3 -5 7 -7 -8 -9 11 -11 12 -13 -14
leaf_value=0.014069954462305207 0.0011752982926598904 0.01060556644773995 0.00080142725745656178 -0.0038503424884228704 0.0074024587418999709 -0.011295553502790434 -0.007570179000937061 -0.0013344969083195857 0.0071774086135406043 0.002118476200281882 0.00015265699967916848 0.0086511243396085128 -0.00022450856833930555
leaf_weight=70.25 63 105.25 88.5 112 83 171 103 64 78 64.25 89 104.5 87.25
leaf_count=64 63 97 88 102 83 171 103 64 68 60 72 92 81
internal_value=0.000210248 0.00228041 0.000479496 -0.000972351 0.00473251 -0.00558841 -0.00370813 0.00182186 0.00640874 0.00369069 0.000629818 0.00552531 4.22654e-05
internal_weight=1283 946 546.25 376.75 399.75 337 166 147 252.75 169.5 264.75 182.5 176.25
internal_count=1208 871 500 343 371 337 166 147 224 157 241 160 153
is_linear=0
shrinkage=0.01


Tree=40
num_leaves=11
num_cat=0
split_feature=21 42 46 50 50 47 21 11 47 51
split_gain=124.67 32.1205 21.6212 20.3401 37.6051 12.5692 11.7145 4.06831 3.93603 1.896
threshold=20.145000000000003 -0.70252096857941215 2.0049999999999994 -0.21499999999999983 -1.3749999999999998 0.24500000000000102 24.660000000000004 10.833333333333352 -0.14000000000000032 0.64499999999999968
decision_type=10 2 8 10 10 10 10 2 10 10
left_child=1 -1 7 4 -2 8 -5 -3 -4 -7
right_child=3 2 5 6 -6 9 -8 -9 -10 -11
leaf_value=-0.0031237588499490434 0.004108658593373467 0.0098541661237610302 0.005865883629966308 -0.0048904852084604858 -0.0044250261645546064 0.0013444511209232241 -0.0089682797422646742 0.0082969277560546988 0.002244075351640026 -0.00075574379576042491
leaf_weight=107 89 121.25 140.5 89.25 99 102 217 67 97 119.5
leaf_count=107 89 119 117 89 99 85 217 67 81 102
internal_value=-0.000184044 0.00237276 0.0032115 -0.00408215 -0.00147992 0.00203173 -0.00566759 0.00605701 0.0036238 0.000314324
internal_weight=1248.5 754.25 647.25 494.25 188 459 306.25 188.25 237.5 221.5
internal_count=1172 678 571 494 188 385 306 186 198 187
is_linear=0
shrinkage=0.01


Tree=41
num_leaves=12
num_cat=0
split_feature=21 42 50 50 49 50 51 22 58 18 58
split_gain=132.62 35.7124 33.3046 20.2695 8.52573 8.04138 5.4842 5.08514 1.38504 1.28457 1.17592
threshold=24.565000000000001 -0.59817537509284324 -0.78000000000000103 -0.70500000000000085 -0.15000000000000122 0.54000000000000103 0.17999999999999988 16.145000000000003 1.0000000180025095e-35 18.015000000000004 1.0000000180025095e-35
decision_type=10 2 8 10 10 10 10 8 2 2 2
left_child=1 6 4 -2 -3 10 -1 -7 -5 -8 -4
right_child=3 2 5 8 -6 7 9 -9 -10 -11 -12
leaf_value=0.00085184244261112766 -0.003422631980699864 0.019939126524266958 0.0033953711048436848 -0.0093603544323696518 0.0096138025534718129 -0.0024353983649205019 -0.002078131740768104 0.0030898705763482593 -0.0089135977200275069 -0.0064020221437461021 0.0033321818601020525
leaf_weight=66.75 83 78.75 155.25 153 104.75 162.75 61.25 91 88 80 86.75
leaf_count=66 83 72 135 153 95 139 61 89 88 80 75
internal_value=0.000113407 0.00211323 0.00322213 -0.00535055 0.00684894 0.00186638 -0.00150574 0.000617768 -0.00681255 -0.00261495 0.00316612
internal_weight=1211.25 887.25 679.25 324 183.5 495.75 208 253.75 241 141.25 242
internal_count=1136 812 605 324 167 438 207 228 241 141 210
is_linear=0
shrinkage=0.01


Tree=42
num_leaves=11
num_cat=0
split_feature=5 47 45 1 49 53 49 42 58 58
split_gain=108.048 41.5535 18.0886 17.8125 11.2272 4.46435 3.47359 2.11178 1.60296 0.327489
threshold=24.495000000000005 -0.33499999999999902 4.7654320987654328 -0.28519255817492867 0.32999999999999968 0.22500000000000056 -0.3749999999999995 -0.66484924122790601 1.0000000180025095e-35 1.0000000180025095e-35
decision_type=2 10 2 2 10 10 8 2 2 2
left_child=1 6 -2 7 -5 -6 -1 9 -4 -3
right_child=2 3 8 4 5 -7 -8 -9 -10 -11
leaf_value=0.013414392226676949 -0.0022868619238913973 -0.0045153241239974072 -0.0069068954421933684 0.006928243574641565 -0.00039963497465617603 0.0041125846811214751 0.005645252978284966 -0.0015190575001738816 -0.0086110825078716795 -0.0012107195707002361
leaf_weight=91.75 127 83 147 183 186.5 63.75 147.5 74 91 66
leaf_count=85 127 83 147 164 162 63 130 65 91 66
internal_value=0.000344773 0.00221367 -0.00423266 0.000908814 0.00208885 0.000705906 0.00577043 -0.00138269 -0.00585284 -0.00206391
internal_weight=1260.5 895.5 365 656.25 433.25 250.25 239.25 223 238 149
internal_count=1183 818 365 603 389 225 215 214 238 149
is_linear=0
shrinkage=0.01


Tree=43
num_leaves=12
num_cat=0
split_feature=20 48 50 1 52 50 35 47 58 58 58
split_gain=113.313 43.7217 28.1122 16.6874 20.6932 13.4154 14.8323 5.04435 4.6893 3.45372 1.31374
threshold=21.175000000000004 0.029999999999998476 -0.44500000000000023 -0.17647087149565663 0.53749999999999976 -1.1499999999999999 1015.2500000000001 0.10000000000000006 1.0000000180025095e-35 1.0000000180025095e-35 1.0000000180025095e-35
decision_type=10 10 10 2 2 8 2 10 2 2 2
left_child=1 5 10 -3 8 7 -7 -1 -5 -4 -2
right_child=2 3 9 4 -6 6 -8 -9 -10 -11 -12
leaf_value=0.013550025443547204 -0.0011182722132310474 -0.0027287509094683581 -0.0080238987011288371 0.00093881007372436254 0.0042519584368819951 0.0085178630695527374 0.00051625329122187121 0.0094934095519211888 -0.0067805160524459862 -0.0087045620452999781 4.74636028150581e-05
leaf_weight=87 82 111.5 188 163.25 101.5 78 122.25 69.25 81.5 102 61
leaf_count=82 82 103 188 142 94 71 111 66 71 102 61
internal_value=-0.000134166 0.00206328 -0.00426071 1.63416e-05 0.00110088 0.00468269 0.00294118 0.0068752 -0.000477739 -0.00604396 -0.000624133
internal_weight=1247.25 814.25 433 457.75 346.25 356.5 200.25 156.25 244.75 290 143
internal_count=1173 740 433 410 307 330 182 148 213 290 143
is_linear=0
shrinkage=0.01


Tree=44
num_leaves=11
num_cat=0
split_feature=24 48 46 45 48 40 40 35 15 11
split_gain=115.548 58.1519 47.1528 28.6326 16.7833 8.76611 7.20017 5.99604 4.31435 2.02175
threshold=15.680000000000001 0.31000000000000033 -0.76500000000000046 6.1728395061728403 -1.0099999999999987 8.5000000000000018 4.5000000000000009 1012.9500000000002 1019.5500000000001 23.672839506172853
decision_type=10 10 10 2 8 2 2 2 2 2
left_child=1 4 3 -2 -1 8 -6 -4 -3 -9
right_child=2 5 7 -5 6 -7 -8 9 -10 -11
leaf_value=0.020645544276212117 0.0064948703199339602 -0.0019604085652895238 -0.0054912847743046776 -0.0029487035376695447 0.0080373157717022539 -0.0026806072399308736 0.00056013698012478171 -0.0065804091748937225 0.002915788108612961 -0.013358565054218801
leaf_weight=92.25 139.25 96.5 102 74.25 157.25 89.25 77.5 257 102.5 60
leaf_count=84 139 84 102 74 133 77 69 257 90 60
internal_value=-0.000126106 0.00295644 -0.00312451 0.000698649 0.00583486 -0.000319572 0.00437593 -0.00506901 0.000849151 -0.0057511
internal_weight=1247.75 615.25 632.5 213.5 327 288.25 234.75 419 199 317
internal_count=1169 537 632 213 286 251 202 419 174 317
is_linear=0
shrinkage=0.01


Tree=45
num_leaves=11
num_cat=0
split_feature=17 48 50 0 15 40 58 15 30 58
split_gain=121.555 72.2585 36.7219 22.8355 20.9704 9.87745 3.71139 2.66795 1.81596 0.278303
threshold=18.680000000000003 -1.7299999999999991 -1.0949999999999986 140.50000000000003 1012.5500000000001 4.5000000000000009 1.0000000180025095e-35 1023.6500000000002 -0.25783416049629942 1.0000000180025095e-35
decision_type=2 10 8 2 2 2 2 2 2 2
left_child=2 -2 -1 -3 -4 7 -7 -6 -5 -10
right_child=1 3 4 8 5 6 -8 -9 9 -11
leaf_value=0.011317120240201621 0.0072302392828138967 -0.0001030527780456416 0.0078235507750096019 -0.009000744252693536 0.0014786744477902792 -0.00092360108133304167 -0.0019035323678221389 0.0033252017664962565 -0.0074764808654295576 -0.0067909006938719442
leaf_weight=146.25 75 69.25 130.5 107 174.25 94.5 68.25 93 175 93
leaf_count=135 75 69 117 107 150 86 62 80 175 93
internal_value=3.25945e-05 -0.00363628 0.00272971 -0.00516893 0.00155777 0.000487013 -0.00144861 0.00166698 -0.00614035 -0.00661218
internal_weight=1226 519.25 706.75 444.25 560.5 430 162.75 267.25 375 268
internal_count=1149 519 630 444 495 378 148 230 375 268
is_linear=0
shrinkage=0.01


Tree=46
num_leaves=11
num_cat=0
split_feature=18 3 46 50 42 53 50 23 49 51
split_gain=121.866 50.6423 31.8203 25.9342 14.3423 23.9609 10.3815 5.33135 2.50335 0.121645
threshold=12.465000000000002 25.135000000000002 -0.83500000000000074 0.26500000000000062 -0.84293373149377071 -0.020000000000000458 -1.0599999999999996 32.315000000000005 0.49500000000000105 0.50499999999999912
decision_type=2 2 10 10 2 10 8 8 10 10
left_child=3 4 -3 6 9 7 -1 -6 -5 -2
right_child=1 2 -4 8 5 -7 -8 -9 -10 -11
leaf_value=0.013130740831664978 -0.0025896202705441868 -0.00079662760291006112 -0.01021824969461092 0.0015081337024547971 -0.0016280972757713975 0.0048589311667680494 0.0048286216092509899 -0.0029583190513912784 -0.0019011004051993309 -0.0050238576902367727
leaf_weight=131.5 65 79 221 92.5 68 177 200.75 66.25 90.75 60
leaf_count=116 65 79 221 78 68 177 171 60 76 60
internal_value=0.000185562 -0.00242389 -0.00557769 0.00390943 -0.000245742 0.000904145 0.00557055 -0.00227021 0.000880998 -0.00309033
internal_weight=1251.75 736.25 300 515.5 436.25 311.25 332.25 134.25 183.25 125
internal_count=1171 730 300 441 430 305 287 128 154 125
is_linear=0
shrinkage=0.01


Tree=47
num_leaves=10
num_cat=0
split_feature=19 3 47 0 18 53 42 47 47
split_gain=135.154 29.9609 18.6507 12.0213 9.68408 8.52093 8.46949 0.688898 0.246557
threshold=25.190000000000001 15.000000000000002 0.080000000000000973 234.50000000000003 28.470000000000002 0.19750000000000026 0.50495637864894027 -0.31999999999999934 0.25499999999999906
decision_type=2 2 8 2 2 10 2 10 10
left_child=1 2 7 5 -2 -3 -4 -1 -8
right_child=4 3 6 -5 -6 -7 8 -9 -10
leaf_value=0.011138080255455469 -0.0025682646813137712 -0.0012407090986277377 0.00091928067759652042 -0.0023657361845754953 -0.01017608114187288 0.0046461580325456095 0.0049891883881852481 0.0070082268457096284 0.0045266724611250208
leaf_weight=93.75 137 93.75 206.75 125 214 100 73 88.25 104
leaf_count=83 137 93 175 124 214 100 64 78 94
internal_value=0.000157678 0.00224117 0.00362025 -0.00021097 -0.00508234 0.0013465 0.00235745 0.00625 0.00395623
internal_weight=1235.5 884.5 565.75 318.75 351 193.75 383.75 182 177
internal_count=1162 811 494 317 351 193 333 161 158
is_linear=0
shrinkage=0.01


Tree=48
num_leaves=13
num_cat=0
split_feature=5 50 46 42 53 49 20 54 40 44 58 58
split_gain=116.136 40.2051 18.1082 18.0382 7.20444 6.9835 7.55037 5.81509 2.81553 0.635785 0.570694 0.153044
threshold=25.800000000000001 -0.26500000000000051 -0.8049999999999996 -0.28435655403991289 -0.0049999999999994485 0.98000000000000231 16.265000000000004 0.68999999999999873 5.5000000000000009 7.2222222222222117 1.0000000180025095e-35 1.0000000180025095e-35
decision_type=2 10 10 2 10 8 10 10 2 2 2 2
left_child=1 2 5 -3 10 6 8 9 -1 11 -5 -2
right_child=7 3 -4 4 -6 -7 -8 -9 -10 -11 -12 -13
leaf_value=0.015575739783749872 -0.0075617715212748897 -0.0043361114690514862 -0.00040660214527996383 -0.00018018377870764878 0.0037282170647736442 0.0031214005650472688 0.0060002515637134698 -0.0059932693162486148 0.0041636577179217501 -0.0087515240758094855 0.00051095100899356625 -0.0066484774113021719
leaf_weight=95.75 88 119.5 79.25 167 112.25 85 75 90 86.75 78 88.25 61
leaf_count=84 88 115 78 143 112 74 75 90 76 78 77 61
internal_value=0.000140593 0.0019589 0.00421445 0 0.00109845 0.00520803 0.00603015 -0.00505971 0.00713119 -0.00591586 0.000165724 -0.00539281
internal_weight=1225.75 908.75 421.75 487 367.5 342.5 257.5 317 182.5 227 255.25 149
internal_count=1151 834 387 447 332 309 235 317 160 227 220 149
is_linear=0
shrinkage=0.01


Tree=49
num_leaves=13
num_cat=0
split_feature=18 40 22 46 49 23 49 45 53 58 49 49
split_gain=109.391 39.4128 23.7175 19.4492 14.5254 10.8826 9.72312 7.60499 6.60241 1.8382 1.29135 1.01365
threshold=21.120000000000005 9.5000000000000018 26.615000000000006 1.2000000000000004 0.24000000000000113 25.735000000000003 0.17999999999999991 7.2839506172839164 0.13750000000000021 1.0000000180025095e-35 0.66499999999999926 0.099999999999999839
decision_type=2 2 10 8 10 8 10 2 10 2 10 10
left_child=1 3 5 8 -3 10 -4 -5 -1 -8 -2 -9
right_child=2 4 6 7 -6 -7 9 11 -10 -11 -12 -13
leaf_value=0.0063682953611681808 -0.0021470977532899228 0.0020862392081106495 -0.002246149915349575 0.0063071907409821713 -0.001968712244827692 0.0045182200626476742 -0.0093538073146191419 0.0015438715361284347 0.012584604064319419 -0.010149512166964058 -0.0063751706222164349 0.00060283396411326404
leaf_weight=70.25 103 119.5 65 150 138.25 61.25 115 81.25 129.5 75 61 110.75
leaf_count=70 103 107 65 127 126 61 115 69 127 75 61 94
internal_value=0.000189313 0.0024541 -0.00357773 0.00398287 -0.000762696 -0.00120336 -0.00565964 0.0025204 0.00645683 -0.00679916 -0.00254237 0.00119048
internal_weight=1279.75 799.5 480.25 541.75 257.75 225.25 255 342 199.75 190 164 192
internal_count=1200 720 480 487 233 225 255 290 197 190 164 163
is_linear=0
shrinkage=0.01


Tree=50
num_leaves=10
num_cat=0
split_feature=22 48 5 49 0 44 54 23 46
split_gain=119.589 54.4582 38.9266 11.5013 8.75045 5.87602 5.53841 1.40431 0.98395
threshold=16.305000000000003 0.76500000000000068 26.085000000000004 -0.24500000000000097 130.50000000000003 8.8888888888888875 0.67000000000000026 16.120000000000005 -0.074999999999999276
decision_type=10 10 2 10 2 2 10 8 8
left_child=1 4 3 -2 7 -3 -4 -1 -5
right_child=2 5 6 8 -6 -7 -8 -9 -10
leaf_value=0.012092590449659624 0.0043262050499404629 0.0020199920497677533 -0.0079218601734624521 -0.00081717100054096463 0.0041511003518359194 -0.0015713582585142555 -0.0062062570632884107 0.009398057588850187 -0.0049343092274974484
leaf_weight=94 74.5 129 212 115 144.25 114 96 157.25 124.75
leaf_count=92 74 111 212 115 131 101 96 130 124
internal_value=7.32993e-05 0.00311083 -0.00304355 -0.000562688 0.0053945 -0.000614251 -0.00556274 0.00652604 -0.00162897
internal_weight=1260.75 638.5 622.25 314.25 395.5 243 308 251.25 239.75
internal_count=1186 565 621 313 353 212 308 222 239
is_linear=0
shrinkage=0.01


Tree=51
num_leaves=11
num_cat=0
split_feature=18 48 49 50 15 50 54 53 29 53
split_gain=116.748 38.4953 25.4129 26.9814 12.5811 7.69762 5.03307 3.23587 2.04227 0.595722
threshold=18.660000000000004 1.5350000000000021 0.14999999999999949 -0.69000000000000028 1021.7500000000001 -0.31999999999999756 -0.01499999999999979 0.46999999999999947 0.086824088833465068 -0.18250000000000008
decision_type=2 10 8 10 2 10 8 10 2 10
left_child=1 4 8 -4 6 -6 -1 -5 -2 -8
right_child=2 -3 3 7 5 -7 9 -9 -10 -11
leaf_value=0.01108110547924215 -0.0015084724262081882 -0.0029186026338226547 -0.0013710767020134573 -0.0089265776486787459 0.0026989647263502294 -0.000232190679814487 0.0029160091722894399 -0.0088859913219921892 0.003649620229875692 0.007633535663053471
leaf_weight=126.5 85 156.5 96 213.25 85.25 86.25 120.75 94 64 105.25
leaf_count=111 85 136 96 213 74 77 102 94 64 104
internal_value=8.30666e-05 0.00285316 -0.00332912 -0.00462974 0.0041508 0.00191083 0.00523042 -0.00607068 0.000199734 0.00429137
internal_weight=1232.75 680.5 552.25 403.25 524 171.5 352.5 307.25 149 226
internal_count=1156 604 552 403 468 151 317 307 149 206
is_linear=0
shrinkage=0.01


Tree=52
num_leaves=14
num_cat=0
split_feature=3 50 42 18 0 50 29 58 42 47 58 52 50
split_gain=112.202 47.9256 43.6799 19.5245 4.68076 10.6103 2.96028 2.8121 1.52623 1.51876 0.852301 0.461762 0.161945
threshold=22.085000000000004 1.2000000000000004 -0.65189295912203338 28.875000000000004 199.50000000000003 -1.5449999999999997 -1.0000000180025095e-35 1.0000000180025095e-35 -0.40542197401079733 0.91499999999999926 1.0000000180025095e-35 0.56750000000000045 -0.78000000000000103
decision_type=2 10 2 2 2 8 2 2 2 10 2 2 10
left_child=1 2 10 7 5 -4 12 8 -2 -3 -1 -5 -7
right_child=3 9 4 11 -6 6 -8 -9 -10 -11 -12 -13 -14
leaf_value=-0.0022615727238045236 -0.0039663125362346171 -0.0016846804299120788 0.018516910136342782 -0.010997733029968315 0.0043632352960239762 0.0075501933716675927 0.0044424421025143117 -0.0025151342246961905 -0.001501089323874355 -0.0084033055789269635 -0.0015554771949233821 -0.0090450780126734437 0.0057922046439860464
leaf_weight=67.25 72 115.5 71.5 99 109 71.25 140.5 94 62 70.25 61 67 127.5
leaf_count=67 72 103 67 99 92 60 128 94 62 63 61 67 114
internal_value=0.000290899 0.00236841 0.00365065 -0.00409919 0.00493809 0.00543148 0.00466295 -0.0021815 -0.00310651 -0.00209949 -0.00156431 -0.00669856 0.00546387
internal_weight=1227.75 833.75 648 394 519.75 410.75 339.25 228 134 185.75 128.25 166 198.75
internal_count=1149 755 589 394 461 369 302 228 134 166 128 166 174
is_linear=0
shrinkage=0.01


Tree=53
num_leaves=13
num_cat=0
split_feature=20 50 1 44 0 19 48 46 58 19 20 58
split_gain=102.655 31.9947 22.4949 22.0837 14.2684 7.83638 7.65893 6.46009 4.95272 4.7994 2.605 0.134459
threshold=20.585000000000004 -0.01499999999999979 -0.005375728450543499 2.9629629629629162 212.50000000000003 26.925000000000004 -0.67000000000000071 -1.5100000000000005 1.0000000180025095e-35 31.835000000000004 5.3850000000000007 1.0000000180025095e-35
decision_type=10 10 2 2 2 2 8 10 2 2 10 2
left_child=1 4 -3 -2 6 11 -1 10 -6 -7 -4 -5
right_child=3 2 7 5 8 9 -8 -9 -10 -11 -12 -13
leaf_value=0.013732409232195628 0.0014105192494427163 -0.004569525896606798 0.0027673151422312808 -0.002359363095565334 0.0041898669881871723 -0.0060406804347735311 0.0048441367712352083 0.0030107615034105366 -0.00047006622158854124 -0.010765027679943287 -0.0012875726636486671 -0.0031490711061424106
leaf_weight=103.5 83 108 74.25 82 83 145 127.75 110.75 79.25 78 73 64
leaf_count=96 83 99 60 82 77 145 109 110 74 78 62 64
internal_value=-0.000292735 0.00195215 -0.000177015 -0.00406002 0.00392703 -0.00510535 0.00551732 0.00142747 0.00163659 -0.00628903 5.05221e-05 -0.00326087
internal_weight=1211.5 759.5 366 452 393.5 369 231.25 258 162.25 223 147.25 146
internal_count=1139 687 331 452 356 369 205 232 151 223 122 146
is_linear=0
shrinkage=0.01


Tree=54
num_leaves=10
num_cat=0
split_feature=4 48 4 14 33 42 42 51 54
split_gain=96.2105 54.4848 36.6314 17.107 20.3598 7.52991 4.64012 4.41932 1.86069
threshold=14.535000000000002 0.55999999999999928 27.535000000000004 11.327160493827153 11.944444444444452 -0.23448921811828094 0.76665171983724034 0.55999999999999706 0.60250000000000081
decision_type=2 10 2 2 2 2 2 10 10
left_child=1 5 3 4 -2 -1 -7 -3 -4
right_child=2 7 8 -5 -6 6 -8 -9 -10
leaf_value=0.003989852781579397 0.00017013273498337657 0.00047263476336329281 -0.0090295649660073717 0.0017619637860507237 -0.0048197809585892384 0.0072845228271972628 0.014244755861345477 -0.0027588008096445706 -0.0081568204075700267
leaf_weight=81 126.75 110.25 158 199.25 120.75 146.5 110.75 105.5 79
leaf_count=74 125 94 158 199 120 118 106 90 79
internal_value=0.000175552 0.00326909 -0.00233229 -0.000641813 -0.00239244 0.00576668 0.00660669 -0.000656833 -0.00549958
internal_weight=1237.75 554 683.75 446.75 247.5 338.25 257.25 215.75 237
internal_count=1163 482 681 444 245 298 224 184 237
is_linear=0
shrinkage=0.01


Tree=55
num_leaves=11
num_cat=0
split_feature=48 17 39 1 1 47 1 53 58 58
split_gain=115.063 61.3728 44.2565 15.2786 9.09971 7.45526 7.16878 6.25215 4.24501 0.0760761
threshold=-0.39499999999999952 17.520000000000003 19.722000000000005 0.59868201182722736 0.85226249403558707 0.089999999999999983 0.58481550752069722 -0.060000000000000268 1.0000000180025095e-35 1.0000000180025095e-35
decision_type=10 2 10 2 2 10 2 10 2 2
left_child=2 4 6 7 5 -2 -1 -3 -4 -7
right_child=1 3 8 -5 -6 9 -8 -9 -10 -11
leaf_value=0.005962686378452443 0.0024780915019688601 -0.0059082046372122797 0.0031966159048301634 -0.0026004380774404794 0.0038595266986350745 -0.0017886755063024147 0.013597463453234711 -0.0085006228588690134 -0.0011374500699502671 -0.0017447700819851189
leaf_weight=147.5 99 89 116.25 82.5 92.5 126.75 97.25 183 108 84.25
leaf_count=128 83 89 116 82 91 108 90 183 108 71
internal_value=0.00020779 -0.00220259 0.004094 -0.00522913 0.000470647 -0.00035347 0.00702379 -0.00636896 0.000876026 -0.00141376
internal_weight=1226 757 469 354.5 402.5 310 244.75 272 224.25 211
internal_count=1149 707 442 354 353 262 218 272 224 179
is_linear=0
shrinkage=0.01


Tree=56
num_leaves=11
num_cat=1
split_feature=17 46 48 40 45 41 45 49 58 29
split_gain=91.6568 74.3936 40.6497 25.4487 14.3446 9.44331 8.71161 2.37159 0.537205 0.343232
threshold=19.390000000000004 -1.2800000000000009 -1.2849999999999999 4.5000000000000009 6.9135802469135905 0 6.8703703703703942 0.77000000000000057 1.0000000180025095e-35 -0.08682408883346511
decision_type=2 8 8 2 2 1 2 8 2 2
left_child=2 -2 -1 6 -5 9 -4 -8 -7 -3
right_child=1 5 3 4 -6 8 7 -9 -10 -11
leaf_value=0.01340538564373879 0.0049977151751622309 -0.0034064450786286259 0.0063255398016894403 0.0025115105089162345 -0.0019463646388055561 -0.00809154996907171 0.0037500685863572835 0.00036841957228564778 -0.0082975048903832591 -0.0047889192981122432
leaf_weight=96.5 99 72 148.5 116.25 133.25 147 118.75 114.75 111.25 88
leaf_count=91 99 72 129 106 122 147 102 100 111 88
internal_value=-5.01424e-05 -0.00326454 0.00223533 0.00130394 -0.00117671 -0.00510788 0.00292276 0.0017043 -0.00631843 -0.00257009
internal_weight=1245.25 517.25 728 631.5 249.5 418.25 382 233.5 258.25 160
internal_count=1167 517 650 559 228 418 331 202 258 160
cat_boundaries=0 1
cat_threshold=152
is_linear=0
shrinkage=0.01


Tree=57
num_leaves=14
num_cat=0
split_feature=18 50 50 48 40 24 40 25 51 22 45 53 54
split_gain=122.375 48.1959 32.3768 19.2363 14.1536 8.41075 7.43766 5.41955 3.60454 2.59423 2.00436 0.709145 0.337359
threshold=22.815000000000001 -0.83499999999999985 -0.85500000000000032 1.5249999999999997 3.5000000000000004 30.220000000000002 4.5000000000000009 1.0600000000000003 -0.0099999999999988969 19.130000000000006 8.7006172839506082 1.2299999999999998 0.33750000000000041
decision_type=2 8 10 10 2 10 2 10 10 10 2 8 10
left_child=1 6 -2 4 7 12 -1 -3 -8 11 -5 -6 -4
right_child=2 3 5 10 9 -7 8 -9 -10 -11 -12 -13 -14
leaf_value=0.016740753261460153 0.0023130056712682683 0.0030337646893362331 -0.0068455158665558166 -0.0014968492641236071 0.0030782501388221472 -0.011256557175751232 0.0089767380625454894 0.009091444097362707 0.0071549705990195632 -0.00091126333471407974 -0.0036492739817745859 0.00058897202649643991 -0.004630672122501853
leaf_weight=99.5 83 93.5 106 104.5 93.5 104 64.5 84.25 74.5 60 71 93.75 104
leaf_count=89 83 75 106 93 93 104 61 74 70 60 63 82 104
internal_value=0.000573876 0.00273744 -0.00399297 0.00122154 0.00236978 -0.00545685 0.00652899 0.00451243 0.0049572 0.000815053 -0.00155631 0.00139294 -0.00426136
internal_weight=1236 839 397 600.5 425 314 238.5 177.75 139 247.25 175.5 187.25 210
internal_count=1157 760 397 540 384 314 220 149 131 235 156 175 210
is_linear=0
shrinkage=0.01


Tree=58
num_leaves=11
num_cat=0
split_feature=4 50 48 48 45 3 48 21 58 49
split_gain=95.9322 28.9428 26.386 24.917 21.0801 18.7011 9.67758 5.16979 2.32265 0.160779
threshold=15.980000000000002 1.2400000000000013 0.029999999999998476 -0.77000000000000146 7.9629629629629317 18.825000000000003 0.87000000000000288 29.305000000000003 1.0000000180025095e-35 0.53000000000000014
decision_type=2 10 10 8 2 2 10 10 2 8
left_child=1 3 4 -1 8 -4 9 -7 -2 -5
right_child=2 -3 5 6 -6 7 -8 -9 -10 -11
leaf_value=0.014418034753963992 0.002784662799368919 -0.0026668233516682449 -5.8721864818024331e-05 0.0042428969977718767 -0.0039330446812046779 -0.0058745500092523308 -0.00078193979005749452 -0.010184150561675378 -0.00021235592307281546 0.0036663370322445998
leaf_weight=132.5 132 128 62 150.75 68 186 81.25 88 93 120.75
leaf_count=121 132 110 60 133 68 186 70 88 93 103
internal_value=0.000170895 0.00298234 -0.00257061 0.004096 -0.000373895 -0.00447805 0.00269106 -0.00559593 0.00110522 0.00359369
internal_weight=1242.25 613.25 629 485.25 293 336 352.75 274 225 271.5
internal_count=1164 537 627 427 293 334 306 274 225 236
is_linear=0
shrinkage=0.01


Tree=59
num_leaves=12
num_cat=0
split_feature=3 50 1 1 50 49 51 23 46 25 49
split_gain=104.172 27.6459 32.9109 19.5641 11.2394 7.80589 4.28742 3.11482 2.99428 1.92608 0.127061
threshold=24.340000000000003 1.3149999999999997 -0.89406062840022227 -0.28519255817492867 -0.31999999999999756 0.3400000000000008 0.32499999999999934 21.535000000000004 -2.975000000000001 28.190000000000001 0.33500000000000002
decision_type=2 10 2 2 10 10 8 8 10 10 10
left_child=1 2 -1 5 -2 -4 8 -3 -5 -6 -8
right_child=4 7 3 6 9 -7 10 -9 -10 -11 -12
leaf_value=-0.0017460378497849028 -0.0036176274555206117 -0.00094013314458570312 0.0025209194367739221 0.010221157916532922 -0.005941197896983318 -0.0014427329765363179 0.0037984337527675362 -0.0026213100975633601 0.0054094561160832576 -0.0096708951598382335 0.0049701242359588109
leaf_weight=108 117 62 81.5 113.75 102 66.5 109.5 118.75 102.5 123 134.75
leaf_count=108 117 62 75 94 102 62 95 100 102 123 121
internal_value=0.000199524 0.00198954 0.00287028 0.00377235 -0.00448718 0.000603217 0.00478666 -0.00149766 0.00582893 -0.00579134 0.00383989
internal_weight=1239.25 897.25 716.5 608.5 342 148 460.5 180.75 216.25 225 244.25
internal_count=1161 819 657 549 342 137 412 162 196 225 216
is_linear=0
shrinkage=0.01


Tree=60
num_leaves=13
num_cat=0
split_feature=48 17 1 4 46 3 46 17 14 50 54 58
split_gain=112.443 110.275 22.3311 12.3628 9.20252 6.25408 14.6353 5.91772 2.68041 18.6292 0.290174 0.188348
threshold=-1.23 22.300000000000001 0.48314048284850658 13.800000000000002 1.8949999999999998 10.765000000000002 1.1050000000000006 24.705000000000002 -0.33024691358024644 0.11999999999999962 0.085000000000000006 1.0000000180025095e-35
decision_type=8 2 2 2 8 2 8 2 2 8 10 2
left_child=3 2 4 -1 -2 10 -7 -3 9 -6 -4 -5
right_child=1 7 5 11 8 6 -8 -9 -10 -11 -12 -13
leaf_value=0.020381704639950184 -0.0053045620214069297 -0.0025933459097242087 0.0041382767463923687 0.010380070089241047 0.0023844583129239805 0.0043394169050749746 -0.0019534702792734253 -0.0078289677003730747 0.0016090696241854636 -0.0037691743773476689 0.0051446028534457141 0.0068263018386239029
leaf_weight=71.5 75 63 95.25 71 76 75 66.75 286 86.5 97 89 64
leaf_count=65 75 63 82 71 64 75 64 286 76 80 79 64
internal_value=-0.000225928 -0.00160285 0.000800967 0.00647569 -0.00101281 0.00265892 0.00106681 -0.00613935 -0.000115075 -0.000832377 0.00386897 0.00462555
internal_weight=1216 1009.5 660.5 206.5 334.5 326 141.75 349 259.5 173 184.25 135
internal_count=1144 944 595 200 295 300 139 349 220 144 161 135
is_linear=0
shrinkage=0.01


Tree=61
num_leaves=13
num_cat=0
split_feature=4 48 48 1 49 53 53 18 49 5 45 49
split_gain=106.902 34.8534 24.2263 22.7691 14.3212 8.07752 7.44307 6.90584 5.77281 2.97904 2.00599 0.129177
threshold=24.335000000000004 0.73499999999999954 -0.47000000000000147 0.15951094710994368 -0.054999999999999709 0.075000000000001968 0.10749999999999994 16.245000000000001 -0.26500000000000051 31.295000000000005 5.370370370370301 0.67000000000000048
decision_type=2 8 10 2 10 10 10 2 10 2 2 10
left_child=1 3 -2 4 -1 8 -6 10 -3 -4 -5 -10
right_child=2 5 9 7 6 -7 -8 -9 11 -11 -12 -13
leaf_value=0.0051302868226539254 -0.00080449031362522273 0.00029949992480840184 -0.0055818379809471352 0.015597262198899418 0.002299773885012285 0.0027373667799551905 -0.0034784316514658111 0.0042895688348440772 -0.0034857931594015098 -0.011361839514825642 0.0087136345060565591 -0.0042541132623484098
leaf_weight=79.5 117 80.75 170 86 99 72.5 67 78 87 83 114 103
leaf_count=73 117 68 170 78 89 72 67 78 75 83 102 90
internal_value=0.000127226 0.00204793 -0.00436422 0.00366876 0.00143899 -0.000428219 -0.000239234 0.00562321 -0.00122265 -0.00609756 0.00661034 -0.0021705
internal_weight=1236.75 866.75 370 523.5 245.5 343.25 166 278 270.75 253 200 190
internal_count=1162 792 370 487 229 305 156 258 233 253 180 165
is_linear=0
shrinkage=0.01


Tree=62
num_leaves=13
num_cat=0
split_feature=17 50 40 48 48 35 58 53 58 23 51 20
split_gain=110.905 26.7426 24.6307 23.7913 64.2278 9.64716 3.8817 2.44261 2.06159 0.819874 0.79697 0.469111
threshold=18.680000000000003 1.4600000000000002 5.5000000000000009 0.48499999999999949 -1.6300000000000006 1017.5500000000001 1.0000000180025095e-35 0.63500000000000079 1.0000000180025095e-35 19.160000000000004 0.6349999999999999 10.960000000000003
decision_type=2 10 2 10 10 2 2 10 2 8 10 8
left_child=1 2 5 4 -2 9 -4 8 -6 -1 -5 -7
right_child=3 -3 6 10 7 11 -8 -9 -10 -11 -12 -13
leaf_value=0.016010355327186605 0.010238629484155529 -0.0020933221924207645 0.0024482291458543973 -0.0056825650701416387 -0.0044897819194965006 0.004248386620649418 -0.00076665730095426283 -0.0059777464867345675 -0.0027854496186700997 0.0071896946889735648 -0.011226575652053187 0.0051550160392345515
leaf_weight=80 84 119 115.5 84 99 93.5 96.5 69 75 111.75 132 70
leaf_count=79 84 104 105 84 99 79 88 69 75 92 132 64
internal_value=4.67309e-05 0.00271656 0.00361949 -0.00332598 -0.00161487 0.00522514 0.000914634 -0.00421785 -0.00353881 0.00675045 -0.00589319 0.00340012
internal_weight=1229.25 686.25 567.25 543 327 355.25 212 243 174 191.75 216 163.5
internal_count=1154 611 507 543 327 314 193 243 174 171 216 143
is_linear=0
shrinkage=0.01


Tree=63
num_leaves=13
num_cat=0
split_feature=4 50 42 48 53 34 3 23 47 23 51 54
split_gain=88.8437 32.7606 27.1555 24.7781 12.8795 12.4241 10.6956 7.87408 4.32287 2.83246 4.36436 1.28007
threshold=21.315000000000001 -1.2949999999999997 0.44437406304545285 -0.72999999999999765 0.32750000000000062 16.450617283950653 25.255000000000006 31.445000000000004 0.25499999999999906 8.5600000000000023 -0.035000000000000135 0.029999999999999586
decision_type=2 8 2 10 10 2 2 8 8 10 10 10
left_child=1 11 7 5 9 -2 -5 -3 -9 10 -4 -1
right_child=3 2 4 6 -6 -7 -8 8 -10 -11 -12 -13
leaf_value=0.011552941941842185 -0.0025637848376901164 -0.0055666664063953276 0.003981214578231496 -0.0031739095725206597 0.0090057342350808502 0.0059295835946404996 -0.007962033853492945 0.0015826591633626764 -0.00077727169341665131 -0.00041897658749599553 0.0024709400373602352 0.0084841137915809169
leaf_weight=67 62 78 74.25 108.25 77.75 64 239 88.75 136.5 65 95.25 69.25
leaf_count=61 62 78 63 108 76 64 239 75 115 65 80 66
internal_value=-9.37857e-05 0.00204197 0.001054 -0.00348298 0.00311852 0.000314465 -0.00485722 -0.00107571 -0.00012144 0.00193042 0.00260691 0.00645689
internal_weight=1225 751.75 615.5 473.25 312.25 126 347.25 303.25 225.25 234.5 169.5 136.25
internal_count=1152 679 552 473 284 126 347 268 190 208 143 127
is_linear=0
shrinkage=0.01


Tree=64
num_leaves=13
num_cat=0
split_feature=4 50 48 42 4 49 21 54 50 50 48 48
split_gain=95.9789 38.9274 31.522 37.6991 28.2701 19.6078 10.3476 9.24712 4.71512 14.5346 3.75363 0.2928
threshold=19.620000000000001 -1.9449999999999996 1.4650000000000001 -0.12447811117596669 30.815000000000001 -0.12999999999999942 6.080000000000001 0.49500000000000061 0.64000000000000046 -0.69000000000000028 -0.11000000000000008 -0.33499999999999991
decision_type=2 8 10 2 2 10 10 8 10 10 10 10
left_child=1 -1 3 10 5 -2 11 -4 9 -7 -3 -5
right_child=4 2 7 6 -6 8 -8 -9 -10 -11 -12 -13
leaf_value=0.017368392021981725 0.003689280775023267 0.00010965799834828385 -0.0049576216451000235 0.004196520189551114 -0.011056335024621925 -8.6275791293878305e-05 0.0096117523637747962 0.000292220805817458 -0.0065071230605085245 -0.0040516206378206328 -0.0013634865706548161 0.0037910044049681135
leaf_weight=71.5 83 70.25 103 92.25 115 96 132.5 66.75 128.25 101 81 81
leaf_count=67 83 66 90 75 115 96 127 60 128 101 74 67
internal_value=-6.95183e-05 0.00235542 0.00154869 0.00291357 -0.00330346 -0.00205764 0.00492751 -0.0021205 -0.00316281 -0.00216953 -0.00116432 0.00328174
internal_weight=1221.5 698.25 626.75 457 523.25 408.25 305.75 169.75 325.25 197 151.25 173.25
internal_count=1149 626 559 409 523 408 269 150 325 197 140 142
is_linear=0
shrinkage=0.01


Tree=65
num_leaves=10
num_cat=0
split_feature=25 50 50 1 1 52 50 52 29
split_gain=69.5278 47.8922 42.6236 30.7009 8.90566 8.86588 8.27831 5.05989 4.46584
threshold=19.505000000000003 -0.8149999999999985 1.7600000000000011 0.45273815774107123 0.37446826358596375 0.10999999999999995 0.37499999999999828 -0.14750000000000082 0.57139380484326963
decision_type=10 10 10 2 2 2 10 2 2
left_child=2 -2 3 5 -3 7 8 -1 -5
right_child=1 4 -4 6 -6 -7 -8 -9 -10
leaf_value=0.0081027475194201757 0.0030435570859498741 -0.0065276456837648593 -0.0046690220537989506 0.011548009896271822 -0.0021553747034154676 -0.00096993029074665161 0.0041847646616845072 0.00032629883798961188 0.010419306443245473
leaf_weight=85.25 153 288 121.5 132.5 91 139.75 92.75 96.25 64.5
leaf_count=74 153 288 108 121 91 122 86 84 61
internal_value=4.74046e-05 -0.00270068 0.00204443 0.0031199 -0.00460284 0.000984649 0.00547345 0.00243569 0.00663471
internal_weight=1264.5 532 732.5 611 379 321.25 289.75 181.5 197
internal_count=1188 532 656 548 379 280 268 158 182
is_linear=0
shrinkage=0.01


Tree=66
num_leaves=14
num_cat=0
split_feature=21 50 50 40 46 46 44 46 46 51 50 46 47
split_gain=68.6267 46.4005 30.7548 21.1203 10.5219 5.82879 4.82705 11.0158 1.53752 0.754961 0.710431 1.91882 0.197086
threshold=22.410000000000004 -1.6749999999999989 -1.4600000000000002 6.5000000000000009 -2.605 -0.57999999999999996 5.567901234567926 1.8499999999999999 -3.6449999999999991 0.5300000000000008 1.2250000000000008 0.13000000000000081 0.19999999999999976
decision_type=10 8 10 2 10 10 2 8 10 10 10 10 10
left_child=1 -1 -2 6 9 -4 8 -8 -3 -5 11 -7 -9
right_child=2 3 5 4 -6 10 7 12 -10 -11 -12 -13 -14
leaf_value=0.015665897786764617 0.0047366760992376654 0.0079406827232833283 -0.0025171794303792505 0.00047903422757182383 -0.0054260468865180459 -0.0051177027188112458 0.0056780161022552348 0.00024777945764393832 0.004869504712100522 -0.0012420962439635098 -0.0086435806684237466 -0.0054946291403537816 -0.00046809757023324501
leaf_weight=112.75 62 82 87 83.75 89 79 102.5 89.5 77.5 69 92 88 122.5
leaf_count=106 62 68 87 72 89 79 101 74 77 61 92 88 103
internal_value=7.67553e-05 0.00172954 -0.00327468 0.000784574 -0.00161556 -0.00443548 0.00200968 0.00128286 0.00342253 -1.6239e-05 -0.00518832 -0.00469679 -2.34522e-05
internal_weight=1236.5 828.5 408 715.75 241.75 346 474 314.5 159.5 152.75 259 167 212
internal_count=1159 751 408 645 222 346 423 278 145 133 259 167 177
is_linear=0
shrinkage=0.01


Tree=67
num_leaves=11
num_cat=0
split_feature=4 48 48 1 48 23 48 40 23 35
split_gain=101.393 44.9267 37.3801 13.6541 18.4611 13.7987 6.41203 7.62473 4.76788 2.23473
threshold=23.450000000000006 -0.82000000000000006 0.45999999999999824 0.77788564761185042 -1.7900000000000007 13.840000000000002 0.74500000000000111 6.5000000000000009 33.375000000000007 1016.9500000000002
decision_type=2 10 8 2 10 10 10 2 8 2
left_child=2 -2 3 4 -1 -6 -4 8 -8 -3
right_child=1 9 6 -5 5 -7 7 -9 -10 -11
leaf_value=0.0085371985261971633 0.002768690440172365 -0.0075514691388526957 0.0026255083643312244 0.013455630265825153 0.0051054466662240243 -0.0014517989573669787 0.0016841545502776589 -0.0048645403089348591 -0.0013143549736473134 -0.0077504833265413867
leaf_weight=71.75 88 145 110.75 116.75 157.75 84 90.75 81.75 117 145
leaf_count=68 88 145 97 112 135 84 90 73 97 145
internal_value=6.61321e-05 -0.00421941 0.00201996 0.00406188 0.0029552 0.00161556 -0.000180595 -0.000963192 5.98229e-05 -0.00611264
internal_weight=1208.5 378 830.5 430.25 313.5 241.75 400.25 289.5 207.75 290
internal_count=1134 378 756 399 287 219 357 260 187 290
is_linear=0
shrinkage=0.01


Tree=68
num_leaves=13
num_cat=1
split_feature=19 50 41 48 29 3 53 46 1 49 59 46
split_gain=98.9794 33.0762 23.1607 29.5353 10.3231 8.87951 6.86286 3.94861 2.21988 1.64095 0.913012 0.555115
threshold=24.415000000000003 -1.6349999999999996 0 2.0050000000000003 0.42101007166283455 29.070000000000004 1.3525 -0.4000000000000003 -0.40614700388750385 -0.14499999999999955 1.0000000180025095e-35 0.84000000000000175
decision_type=2 10 1 10 2 2 8 10 2 10 2 8
left_child=1 9 -3 4 6 7 -4 -2 -7 -1 -8 -6
right_child=5 2 3 -5 11 8 10 -9 -10 -11 -12 -13
leaf_value=0.010182752295927995 -0.0017487676674527886 -0.0021363872742419265 0.0058184410721482957 -0.0045868090820187345 0.0012508412082400178 -0.0088351009664047134 0.0030384180380196584 -0.0053558545207962839 -0.0096511539022141463 0.0080968325250437671 0.0040637042187812973 -0.00043436933743245615
leaf_weight=101 96 138.25 107.25 123.75 81 61 113.25 113 84 79 75.75 73.25
leaf_count=89 96 137 106 109 81 61 93 113 84 75 62 64
internal_value=-0.000264487 0.00151057 0.000539442 0.00142198 0.00263449 -0.00472973 0.00372331 -0.00337774 -0.00663475 0.00532561 0.00254995 0.000530717
internal_weight=1246.5 892.5 712.5 574.25 450.5 354 296.25 209 145 180 189 154.25
internal_count=1170 816 652 515 406 354 261 209 145 164 155 145
cat_boundaries=0 1
cat_threshold=1536
is_linear=0
shrinkage=0.01


Tree=69
num_leaves=11
num_cat=1
split_feature=19 48 45 41 48 1 46 49 53 46
split_gain=91.3373 54.0004 31.8102 23.6495 24.7961 10.7969 10.7815 10.5761 4.21311 1.50413
threshold=24.330000000000002 -0.64000000000000024 5.6327160493827222 0 1.8000000000000005 0.056951373111866661 -0.70499999999999907 0.080000000000000973 -0.34249999999999931 2.6550000000000016
decision_type=2 8 2 1 10 2 10 10 10 8
left_child=1 5 6 4 8 -1 -2 -5 -3 -9
right_child=2 3 -4 7 -6 -7 -8 9 -10 -11
leaf_value=0.005671020152826888 0.003156912308392339 0.0043578959933631718 -0.0064823997450100023 0.0014759931693701096 -0.0024355505725951201 0.015744947029857927 -0.0059786568622578916 -0.0057867151752931771 0.0083318624528539616 -0.0012958657164588974
leaf_weight=107.25 73 169.5 232 77.25 104.75 131 73 89 67 108.25
leaf_count=102 73 138 232 71 92 123 73 89 66 96
internal_value=0.000287869 0.00209892 -0.00379747 0.000530837 0.00224855 0.00612863 -0.00013587 -0.00162758 0.00410181 -0.00291005
internal_weight=1232 854 378 615.75 341.25 238.25 146 274.5 236.5 197.25
internal_count=1155 777 378 552 296 225 146 256 204 185
cat_boundaries=0 1
cat_threshold=15
is_linear=0
shrinkage=0.01


Tree=70
num_leaves=14
num_cat=0
split_feature=19 48 48 54 20 48 49 47 44 53 51 53 51
split_gain=79.8141 54.7772 41.476 18.0695 9.17006 6.90468 6.47566 2.76383 4.21757 2.10997 1.19565 0.929166 0.128776
threshold=20.475000000000005 -1.6749999999999996 0.43999999999999984 0.78749999999999976 27.620000000000005 1.2850000000000004 0.1449999999999996 -1.0000000180025095e-35 4.2592592592592275 0.73249999999999915 1.3850000000000013 -0.21250000000000033 1.0850000000000011
decision_type=2 10 10 8 10 10 8 10 2 8 8 10 10
left_child=2 -2 6 5 7 -4 9 -3 -9 -1 11 -8 -6
right_child=1 4 3 -5 12 -7 10 8 -10 -11 -12 -13 -14
leaf_value=0.0044754715088375311 0.0066880213057229953 -0.0015329866571631252 -0.00079433770427289683 0.0047742497009555917 -0.0071433275535112599 -0.0041215731082815408 0.002546763461132401 -0.0040627414883185947 -0.005012582886952323 0.0095397234105819156 0.00211345614173608 0.006362389901374969 -0.011939648767513912
leaf_weight=62.5 68 60 107.25 64.5 96 138.5 77.25 74 123.25 117.75 85.75 62 63
leaf_count=62 68 60 96 60 96 120 66 74 123 100 74 61 63
internal_value=7.70224e-05 -0.00305387 0.00219757 -0.000553861 -0.0044137 -0.00179186 0.00429942 -0.00322113 -0.00379189 0.00571783 0.00313882 0.00372019 -0.00630462
internal_weight=1199.75 484.25 715.5 310.25 416.25 245.75 405.25 257.25 197.25 180.25 225 139.25 159
internal_count=1123 484 639 276 416 216 363 257 197 162 201 127 159
is_linear=0
shrinkage=0.01


Tree=71
num_leaves=10
num_cat=0
split_feature=0 50 35 50 3 53 50 47 53
split_gain=102.938 68.718 16.811 19.0933 15.0013 10.3155 5.38258 3.68073 1.153
threshold=134.50000000000003 -1.4050000000000009 1012.4500000000002 0.17000000000000018 26.395000000000003 -0.47250000000000009 -2.0599999999999987 0.44999999999999979 1.3699999999999992
decision_type=2 8 2 8 2 10 10 8 8
left_child=2 6 8 -4 5 -3 -2 -5 -1
right_child=1 4 3 7 -6 -7 -8 -9 -10
leaf_value=0.010212123687283563 0.010766367644855715 -0.00088008625039827598 0.0081762553688845933 0.0030098872102941603 -0.0075366003419882711 -0.0048325739627659223 0.0019929189368049372 -0.00068659044712506478 0.0046419305907886756
leaf_weight=70.25 74 160.75 134 79.5 221 199 72.25 162.25 82.25
leaf_count=70 72 142 118 71 221 199 70 145 68
internal_value=-0.00022484 -0.0026641 0.00313061 0.00198302 -0.00420569 -0.00292977 0.00344184 0.000298415 0.00592062
internal_weight=1255.25 727 528.25 375.75 580.75 359.75 146.25 241.75 152.5
internal_count=1176 704 472 334 562 341 142 216 138
is_linear=0
shrinkage=0.01


Tree=72
num_leaves=12
num_cat=0
split_feature=48 3 1 48 49 48 15 48 48 49 25
split_gain=108.481 89.6973 21.2936 17.3856 14.2543 6.28273 4.75576 4.19091 5.94062 3.93987 1.15384
threshold=-1.3999999999999992 20.595000000000002 -0.25205528343633249 1.8999999999999997 0.089999999999999983 -1.6300000000000006 1016.0500000000001 -0.33499999999999991 1.0249999999999988 0.27999999999999853 23.660000000000004
decision_type=10 2 2 10 10 8 2 10 10 10 10
left_child=5 2 9 7 -3 10 -6 -4 -9 -2 -1
right_child=1 4 3 -5 6 -7 -8 8 -10 -11 -12
leaf_value=0.017184767205856041 -0.00074123799777819053 -0.0012654068333840614 0.0075941401025008742 -0.0016160310734932755 -0.0064403689674134802 0.0038938287961681616 -0.007433444812969826 0.0043301942031898511 0.00083561269720624273 -0.0028384362903871329 0.0098291431935927931
leaf_weight=91.5 77.75 93 90.5 112.25 141 79 170 155.75 89 99.5 79
leaf_count=86 73 93 81 99 141 68 170 138 78 94 79
internal_value=0.000263785 -0.00117239 0.00120217 0.00236238 -0.00483712 0.00616274 -0.00586163 0.00349978 0.00279528 -0.00172317 0.00725102
internal_weight=1278.25 1028.75 624.75 447.5 404 249.5 311 335.25 244.75 177.25 170.5
internal_count=1200 967 563 396 404 233 311 297 216 167 165
is_linear=0
shrinkage=0.01


Tree=73
num_leaves=12
num_cat=0
split_feature=3 48 48 15 18 40 48 40 47 46 54
split_gain=86.9257 49.1896 32.0071 18.5407 14.4004 11.7699 3.73554 3.39558 2.92342 1.31777 0.652135
threshold=25.325000000000003 -1.1749999999999996 -0.91499999999999981 1016.0500000000001 18.660000000000004 7.5000000000000009 0.31000000000000033 7.5000000000000009 0.32499999999999934 -1.6349999999999996 -0.052500000000000206
decision_type=2 8 10 2 2 2 10 2 10 10 10
left_child=1 7 -2 5 8 9 -4 -1 10 -3 -5
right_child=2 3 6 4 -6 -7 -8 -9 -10 -11 -12
leaf_value=0.017257705986775975 0.0016026397818692426 0.0045903570218484317 -0.0050605614685799707 3.8444554902360986e-05 -0.0036316562027862861 -0.00082836813131573585 -0.0093406141840486987 0.0085822366197064424 -0.0012722637664500009 0.0065158812385754218 0.0021504807760258683
leaf_weight=88.25 69 106.5 107 88.5 109.25 81 154 77.25 177 83.5 117.5
leaf_count=84 69 88 107 76 109 77 154 75 157 83 105
internal_value=-6.94472e-05 0.00149739 -0.0044686 0.000421872 -0.000734624 0.00251653 -0.00606407 0.00641872 0.000182197 0.00387029 0.000989382
internal_weight=1258.75 928.75 330 763.25 492.25 271 261 165.5 383 190 206
internal_count=1184 854 330 695 447 248 261 159 338 171 181
is_linear=0
shrinkage=0.01


Tree=74
num_leaves=11
num_cat=0
split_feature=48 23 51 17 25 23 49 30 47 17
split_gain=83.6768 77.3086 14.0883 13.3187 6.72698 5.04559 8.60205 3.68956 1.50685 1.15011
threshold=-1.2100000000000002 18.055000000000003 0.040000000000000487 28.955000000000002 23.350000000000005 17.48 0.59499999999999909 -0.42101007166283444 -0.47500000000000048 24.095000000000002
decision_type=10 10 10 2 8 8 10 2 10 2
left_child=4 2 8 7 -1 -4 -7 -3 -2 -6
right_child=1 3 5 -5 9 6 -8 -9 -10 -11
leaf_value=0.011224451029986968 0.0085298827484346969 -0.0017976930061090279 0.00078784523681913095 -0.0092182196316970173 0.0031571644962011176 0.0010469570314209 -0.004805417656241988 -0.0033033500722580902 0.003532547313356661 0.0056578973942622837
leaf_weight=125 75.75 70 116.25 145 84 136.5 126 195 117.25 61
leaf_count=119 70 70 115 145 75 115 107 195 105 61
internal_value=0.000189553 -0.0011674 0.00120866 -0.00447471 0.00510693 8.55376e-05 -0.000682594 -0.00311796 0.00339856 0.00359097
internal_weight=1251.75 981.75 571.75 410 270 378.75 262.5 265 193 145
internal_count=1177 922 512 410 255 337 222 265 175 136
is_linear=0
shrinkage=0.01


Tree=75
num_leaves=14
num_cat=1
split_feature=20 49 41 45 0 23 50 17 21 46 22 15 54
split_gain=72.4968 29.8791 25.8403 28.0992 12.0392 8.8378 8.21066 7.81181 5.23377 4.96772 2.5845 1.31744 0.214601
threshold=26.625000000000004 -0.17999999999999991 0 7.716049382716057 231.50000000000003 15.330000000000002 -0.044999999999998146 29.935000000000006 13.595000000000001 -2.8450000000000002 18.350000000000005 1018.85 0.73250000000000004
decision_type=10 10 1 2 2 10 8 2 8 10 10 2 8
left_child=1 6 11 4 10 -5 8 -2 -1 -6 -4 -3 -8
right_child=7 2 3 5 9 -7 12 -9 -10 -11 -12 -13 -14
leaf_value=0.0097445889207950741 -0.0040244277985597935 0.0064922309578244767 0.0064176403982284958 -0.0018145541533853716 0.0010181113487336998 -0.0064952432526673059 0.002847447589182196 -0.0093335004470629125 0.0060363583734730055 -0.002457915196033248 0.0028821737089792889 0.0028523353922530891 0.0021373181667347601
leaf_weight=83.5 80 64.5 84 176.75 75.5 84 72.75 126 75 98 90 62.5 88.25
leaf_count=73 80 63 71 151 68 84 66 126 74 98 90 62 76
internal_value=0.000196125 0.00125716 0.000145971 -0.000730487 0.00111844 -0.00321626 0.00380418 -0.00521236 0.00541641 -0.000744133 0.00296804 0.0040521 0.00218866
internal_weight=1260.75 1054.75 735.25 608.25 347.5 260.75 319.5 206 158.5 173.5 174 127 161
internal_count=1182 976 687 562 327 235 289 206 147 166 161 125 142
cat_boundaries=0 1
cat_threshold=12
is_linear=0
shrinkage=0.01


Tree=76
num_leaves=10
num_cat=0
split_feature=22 46 42 45 46 49 45 43 3
split_gain=86.4388 80.4547 17.7036 12.6945 12.6153 4.69482 4.15 3.88543 2.25104
threshold=18.165000000000003 -1.1950000000000001 0.54883787585413535 9.3179012345679055 -0.19999999999999948 1.1050000000000006 6.9135802469135905 -0.38961601727460732 24.755000000000006
decision_type=10 10 2 2 8 8 2 2 2
left_child=2 8 3 6 -4 -6 -1 -3 -2
right_child=1 7 4 -5 5 -7 -8 -9 -10
leaf_value=0.0045051118722523441 0.0076183592042301232 -0.0056727596314481198 0.012533865459726378 -0.001555458953433318 0.0056001898925306225 0.0018030290705880253 -0.00013083353119948171 -0.0052071088560287568 0.0021059452404888369
leaf_weight=164 67.25 316 73.25 89 147 99 119.5 91 60
leaf_count=143 67 316 72 76 131 90 105 91 60
internal_value=0.000211864 -0.00280605 0.00254347 0.001057 0.00426744 0.00315534 0.00208992 -0.00497305 0.00410666
internal_weight=1226 534.25 691.75 372.5 319.25 246 283.5 407 127.25
internal_count=1151 534 617 324 293 221 248 407 127
is_linear=0
shrinkage=0.01


Tree=77
num_leaves=14
num_cat=0
split_feature=17 42 48 50 48 54 53 54 0 35 22 22 58
split_gain=75.739 39.5807 19.8205 14.7275 11.838 10.5492 3.98942 7.3286 2.21031 1.33935 0.193005 0.183249 0.174176
threshold=25.125000000000004 -0.61188073503922691 -1.6749999999999996 -0.32999999999999913 0.080000000000000973 0.17000000000000007 0.43000000000000022 0.33499999999999958 98.500000000000014 1018.4500000000002 9.7750000000000004 5.0050000000000008 1.0000000180025095e-35
decision_type=2 2 8 10 8 10 8 8 2 2 10 8 2
left_child=1 5 -3 -2 8 -1 -6 11 -4 -7 -9 -8 -5
right_child=3 2 4 12 6 9 7 10 -10 -11 -12 -13 -14
